#ifndef CONV2D_1_H
#define CONV2D_1_H

// Pesos para la capa conv2d_1
float conv2d_1_weights[] = {
-0.10244812,
-0.30746785,
0.08241266,
-0.08372952,
-0.0031110041,
0.08572965,
-0.04130214,
0.019162435,
-0.09597515,
-0.04223674,
0.51621664,
0.35616702,
-0.12586987,
-0.038678996,
-0.0076945005,
0.11754976,
0.2804656,
0.06516505,
-0.18960239,
-0.20356065,
-0.27257955,
0.25338507,
-0.014447158,
-0.2566557,
0.2602659,
0.53613955,
-0.09299758,
-0.0052954927,
-0.19335794,
-0.048026152,
0.1248701,
0.03863106,
0.14612117,
-0.1317181,
-0.10218785,
0.09845975,
-0.018023811,
-0.116338864,
0.06660279,
-0.45722553,
-0.3427934,
-0.08580003,
-0.21572366,
0.043611243,
-0.3994306,
-0.05088007,
-0.01611234,
-0.038327813,
0.13584065,
-0.0684912,
0.12255536,
-0.025319753,
0.0147396615,
-0.24050714,
0.1610389,
-0.6492174,
-0.023307944,
-0.054468133,
-0.0450874,
-0.5210863,
0.15397133,
0.09514953,
0.14409515,
-0.35807103,
0.06386106,
-0.2186403,
-0.03830345,
0.20651373,
-0.05874723,
-0.16917917,
-0.14962767,
0.0860036,
0.008454346,
-0.079726234,
0.15696703,
0.09459943,
-0.011726996,
0.06940478,
-0.057455257,
0.1342917,
0.22450444,
-0.1208684,
0.06861503,
-0.24060483,
0.0053083804,
0.15875834,
-0.37991723,
-0.2799014,
0.20480998,
0.26618063,
-0.1201427,
-0.16330639,
-0.033010922,
0.01630219,
-0.1649945,
0.0041773478,
0.29898316,
-0.4383406,
-0.030788148,
-0.18769704,
0.014543737,
-0.0061846673,
-0.12571652,
-0.27182683,
0.11613222,
-0.115166366,
-0.054870516,
-0.07384596,
0.07980319,
-0.08582627,
0.021288184,
0.028954765,
0.14472552,
0.05890123,
-0.11767803,
0.0048643295,
0.10386759,
-0.27011928,
-0.22749989,
-0.1958357,
0.11631907,
-0.015922967,
0.032282524,
-0.19437887,
0.20118226,
-0.05908508,
0.096528634,
-0.19069658,
-0.04385073,
-0.22762379,
-0.116053626,
-0.31398812,
-0.0046717357,
0.09021757,
0.023869019,
0.22757329,
0.046766844,
0.08477686,
0.1429556,
0.013590301,
0.095400125,
-0.13554299,
-0.10629518,
0.19733965,
0.22746585,
-0.1411157,
-0.1511566,
0.084836476,
-0.28470433,
0.12946486,
0.08277717,
0.25917774,
-0.110408,
0.42691392,
-0.2564854,
-0.9134243,
-0.4213329,
-0.052830204,
-0.04908569,
-0.048948992,
0.19821224,
-0.08100427,
-0.08097115,
0.14738491,
0.02526635,
-0.024752049,
0.2913294,
-0.76700866,
-0.42869613,
-0.14874257,
0.07359239,
-0.052021995,
-0.71617115,
-0.010909602,
-0.06423682,
-0.022636293,
0.03341782,
0.26940963,
-0.104743585,
0.010189751,
0.0425196,
0.099105686,
0.023516735,
-0.5565738,
0.16121303,
-0.31879097,
-0.05357786,
-0.13579427,
0.08049976,
-0.0639169,
0.10715598,
-0.48812422,
-0.0042524952,
-0.3146563,
-0.08833533,
-0.2774546,
-0.06648362,
0.095947884,
-0.09291485,
0.04999936,
-0.13796262,
-0.23200424,
0.17569447,
-0.12214698,
0.07099641,
-0.3020996,
-0.016404634,
0.10683647,
0.17626654,
-0.21675754,
-0.07857881,
-0.001808639,
-0.27203754,
0.06838368,
-0.22091542,
0.20373835,
-0.098153405,
0.4282768,
0.066620484,
-0.31674817,
-0.6633886,
0.042537473,
-0.19941391,
-0.072321154,
0.056281593,
0.011772051,
-0.07435008,
0.020193465,
-0.011900984,
0.117159426,
0.06547633,
-0.30384842,
-0.20576377,
0.020262247,
-0.019426344,
0.03001553,
-0.17018697,
0.0141871255,
-0.023954434,
-0.06662491,
0.14244404,
0.091319494,
0.002217865,
-0.02165508,
-0.30388775,
0.010869737,
0.21886645,
-0.7031116,
0.11401533,
-0.52020437,
-0.012998309,
-0.09995156,
-0.030198615,
-0.1475043,
0.15542789,
-0.53322065,
0.016477136,
-0.079607695,
-0.26557922,
-0.29221165,
0.0014796486,
-0.38116217,
-0.54845345,
0.09362329,
-0.11157426,
0.121113025,
0.2036763,
0.05766233,
-0.190606,
0.0087056765,
-0.08294514,
-1.0056349,
0.18590727,
0.33337048,
-0.1367376,
-0.018798059,
-0.22777225,
0.00012584982,
0.12229478,
-0.5619402,
-0.2112771,
0.16625944,
0.12641162,
0.21231517,
0.21854046,
-0.0659201,
0.079449214,
-0.0951105,
-0.15298378,
-0.5627811,
0.056202356,
-0.42674798,
-0.029998906,
0.08767586,
0.13896073,
-0.14496017,
-0.062370725,
-0.13026333,
-0.34445593,
-0.06400192,
0.026201928,
-0.03846324,
-0.36539623,
-0.091442496,
-0.030189391,
0.20526733,
-0.076853156,
-0.08292754,
-0.020983936,
-0.18060412,
0.13491161,
-0.24470039,
-0.2826498,
0.10445106,
-0.036118638,
0.15740135,
0.05859568,
0.06304496,
-0.5262027,
-0.06486804,
-0.09638036,
-0.08690538,
0.056288004,
-0.038189758,
0.055894125,
-0.08928551,
0.156416,
-0.18842445,
-0.1419719,
0.20536527,
0.1170223,
0.27771047,
0.0026137263,
-0.16161565,
-0.03667019,
0.08406921,
0.2237841,
0.20166318,
-0.132899,
-0.32340875,
0.0016405741,
0.099439435,
0.112450756,
0.32074052,
0.15262997,
0.20799388,
0.040487733,
-0.64317757,
-0.31082487,
-0.10757725,
0.2807396,
0.053078633,
0.3734619,
-0.0076676756,
-0.0823508,
-0.06608666,
-0.040403165,
-0.021825418,
0.49038753,
-0.8354116,
-0.35466582,
-0.032548912,
0.06623495,
-0.05930998,
-0.61755174,
0.058163766,
0.048906766,
-0.03863318,
-0.066470526,
0.116437145,
-0.08059993,
-0.0970646,
-0.013228838,
0.10834544,
0.12125095,
-0.49228007,
-0.33428764,
0.093058474,
0.008445263,
0.10645422,
0.16649185,
0.13401908,
-0.17613712,
-0.24392298,
0.045185227,
0.080627896,
-0.084310316,
-0.6354326,
0.091583595,
-0.2951572,
-0.48505145,
-0.0049724295,
-0.06305234,
0.27412826,
-0.21748273,
0.08878878,
0.15667525,
-0.22569577,
0.01959639,
-0.3905051,
0.12562247,
-0.13275,
0.15938021,
-0.2788598,
-0.04498149,
-0.03823919,
0.16417108,
0.12976415,
-0.25597948,
0.11746982,
-0.51800674,
0.22371946,
-0.220246,
-0.03040761,
0.06807113,
0.0043837833,
0.012543538,
-0.1448717,
-0.06382241,
-0.21401455,
-0.06436981,
0.13941962,
0.23318243,
0.23294744,
-0.29239735,
-0.06664189,
0.053684767,
-0.05447294,
-0.35511735,
0.06006785,
-0.17071901,
0.057766624,
-0.26746926,
0.038679898,
-0.36222693,
-0.07408056,
0.13893142,
-0.017515095,
-0.4068121,
-0.86836106,
0.35013592,
-0.03499535,
0.011494826,
0.22349219,
-0.2955841,
0.11132596,
-0.33216038,
-0.5283546,
-0.049234845,
-0.108651735,
-0.23997302,
0.2407565,
0.01493048,
0.12090345,
-0.32174572,
-0.079605676,
-0.08919604,
0.19115761,
0.5889137,
0.26644096,
0.0015712344,
-0.19353694,
0.03560148,
-0.16673112,
-0.0061021955,
-0.3474907,
-0.18370527,
-0.12022851,
-0.3629474,
0.37227464,
0.058794893,
-0.12878118,
-0.060009383,
0.36164996,
-0.14390504,
0.239746,
-0.0033505904,
-0.051457997,
-0.3180339,
-0.002828174,
0.25343335,
-0.18185183,
0.08006872,
0.087612286,
-0.06186331,
-0.115335286,
0.22545213,
-0.3500056,
-0.5349044,
0.07223225,
-0.25346115,
-0.077993095,
-0.18785538,
-0.01584471,
-0.14078136,
-0.024752852,
-0.338633,
-0.5012504,
0.097878225,
0.02926966,
-0.0321691,
-0.50227964,
0.061539486,
-0.16395736,
0.2339461,
-0.014470027,
-0.03507361,
0.16306008,
0.09592928,
0.25181174,
-0.30321294,
0.089345455,
0.018329892,
-0.10512982,
-0.21299028,
-0.0883064,
0.009882741,
0.51256686,
0.18574077,
-0.2401195,
0.03579171,
-1.487989e-05,
-0.0721566,
0.24076414,
-0.28342512,
-0.35246482,
-0.080664866,
-0.14936297,
-0.030371517,
0.16793819,
-0.5906929,
-0.23521659,
-0.1490227,
0.08800521,
0.24078292,
0.6202727,
0.23953405,
0.1157695,
-0.3074894,
-0.032960687,
0.11404962,
-0.019367097,
0.2795987,
0.020569364,
0.09833627,
0.12124292,
-0.090036295,
-0.29438537,
-0.117333435,
-0.06998573,
0.7297195,
-0.2327101,
-0.18534966,
-0.03901376,
0.024533462,
0.041245986,
-0.33866134,
-0.014662837,
-0.19993101,
-0.05078065,
-0.15555456,
-0.09027606,
-0.30715212,
-0.079152,
-0.058196258,
0.010649314,
0.31777555,
-0.2813904,
-0.31792864,
0.31967854,
-0.02203675,
0.14225131,
0.115891516,
0.2990883,
-0.52800506,
-0.16169025,
0.02308402,
-0.19687979,
-0.3286259,
-0.17980249,
-0.13228157,
0.0081987465,
-0.39202502,
0.02823091,
-0.071167044,
0.46121734,
0.3224202,
0.1831683,
-0.43714324,
-0.10574673,
-0.016133958,
-0.60696375,
0.050369844,
0.34321657,
-0.32115787,
-0.33663082,
0.16381834,
0.20004241,
-0.084455535,
-0.11529029,
0.14610389,
0.11358345,
-0.050461013,
0.14022323,
0.174832,
-0.06767509,
0.115367934,
-0.059259623,
0.21958274,
-0.43112782,
-0.09908352,
-0.26431832,
-0.033988215,
-0.05998274,
0.33614868,
-0.5424681,
-0.028887244,
-0.09615803,
-0.5239032,
-0.0054039797,
-0.86789984,
0.019520551,
-0.44058743,
0.00032806568,
0.2563358,
0.003625587,
-0.33140472,
-0.10024594,
-0.14283949,
-0.34448233,
0.17299852,
-0.16735987,
-0.26265785,
0.27806234,
-0.020972423,
-0.19202304,
0.10543052,
0.20924085,
-0.6953095,
-0.13889831,
-0.0231665,
-0.22502418,
-0.4314381,
-0.2323828,
0.09508715,
-0.048766527,
0.054945126,
0.38379928,
-0.020709904,
0.055555288,
0.64801395,
0.48545825,
0.075179465,
-0.28511116,
-0.039744645,
-0.21773675,
-0.007995266,
-0.26566458,
-0.16604811,
-0.0025062072,
-0.36096656,
0.60713416,
-0.16513787,
0.022999885,
-0.25158364,
0.48443788,
-0.064159274,
-0.35617736,
-0.09456259,
0.03901419,
-0.028825287,
0.028517354,
0.356717,
0.4293762,
-6.670206e-05,
-0.073116444,
0.030880973,
0.25139615,
0.3141248,
-0.26624066,
-0.28352147,
-0.06979561,
-0.06701966,
-0.07680467,
-0.6281862,
0.03316213,
-0.4903422,
-0.011253123,
0.23907018,
-0.016406402,
-0.106493145,
-0.100298576,
-0.1842641,
-0.17620966,
-0.16055517,
-0.45645246,
-0.038948983,
-0.6284771,
-0.08350154,
-0.0067241755,
-0.015028645,
-0.116783135,
-0.06150411,
-0.16639867,
-0.039818306,
0.062937,
-0.42551488,
-0.2807612,
0.06715232,
-0.28380483,
-0.05273618,
0.33617398,
-0.16161567,
0.06483576,
0.22821034,
0.23611277,
-0.36093265,
-0.1807235,
-0.0037425694,
-0.07474845,
0.025213934,
0.11394663,
-0.07683552,
-0.28016207,
0.09912061,
0.27421966,
-0.034281667,
0.16132249,
-0.25669473,
0.26420382,
-0.20432557,
-0.34834683,
0.3630382,
-0.0682261,
-0.07544929,
-0.07489255,
0.3227684,
-0.0416599,
0.015352098,
-0.15301444,
0.019501219,
0.1582046,
0.30392268,
-0.20855749,
-0.15418519,
-0.040309656,
0.24404077,
-0.062840536,
-0.36061382,
0.030234652,
-0.47415033,
0.017468918,
0.029232388,
0.049662977,
-0.17719817,
-0.046579115,
-0.012671106,
0.58200055,
-0.051329277,
-0.36902928,
-0.1234153,
-0.29156885,
0.06254632,
0.4705799,
0.24610487,
0.035481155,
-0.02852474,
-0.28982556,
-0.08393601,
-0.14962332,
-0.095822416,
0.12013505,
-0.062468417,
0.18384984,
-0.04546864,
0.084594876,
-0.069155455,
0.018780397,
0.41060832,
0.17216769,
0.067735255,
-0.0043421546,
-0.027182057,
-0.034959298,
0.055504594,
0.034249846,
0.007408522,
-0.28400353,
-0.30882233,
0.2360605,
0.17072807,
0.33794865,
0.29747066,
0.07994989,
-0.06282251,
-0.37654138,
-0.1341674,
-0.060626585,
0.025541425,
0.042616636,
-0.063907474,
-0.08468874,
0.01508952,
0.004358669,
-0.088211395,
0.032881267,
0.18868189,
-0.39771903,
-0.6813782,
-0.093046516,
0.05249428,
-0.06834087,
-0.16460942,
-0.06933871,
0.0005375808,
0.07263293,
-0.13125369,
-0.39786008,
-0.07979429,
-0.030500595,
-0.04204191,
-0.024128208,
0.18472955,
-0.2891248,
0.21934383,
0.14430326,
0.03556913,
0.064338446,
0.09956313,
0.19142278,
-0.082875796,
-0.07433205,
-0.015213188,
-0.2276645,
-0.413556,
0.00077669864,
-0.051947672,
-0.2061495,
-0.58937156,
-0.047810793,
-0.0049380735,
0.19170244,
0.04831687,
0.010937265,
-0.19821246,
0.17810255,
-0.0008302282,
-0.44006622,
-0.13975993,
0.10450989,
-0.22190014,
-0.14174977,
0.0852115,
0.19728118,
0.45590046,
-0.15500204,
0.16384475,
0.1377188,
5.9898473e-05,
0.2562388,
0.08158918,
0.0039349203,
0.13360044,
-0.068971515,
0.28482684,
-0.5979353,
-0.03379031,
-0.44531357,
0.020865133,
0.33371383,
0.28841987,
-0.07056967,
-0.16346274,
-0.2042678,
-0.1564807,
0.025778437,
0.16125324,
-0.089686975,
-0.4191095,
0.053684797,
0.17313701,
0.1403836,
-0.11419272,
-0.027851358,
-0.38960585,
-0.0753509,
-0.1312386,
0.090342544,
-0.41706976,
0.08189767,
-0.045271818,
0.27392277,
-0.27214983,
0.06618183,
-0.4397448,
-0.13358523,
0.07625112,
-0.06716251,
-0.11774985,
-0.055790983,
-0.013174229,
-0.018340658,
-0.078223124,
-0.06768674,
-0.023890128,
-0.05270213,
-0.0023780921,
0.17066744,
-0.10992516,
-0.48290023,
-0.05459516,
-0.14947279,
-0.05601155,
0.17225204,
-0.19486755,
-0.2654044,
-0.049824588,
-0.061270148,
0.26707435,
0.079190455,
-0.17389691,
-0.103680044,
-0.18194437,
-0.105110824,
-0.022964666,
-0.06726647,
0.022932861,
-0.04381369,
0.04363998,
-0.01790833,
0.14296222,
-0.17376043,
-0.08116313,
0.056093197,
0.103942566,
0.001226779,
-0.3590529,
-0.08491222,
-0.08909441,
-0.052508257,
-0.12349399,
-0.034633555,
-0.5827692,
-0.006218149,
-0.19728777,
0.35541415,
-0.17359059,
-0.08596983,
0.15234599,
0.11005127,
0.11202977,
-0.45881093,
-0.16528304,
0.07790772,
-0.047247637,
-0.05377058,
-0.23568231,
-0.024712168,
-0.08448362,
-0.03326276,
0.029543357,
-0.26397327,
-0.25643206,
-0.027120374,
-0.008258255,
0.24565107,
0.04533554,
0.06773156,
-0.049671702,
-0.09641617,
0.46841642,
0.10788063,
0.0005637798,
-0.28530458,
-0.019910688,
-0.010835608,
0.11882446,
0.34753367,
-0.36684477,
-0.066178955,
0.033960074,
0.45305175,
-0.102461405,
0.11808237,
0.23577774,
0.5236209,
0.259306,
-0.35502216,
-0.2973568,
6.492784e-05,
0.18907751,
-0.07867634,
0.4917099,
-0.08006641,
-0.10628285,
-0.08496695,
-0.08374639,
-0.04723496,
0.27676854,
-0.12043956,
0.017948084,
-0.08621997,
0.040299207,
0.03281974,
-0.2974383,
-0.08308718,
-0.19982803,
0.017827872,
0.26097783,
0.27465656,
-0.025034554,
0.037169065,
-0.17693684,
0.14895967,
0.34427541,
-0.34306887,
-0.24127299,
0.098805964,
-0.055086087,
0.38129872,
-0.07539727,
-0.21310525,
0.06301474,
-0.19402397,
-0.03995346,
-0.080256864,
-0.32466137,
-0.13965937,
0.08003398,
0.001752225,
-0.1737534,
0.2989626,
-0.024520356,
0.19022946,
0.053851433,
0.28589055,
0.11151361,
-0.0605495,
-0.085252956,
-0.21298991,
-0.028234707,
-0.17639014,
-0.08148716,
-0.0996899,
-0.14031799,
-0.04825564,
-0.056860413,
0.12330658,
0.050225347,
0.17875943,
-0.24763864,
-0.040937927,
0.10448839,
-0.063303284,
0.043379936,
0.028765256,
0.01611392,
-0.12993094,
0.06204802,
-0.13496333,
-0.031077582,
0.26866803,
0.26955885,
-0.19194901,
0.019824604,
-0.04279499,
0.166775,
-0.009055589,
-0.17344938,
-0.027564956,
-0.19030076,
0.0024328313,
-0.07362524,
0.09756733,
-0.17264734,
0.020279497,
-0.062808126,
0.046713274,
0.25160295,
-0.2905189,
-0.039406817,
-0.24758984,
-0.07331967,
-0.23829897,
-0.043460682,
0.088121496,
-0.16544208,
-0.35047877,
-0.046906404,
-0.6812288,
-0.13439031,
0.22668312,
-0.06985484,
-0.055067386,
-0.5113934,
0.6403535,
-0.018684635,
-0.058651835,
0.19702911,
-0.19447112,
-0.028965067,
0.30638674,
-0.02916361,
-0.13516444,
0.08295356,
-0.08206208,
0.07587094,
-0.18946366,
0.16265978,
0.15496658,
-0.12738828,
-0.36715454,
0.08112935,
0.09226671,
0.19550882,
-0.020164937,
0.08660037,
-0.08630728,
-0.19015567,
0.007029086,
0.2199417,
-0.37071985,
0.021170702,
0.20264201,
-0.04388663,
-0.072174676,
-0.120828554,
0.117059804,
0.008125889,
-0.08298339,
-0.13494498,
-0.007464911,
0.048164226,
-0.014108973,
-0.10850839,
0.012456284,
0.26908314,
0.11294349,
-0.35423008,
-0.016835501,
-0.25287813,
-0.15519387,
-0.5892888,
-0.23318978,
0.17081803,
-0.107196465,
0.03814702,
0.00607409,
-0.031761408,
-0.20760305,
0.11521906,
0.011106978,
-0.032380115,
-0.15869766,
-0.3449697,
0.043870132,
-0.019276487,
-0.04403233,
0.035518352,
0.08285049,
-0.13143243,
-0.26379353,
0.6319725,
0.032907467,
-0.0040183663,
-0.45977834,
0.080089,
-0.18094242,
0.22695655,
0.055015903,
-0.19293249,
-0.13259089,
0.058765285,
0.36082768,
0.01233613,
-0.19632065,
0.10668691,
0.47931716,
0.1883508,
-0.19847289,
0.21777564,
-0.088838615,
0.18972537,
-0.048983123,
0.26086643,
0.041614786,
-0.06327694,
-0.11748837,
-0.0028740685,
0.116742656,
0.06799202,
0.20850973,
-0.22222725,
0.019753201,
0.10464016,
-0.08784049,
-0.10238733,
-0.05230765,
-0.48757833,
-0.018995052,
0.05004737,
-0.15148273,
0.052606497,
0.029057855,
-0.3094507,
-0.36550727,
0.06271537,
-0.50644386,
-0.30494645,
0.019675476,
-0.025947576,
0.19031852,
-0.23049904,
-0.36531043,
0.09318455,
-0.19023116,
-0.043854594,
-0.41762167,
-0.62863505,
-0.15028618,
0.008326203,
-0.20606954,
-0.3737332,
-0.32207072,
-0.0913628,
0.103740945,
0.095141195,
-0.17427583,
-0.19720654,
-0.839356,
-0.058375582,
-0.24471003,
-0.102951005,
-0.23317705,
-0.18190067,
-0.1672392,
-0.23664325,
0.3208095,
0.070008114,
-0.28519025,
-0.35164613,
0.19922933,
0.13659908,
-0.111304,
-0.24248421,
0.03231759,
-0.22958297,
0.042267803,
0.3088217,
-0.38711384,
-0.02361377,
-0.058516216,
-0.09358972,
0.039885476,
0.070455626,
0.22121327,
-0.26144743,
0.038400713,
-0.34687096,
0.018559199,
0.26176932,
-0.05858276,
-0.25455657,
-0.034328897,
0.025973214,
-0.21412945,
-0.28621268,
-0.09075383,
-0.13131157,
-0.48263174,
-0.18568002,
-0.2466348,
-0.18071212,
-0.59907037,
0.045293525,
0.16478902,
-0.32199875,
-0.19825357,
-0.18635274,
-0.054746415,
-0.03969935,
-0.6781893,
-0.37316585,
0.13499624,
-0.05564897,
0.08028005,
-0.4254244,
0.52579975,
-0.12614846,
0.07113664,
-0.14155886,
-0.40404922,
0.06251398,
0.10030168,
-0.09417288,
-0.037239704,
-0.06649971,
-0.5271057,
-0.12094412,
-0.65224737,
0.05862071,
-0.11830046,
-0.16525815,
-0.25061512,
-0.086727895,
-0.13209456,
-0.4809698,
-0.74214375,
-0.20098855,
0.059179153,
-0.11201919,
-0.054405987,
-0.13639624,
-0.26381907,
-0.105126955,
0.24729358,
-0.097363696,
-0.2441137,
0.036942825,
0.06681739,
-0.39471668,
0.033788655,
-0.0983024,
-0.10563839,
0.23175517,
0.033376116,
-0.111915685,
0.014343906,
0.21486047,
-0.036405213,
-0.38672704,
-0.0040993867,
-0.46259594,
-0.17513813,
-0.1549785,
-0.31649077,
0.43482015,
-0.6710359,
-0.07302964,
-0.014974035,
-0.1487721,
-0.16232485,
0.14583817,
-0.3731599,
-0.006087499,
-0.4222328,
-0.33274466,
0.44716585,
-0.0019445826,
-0.30914798,
-0.6696622,
0.381373,
-0.14399846,
-0.27083203,
0.15890795,
-0.15878694,
-0.05973824,
-0.08847558,
-0.016838958,
-0.24781793,
-0.14137557,
-0.25432298,
0.12157973,
-0.081454374,
0.03515636,
0.33128324,
-0.06950226,
-0.40831268,
-0.06935886,
-0.0010137941,
0.15640227,
0.0016117864,
-0.04644701,
-0.013713323,
-0.27184188,
-0.017202396,
-0.23923737,
-0.44088724,
-0.022261743,
-0.008697795,
-0.055980213,
-0.18282025,
-0.064649366,
0.36352858,
-0.5419103,
-0.07422092,
-0.17778993,
-0.056932673,
0.35531333,
-0.02873003,
0.01852781,
0.030283121,
0.16176796,
0.037844516,
-0.36263043,
-0.03338405,
-0.117830314,
-0.42147663,
-0.5258902,
-0.37727425,
0.011131436,
-0.57913,
-0.006590629,
0.1442038,
-0.07230778,
-0.25773966,
0.24040887,
-0.034999914,
0.01631294,
-0.11671368,
-0.6569578,
-0.18261181,
0.007442384,
0.22272715,
0.24965988,
-0.032043498,
-0.13233487,
0.10984836,
-0.20823725,
0.2884418,
-0.1543054,
-0.4210981,
-0.0506639,
-0.21086062,
0.10203407,
0.20115761,
-0.096406534,
-0.5797213,
-0.14674425,
0.077084504,
0.2667788,
0.23283833,
-0.06497179,
0.23732634,
-0.24096514,
-0.40884635,
0.09353433,
-0.061601896,
0.09230525,
0.033392813,
0.2813718,
0.28925347,
-0.010226715,
-0.08178129,
-0.070886716,
-0.0008875608,
0.3278507,
-0.22774483,
-0.0403886,
0.045531172,
-0.041970167,
0.012297138,
-0.015755793,
-0.05419215,
-0.41866142,
-0.03678602,
0.24042208,
-0.07789839,
0.27820805,
-0.030413004,
-0.30945677,
0.06461078,
-0.32584783,
-0.3110292,
0.16959678,
-0.12504324,
-0.07545963,
0.24774757,
0.3133787,
0.49011904,
0.037181675,
-0.109340824,
-0.049017724,
-0.20925137,
-0.11122627,
0.40632176,
-0.07453214,
0.3296471,
0.022419153,
0.1429774,
-0.13937679,
0.20856503,
0.5763633,
0.2544347,
-0.0523211,
-0.041010696,
-0.06011201,
-0.13817886,
-0.1222961,
-0.1745151,
0.00025651287,
-0.13109231,
0.10835124,
0.41805142,
-0.33245715,
-0.09176787,
0.47069618,
0.3784043,
0.2198831,
-0.32157966,
0.06275356,
0.034778263,
-0.052840378,
-0.069408186,
0.4495832,
-0.26396674,
-0.05526996,
-0.26872268,
0.015618602,
-0.056538586,
0.11246397,
-0.035617612,
-0.2846407,
-0.0677263,
-0.3714503,
0.019234091,
-0.0851955,
0.035291437,
-0.11754687,
-0.032304328,
0.24004337,
-0.13314728,
-0.25824007,
-0.084160246,
-0.080535285,
-0.35344955,
-0.5349445,
-0.20826885,
-0.15383515,
0.12550631,
0.016592909,
-0.115240686,
-0.027569659,
-0.422888,
-0.12477251,
-0.058880325,
0.023321996,
-0.23382996,
-0.21397024,
0.10647151,
0.0002374661,
0.17058316,
0.07895386,
-0.021797879,
-0.085116655,
0.060626432,
0.14931214,
-0.08243356,
0.1658336,
-0.5588884,
-0.042526193,
0.07246808,
0.320245,
-0.21723537,
0.033014253,
-0.028879296,
-0.3848436,
0.14458454,
-0.19959515,
0.37375146,
-0.005088193,
-0.051234506,
-0.1907807,
-0.4196455,
-0.4254817,
0.012520796,
-0.074326634,
-0.07001281,
0.089665405,
-0.14294335,
-0.064643644,
0.2916665,
-0.081529066,
-0.10844487,
0.38605013,
-0.22023,
-0.77821064,
0.004977463,
0.013716877,
0.014351506,
-0.46746948,
-0.082694,
-0.008784237,
0.060000166,
-0.29797173,
-0.20601115,
-0.27480426,
-0.016886992,
-0.26488665,
-0.119682856,
-0.14295663,
-0.47143203,
0.29235128,
-0.2840822,
0.022853624,
0.104289286,
-0.14455989,
0.092283875,
-0.066058666,
-0.47763476,
-0.00012915321,
-0.5445451,
-0.37903625,
-0.3627032,
0.073883615,
0.36921462,
0.011970932,
0.028909136,
-0.06505418,
0.23934855,
0.5643824,
0.10248314,
0.09257319,
0.022759877,
0.034794852,
0.008036943,
0.05474693,
0.054220766,
-0.1726253,
-0.22549699,
0.061775383,
0.21280015,
-0.13858718,
-0.05790448,
-0.10404608,
0.44324163,
0.24805534,
-0.04577255,
0.25393867,
-0.03790865,
0.08845328,
-0.09571083,
0.100002274,
0.29127198,
-0.055295195,
0.017656935,
-0.052208927,
0.06506737,
-0.020819899,
-0.29515874,
-0.32703826,
-0.055992533,
-0.20184995,
0.032657403,
-0.454444,
0.037300527,
-0.10035023,
-0.08441969,
0.09901353,
-0.16702059,
0.0069094207,
-0.11344325,
-0.1864052,
-0.077254996,
-0.059700675,
-0.36333522,
-0.0030092406,
-0.20374155,
-0.05896034,
-0.12197011,
0.0286429,
-0.010185838,
0.06959466,
-0.32880187,
0.057085447,
0.24174753,
-0.30707952,
-0.18837158,
0.06843776,
0.14857991,
-0.14441475,
-0.1550078,
0.10551527,
0.03166184,
0.1680188,
0.14602086,
0.18399528,
-0.3101583,
0.03255635,
-0.09411045,
0.09358316,
0.21350622,
0.4737273,
-0.008649357,
0.024304679,
-0.04780566,
-0.40737194,
0.48135084,
-0.24916507,
0.041920625,
-0.049470574,
0.17131287,
0.15264502,
0.00017972813,
0.24926239,
0.08161486,
0.09353232,
-0.29581788,
-0.040383734,
-0.2089468,
-0.097103156,
0.094671525,
-0.3516612,
0.4792806,
0.16620398,
-0.07071005,
-0.20520753,
0.032300685,
-0.13699384,
0.046981826,
0.083317205,
0.03867806,
0.4577026,
-0.29380634,
0.0068588145,
0.02940142,
0.31743556,
0.104150735,
-0.3046133,
-0.057985466,
-0.14985237,
0.08211361,
0.06291809,
0.0019124388,
0.04151804,
-0.15792798,
-0.054097656,
-0.24946587,
-0.07218525,
-0.3550077,
0.1019738,
-0.10913443,
-0.08132828,
-0.26224166,
-0.2182714,
0.33781657,
-0.0625881,
-0.008220447,
0.032474615,
-0.109806195,
0.09405863,
0.2803665,
-0.09762482,
0.073061675,
0.10544754,
0.10087154,
-0.020524766,
-0.2735779,
0.1419563,
-0.05042682,
-0.14924492,
-0.2500289,
0.115271315,
0.16047454,
0.015638025,
0.21274215,
0.03328711,
-0.04126311,
-0.081559666,
0.034407496,
-0.0834761,
-0.2730348,
-0.011990619,
0.079865426,
-0.02060503,
-0.2795681,
-0.35561085,
-0.20607238,
-0.022153044,
-0.011893484,
-0.36040112,
-0.06405339,
0.024830246,
-0.11053283,
0.019809864,
-0.03153665,
0.17114268,
0.27894738,
0.061455086,
-0.018485842,
-0.00034395777,
-0.031768963,
-0.23133644,
-0.30412236,
-0.09766201,
0.11049229,
-0.05130877,
-0.1389387,
0.06757095,
0.14979327,
0.1561125,
-0.014483139,
-0.065481804,
-0.060971115,
0.1512322,
0.24265419,
-0.0981249,
0.029345622,
-0.1624811,
-0.062548086,
-0.058170993,
-0.06406629,
0.5786016,
0.13145013,
-0.14836824,
-0.11263111,
0.03587318,
0.21193941,
0.104851484,
0.09279556,
-0.1869764,
-0.25966033,
-0.17587481,
0.16864406,
0.33047077,
0.15441786,
0.3128556,
0.3505752,
-0.08255584,
-0.19332981,
-0.22767982,
-0.016827984,
0.14114925,
-0.01697192,
0.13797861,
-0.33113348,
-0.007411869,
-0.15515873,
-0.11581501,
-0.07371252,
0.30147853,
-1.0752022,
-0.284732,
-0.106484585,
-0.26784006,
-0.006437344,
-0.54517424,
0.025428738,
0.05663379,
-0.0035165905,
-0.30984676,
-0.3281142,
0.20140237,
0.0047849137,
0.02086,
-0.07406169,
0.29968977,
-0.21443737,
-0.21819396,
0.42688057,
0.05702904,
-0.20579408,
0.2178263,
0.3369184,
-0.18056571,
-0.14280581,
0.069139436,
0.1146119,
-0.39129737,
-0.33320194,
0.0016726594,
-0.06179768,
0.08127996,
0.02750299,
-0.022177553,
-0.2469248,
0.070019044,
0.12307164,
-0.1254994,
-0.4174835,
0.008605825,
-0.14489117,
0.14787534,
0.15187055,
-0.10142957,
-0.037760645,
-0.19130209,
0.2746945,
0.07422355,
0.34205088,
-0.070229396,
0.008595666,
0.18095343,
0.08503203,
0.14141427,
-0.07323918,
0.033273492,
0.027483474,
0.16219592,
0.22975159,
-0.04252385,
-0.3109582,
-0.07867054,
0.3421441,
0.3797938,
-0.4452264,
0.05521353,
0.09221618,
0.16924985,
0.042017143,
-0.43931356,
0.04795244,
-0.3137259,
-0.09582351,
-0.05533347,
0.036090046,
-0.039407242,
-0.04550331,
0.31052974,
0.35075825,
0.043659866,
-0.36086202,
-0.20060086,
-0.4411157,
0.031888377,
-0.033168674,
0.34526393,
-0.024327587,
-0.06129458,
-0.12189743,
0.017110031,
0.093744196,
-0.63800377,
-0.18514638,
0.039326675,
0.2325833,
0.004657643,
-0.3593728,
0.026365057,
0.23665357,
0.15567526,
0.16652752,
-0.118233964,
-0.7111505,
-0.029232668,
-0.24417321,
-0.09779887,
-0.017631331,
-0.51377875,
0.16272923,
-0.080918886,
0.24273248,
-0.022416525,
0.10979441,
-0.1004204,
0.20311473,
0.060044378,
-0.23610738,
-0.14745317,
-0.06471345,
-0.2707798,
-0.035302944,
0.25465256,
-0.014259752,
-0.04256928,
0.102123834,
-0.10228015,
0.08858169,
0.25586936,
0.12068063,
-0.5382725,
0.061826598,
0.006580074,
0.01637397,
0.3773548,
0.0072629414,
-0.24902847,
0.036391955,
-0.01545503,
-0.1849905,
0.20652935,
-0.04755327,
0.0017788531,
-0.33540627,
-0.30598322,
-0.3807087,
-0.04253281,
-0.2682594,
0.07302584,
0.23003879,
-0.031070372,
0.15652713,
-0.22746466,
-0.032553457,
-0.026265172,
-0.2216509,
-0.18944062,
0.053661644,
0.040401135,
0.00057206576,
-0.3241517,
0.04846523,
-0.0009507271,
0.09264072,
0.018582271,
0.13907956,
-0.117696576,
-0.18663827,
-0.067370504,
-0.2858894,
-0.1427788,
0.032142006,
0.06842792,
0.049106333,
0.01613187,
0.37178555,
0.17840336,
-0.17445393,
0.081135094,
-0.14857617,
0.175936,
0.14638625,
0.08883109,
0.01475252,
-0.08218553,
-0.08899002,
-0.06049902,
-0.08623997,
0.021163974,
-0.13850282,
0.040190615,
0.1505276,
0.2629497,
-0.05639644,
0.075245254,
-0.0070368657,
-0.14408527,
0.021554127,
-0.2679024,
-0.0062537203,
-0.23908526,
-0.06674953,
0.074640736,
0.23849382,
-0.05739462,
-0.010625854,
-0.41271436,
-0.14058267,
-0.07768694,
-0.25443092,
0.09457297,
-0.08081785,
-0.07916093,
-0.11520811,
0.006689374,
0.13304827,
-0.20626993,
-0.17972218,
-0.033214714,
-0.35266614,
-0.14429218,
-0.37118378,
0.055980187,
0.20839946,
-0.21009691,
0.18961263,
-0.029489357,
-0.00063990534,
-0.23423459,
-0.36367774,
-0.088097,
0.18401301,
0.0243901,
-0.022917239,
0.20375066,
0.1325879,
0.02439421,
-0.09093392,
0.056828566,
0.03945213,
-0.10657922,
-0.49388,
0.18880329,
0.11065394,
0.3946164,
-0.05263779,
0.35356814,
-0.012013535,
-0.04077357,
0.0059572565,
0.09071258,
-0.15578203,
0.04439648,
-0.18260117,
0.009083039,
0.13107754,
-0.16410227,
-0.096074596,
0.22769782,
-0.149776,
-0.17397629,
-0.04424556,
-0.3809732,
-0.07025272,
-0.0079039335,
-0.095240414,
0.15987621,
0.03878262,
-0.32541144,
0.012541193,
0.07921492,
-0.5135146,
-0.144483,
-0.18936913,
-0.3370443,
-0.07014895,
-0.09511762,
-0.4468288,
-0.556435,
0.013848255,
-0.06691834,
0.43216255,
-0.0885133,
-0.14322962,
-0.11013828,
0.14108115,
-0.09640389,
-0.13289224,
-0.12863155,
0.19056812,
-0.009219608,
-0.008771794,
-0.3165702,
0.022847611,
0.054515775,
0.12615402,
-0.091365285,
-0.015815044,
-0.1130356,
-0.21290751,
-0.12323388,
-0.027811244,
0.23043002,
0.0027627652,
-0.0027489043,
-0.27248496,
0.09734021,
-0.09058859,
-0.2286736,
-0.06856183,
0.13369621,
0.029080592,
-0.02167362,
0.030763734,
-0.008752172,
-0.03941918,
0.04084604,
0.072394036,
-0.05186518,
-0.05143234,
0.16421516,
-0.33747587,
-0.026390877,
-0.09799598,
0.048533894,
-0.047645733,
-0.15088002,
0.025712548,
-0.049971566,
-0.08248275,
-0.35204628,
0.12969331,
0.09523766,
0.0048207287,
-0.2723612,
0.19774657,
-0.033422746,
0.031864785,
0.17424685,
-0.16168192,
0.018680459,
-0.007620437,
-0.14976892,
0.30022624,
0.0017267106,
0.07336564,
-0.06774229,
-0.65302414,
0.06558376,
-0.3232859,
-0.02915206,
0.34850308,
-0.20154057,
0.40602908,
-0.06359929,
-0.39659584,
-0.32721406,
0.03448376,
0.33326,
0.15514034,
-0.07802671,
0.31458548,
0.190413,
0.22212008,
0.14551702,
0.07415078,
0.0941787,
-0.15353018,
-0.5083334,
-0.05591119,
-0.15960528,
0.22712518,
0.3909976,
-0.39672142,
0.28657547,
-0.026736064,
0.014057005,
-0.051378883,
-0.38699543,
-0.10057708,
-0.07927686,
-0.32108676,
-0.08628558,
-0.34741473,
0.08159346,
-0.12471872,
-0.034401145,
-0.22857057,
0.030162811,
-0.03201364,
-0.55139166,
-0.036884397,
0.1768214,
-0.05948701,
0.19262299,
-0.19449496,
-0.000685752,
0.0059849704,
0.037588943,
-0.13257529,
0.14916539,
-0.6602382,
0.06524367,
0.062456436,
-0.024506694,
-0.6505098,
-0.05054417,
-0.077342115,
0.20442997,
0.26577988,
-0.030368881,
-0.64092,
0.030290158,
-0.24162166,
0.024623524,
0.17056535,
-0.14385612,
0.38235438,
-0.16275226,
-0.11184458,
-0.07286856,
0.02518058,
0.11251163,
0.036968622,
0.05692924,
0.1743873,
0.19432408,
0.12075009,
0.22852518,
-0.07637031,
-0.08115505,
-0.07960085,
-0.39031166,
0.020493258,
-0.07025676,
0.32497284,
0.35187504,
-0.056354653,
0.41234085,
-0.08125833,
0.08854025,
-0.10154897,
-0.31414896,
0.20906581,
-0.015150888,
-0.110720165,
-0.025401829,
-0.06722846,
0.037107423,
-0.4352702,
-0.060564674,
0.095293924,
0.11685702,
-0.023654629,
-0.15249763,
-0.09016062,
0.0089907525,
0.021260029,
0.15256612,
-0.1465455,
0.045184497,
-0.01723273,
0.14953844,
-0.12391781,
-0.015232627,
-0.5414775,
-0.005940016,
-0.01354374,
-0.08401939,
-0.47091633,
0.015439652,
-0.053882048,
0.096701674,
0.09012492,
0.01694985,
-0.10487214,
-0.32427943,
-0.3706955,
0.0175623,
-0.36113867,
-0.6026048,
0.0698395,
-0.15182139,
-0.28260112,
-0.18791713,
-0.38490543,
-0.180101,
-0.12764964,
-0.040283732,
-0.7103027,
0.030731652,
0.013993044,
0.08248528,
-0.16970891,
-0.29156625,
0.0028948628,
0.37555972,
0.049912293,
-0.10061065,
-0.08356246,
-0.1678726,
0.18866101,
-0.20762789,
-0.042104073,
-0.48477057,
0.064241044,
-0.12673542,
-0.28248885,
-0.044460632,
-0.24890283,
0.040725477,
0.18143441,
0.3014958,
-0.014605337,
-0.08006884,
0.024586149,
-0.4210682,
-0.07553002,
-0.068848714,
0.029955545,
-0.11998019,
-0.10484496,
0.14077893,
0.3169074,
-0.38454676,
0.08836038,
0.042098347,
0.14989923,
-0.39315715,
0.15067565,
-0.007955594,
0.16153838,
-0.0073158853,
0.27457345,
-0.57345605,
-0.08529968,
-0.5228449,
0.025961611,
0.0579114,
-0.31587,
0.03203169,
0.060054127,
0.026917929,
0.3569314,
0.16788346,
0.07869293,
-0.1409497,
-0.46259344,
-0.27646777,
-0.15174015,
0.24479567,
0.12621148,
-0.00682737,
0.1744208,
0.19527946,
-0.21674654,
0.038798086,
-0.1439275,
0.047189817,
0.1846285,
-0.28575325,
-0.10273748,
-0.11254837,
0.17792802,
0.04861983,
-0.49183154,
0.006826594,
-0.020167025,
0.0021439479,
-0.038386285,
-0.38634938,
-0.60454386,
-0.04144363,
-0.43115014,
-0.101657845,
-0.32103655,
0.2152491,
0.1841313,
0.17766963,
-0.21254836,
-0.0020702104,
0.06685415,
-0.19763966,
-0.06755153,
-0.108256415,
-0.07331221,
0.2731123,
0.06045906,
-0.33722055,
0.031664856,
0.14225367,
-0.42094716,
-0.14607143,
-0.29390383,
-0.30042058,
0.074414365,
0.05506851,
-0.62868726,
-0.08813051,
0.30875826,
-0.025518144,
0.20308006,
0.07832025,
-0.38516596,
-0.0764343,
-0.6789423,
-0.03611939,
-0.18949735,
-0.3946072,
0.00055346027,
0.06954862,
-0.21343672,
0.1631343,
0.08833769,
0.30054867,
-0.09525387,
-0.0322703,
-0.311695,
-0.0080764685,
0.050444085,
0.16131341,
-0.060113173,
-0.26232275,
-0.17673825,
-0.24594687,
0.3365208,
0.2700333,
0.23415685,
-0.30548155,
0.17564872,
-0.32867086,
-0.05250084,
0.19047765,
-0.03270628,
-0.60316765,
-0.12584502,
-0.057202198,
-0.0900516,
-0.024449417,
0.10158394,
0.11781831,
0.13527605,
-0.2145131,
-0.064305805,
0.15855306,
0.07521983,
0.06896775,
-0.02238479,
-0.14725909,
0.056746,
-0.0043960847,
-0.045255143,
0.002955229,
0.07113666,
0.3371481,
0.03075359,
-0.33917347,
-0.02877062,
-0.23609957,
-0.16752346,
-0.081721924,
-0.32638007,
-0.26635718,
0.25043094,
-0.07269592,
-0.20668669,
-0.0021515093,
-0.1799542,
-0.061299127,
-0.73802984,
0.026045779,
-0.15379547,
-0.19291973,
0.024738926,
-0.14950402,
0.1135043,
-0.5771559,
-0.25734884,
-0.2878755,
0.40993115,
-0.037847295,
-0.4269952,
-0.2225246,
0.14982136,
-0.3038509,
-0.050854128,
0.41536623,
-0.07019149,
-0.22673908,
0.2966654,
0.05866005,
0.08629015,
-0.01999505,
0.17053485,
-0.056380436,
-0.073853545,
-0.012830637,
-0.068127945,
-0.06423937,
-0.19985224,
0.08391468,
-0.34207028,
-0.055108123,
0.20207836,
0.11007587,
-0.3890212,
-0.16452715,
-0.112367816,
-0.10565333,
-0.07908362,
-0.36041382,
0.013342229,
-0.73975813,
0.06319954,
0.24294992,
-0.015241758,
-0.06327641,
-0.06353002,
-0.3710775,
0.17425737,
-0.2723753,
0.045605566,
-0.34816724,
0.20746891,
0.07115751,
0.041936368,
-0.538376,
0.09937027,
-0.79190445,
0.013817845,
-0.009735076,
-0.1889853,
-0.20702508,
-0.1519762,
-0.05847343,
0.3464343,
0.2356845,
-0.121170536,
-0.03909052,
-0.22717556,
-0.49109036,
-0.2800267,
-0.36196834,
-0.06647077,
0.03178496,
-0.26350513,
0.08219849,
-0.18418062,
-0.13085507,
-0.17492206,
-0.036763016,
0.15756896,
-0.02809964,
0.20094576,
0.16611792,
0.041884515,
-0.15807661,
-0.16672222,
-0.03265162,
0.020317083,
0.2723319,
-0.07048685,
-0.19017579,
-0.31963867,
-0.094946794,
-0.20150617,
-0.07853423,
-0.14937907,
0.44819146,
0.07469306,
0.1616942,
-0.09615636,
-0.037395697,
-0.019617032,
-0.5498458,
-0.010045922,
-0.28807643,
0.04449671,
0.11460677,
0.18097983,
-0.43940765,
-0.107204825,
-0.106618196,
-0.3720015,
0.024354944,
-0.17422423,
-0.13910055,
0.15772381,
-0.076432675,
-0.35998127,
-0.3841296,
0.12256468,
-0.47683483,
-0.18550512,
0.019545374,
-0.2761597,
-0.051222898,
-0.08573789,
-0.08764454,
-0.082643874,
-0.45993716,
-0.106779724,
0.039617386,
-0.355317,
-0.62866986,
-0.22415656,
-0.3086568,
0.2785814,
0.03955726,
-0.35433397,
-0.10014443,
-0.256849,
-0.1514611,
-0.11057683,
-0.09292678,
-0.25778383,
0.045757346,
-0.41328886,
-0.33085045,
-0.21029653,
-0.24421415,
0.20707062,
0.091598414,
-0.075857885,
-0.3971087,
0.011557401,
-0.27252594,
-0.44034037,
-0.05313344,
-0.13888651,
0.06119304,
-0.06551377,
0.17509454,
0.19313845,
-0.027534923,
0.0014167073,
-0.2310484,
-0.0052725975,
-0.7921067,
-0.0020596192,
-0.40533692,
-0.04294562,
0.3089905,
0.21397087,
-0.41934875,
-0.05144333,
-0.08170204,
-0.40012807,
-0.22645703,
0.32810795,
0.29810318,
-0.032106277,
-0.040342435,
-0.32368785,
-0.80122006,
0.23996902,
-0.2402888,
0.10984266,
0.083982736,
-0.23003346,
-0.26618373,
-0.13803853,
0.16263968,
0.49523097,
-0.074968524,
0.04145448,
0.0017506737,
-0.40926656,
0.16332799,
0.03753712,
0.21782358,
-0.29469183,
0.010266272,
-0.018736187,
0.116850965,
-0.25275612,
-0.099011555,
-0.0970077,
-0.43144408,
-0.29265094,
0.10408585,
0.024350207,
-0.23780063,
0.10930624,
-0.088072784,
-0.76666194,
0.17078386,
-0.0015777093,
-0.064170144,
-0.04618008,
-0.17583664,
-0.10847414,
-0.011490562,
-0.50338817,
-0.12788618,
0.45541072,
0.19608949,
0.52349937,
-0.5177654,
0.026500456,
-0.11905295,
0.009449775,
-0.6480859,
-0.0053264443,
-0.4752199,
0.015932111,
-0.0111104995,
-0.26455727,
-0.30703127,
-0.044604033,
0.044328887,
-0.49730638,
-0.007521492,
0.43953985,
0.12536836,
-0.33189064,
-0.03938819,
-0.020861443,
-0.41142076,
-0.040778533,
0.0010248645,
0.32269758,
-0.063531935,
-0.20338342,
-0.15135722,
-0.013995758,
0.064386606,
0.08503173,
0.013196172,
0.34372512,
-0.053649664,
-0.18090028,
-0.1431545,
-0.03629391,
0.0052177394,
-0.019832717,
0.047082152,
-0.017767128,
0.037863486,
-0.15881453,
-0.20870236,
-0.35055453,
0.3652626,
-0.08305962,
-0.062763624,
-0.021094652,
-0.16405605,
0.09911327,
-0.48273966,
-0.06856174,
-0.098931774,
0.051705327,
0.056295373,
-0.11439281,
-0.21851583,
-0.35046887,
-0.016956666,
-0.38368335,
0.038181156,
-0.33751625,
0.23127566,
-0.07343041,
-0.27553663,
-0.07855979,
-0.005670687,
0.021196628,
-0.1334041,
-0.07835545,
-0.07201516,
0.028822912,
-0.026613297,
0.24760441,
-0.37590468,
-0.09621132,
-0.036670055,
0.22478954,
-0.069197275,
-0.19631626,
-0.025966138,
0.052367058,
0.0040663984,
-0.22690524,
-0.013147251,
0.05737843,
-0.17128003,
0.04649326,
0.0051020365,
-0.4401843,
-0.06715707,
-0.41822016,
-0.024156418,
0.14154986,
-0.18483509,
0.16904804,
-0.070013404,
0.08801656,
-0.5373433,
-0.27243066,
0.038766343,
0.34449917,
0.039869294,
-0.0805681,
-0.02000619,
0.10793339,
-0.17702475,
-0.123089895,
0.010981683,
0.009582582,
-0.3097574,
0.10367421,
0.08618577,
-0.061557755,
-0.014648898,
-0.25495845,
0.15598199,
-0.06669051,
0.20258816,
0.041739978,
0.04950842,
-0.39613098,
-0.005015469,
-0.22673872,
-0.08490569,
-0.00988369,
0.15683512,
-0.023851776,
0.19671851,
-0.026774462,
0.15589051,
0.03310315,
-0.26539212,
0.00923746,
-0.080391966,
-0.049579367,
0.23749447,
0.027101863,
-0.041621618,
-0.098327935,
-0.08631025,
-0.25936154,
-0.05724877,
-0.4927121,
-0.3599346,
0.07969893,
-0.10168344,
-0.5472635,
-0.35876486,
0.033813145,
-0.2670357,
0.01636749,
-0.08760698,
-0.09730874,
-0.23179322,
-0.10277531,
-0.04626132,
-0.09702977,
-0.48510185,
-0.14375341,
-0.013390168,
-0.11979122,
-0.3870136,
-0.0956917,
-0.21540867,
-0.38261572,
-0.082147665,
-0.40990072,
-0.051934082,
-0.3344874,
-0.009259721,
-0.08537853,
-0.26803282,
-0.35306805,
0.08782532,
0.23034026,
-0.41052842,
-0.11979836,
0.14511348,
0.09972612,
-0.34817094,
-0.07615435,
-0.29427603,
-0.082100734,
0.022491286,
-0.16393702,
-0.041599017,
-0.020106576,
0.024134874,
0.31712234,
0.22784531,
0.24837707,
-0.2761168,
-0.12682498,
-0.6655571,
0.007881886,
0.2126112,
-0.08913712,
-0.24026974,
-0.002577361,
0.06549093,
0.19850613,
-0.1602317,
-0.024020093,
-0.15875402,
0.122135706,
-0.2950468,
0.2882453,
0.19896398,
-0.35135964,
0.004565695,
0.06702657,
-0.5453559,
0.097347885,
0.017574018,
0.056768492,
0.048245843,
0.027075944,
-0.054888304,
-0.24397227,
0.037520293,
-0.058445144,
0.05479969,
0.016478777,
-0.0038640283,
-0.10070339,
-0.17909232,
0.10541139,
0.15918875,
-0.079369865,
0.06856055,
-0.101261705,
0.09044225,
0.034506306,
-0.039186187,
-0.115017116,
0.055375736,
0.21719499,
0.099128336,
-0.0063558375,
-0.24760382,
0.058398914,
-0.088899985,
-0.13466898,
-0.2162057,
0.07030966,
0.099696614,
-0.007139028,
0.17032358,
-0.1670474,
0.05278002,
-0.40744665,
-0.07511949,
0.033876836,
0.21715826,
0.20428766,
-0.071811676,
0.036600202,
0.0028961368,
-0.048530176,
-0.14591154,
-0.04901989,
-0.3662853,
0.040463664,
-0.08962679,
-0.14695445,
-0.22469062,
0.037855834,
-0.111379534,
-0.14742796,
-0.058140643,
-0.4200367,
0.2031414,
-0.09732178,
0.04298155,
0.13694182,
0.009141799,
0.030955022,
-0.24847864,
0.017894085,
-0.00070917123,
-0.38518316,
-0.24363239,
0.1165873,
0.047449782,
0.17925858,
-0.021679668,
0.34750885,
-0.09091781,
0.34046158,
-0.12741415,
0.30812472,
-0.045341033,
-0.11278775,
-0.020743042,
0.16782078,
0.038968846,
-0.4330695,
-0.03228987,
-0.01450721,
0.015030996,
-0.1914996,
0.17354566,
0.3222271,
-0.65771633,
0.23361948,
0.0796347,
-0.27834234,
0.31824672,
-0.0052925795,
-0.18315853,
-0.07329726,
0.13990581,
-0.0714206,
0.023519797,
0.12251222,
0.012144045,
0.29927516,
0.059458777,
0.08682141,
0.030039057,
-0.017258098,
-0.09333744,
-0.10237602,
-0.26475567,
-0.0512845,
-0.2893077,
-0.08439432,
0.17235833,
0.17778476,
-0.20102274,
0.0068908366,
-0.016328365,
-0.20522223,
-0.25609368,
0.16684684,
0.61247444,
-0.41455057,
-0.014228748,
-0.008133848,
-0.31319025,
0.15639769,
0.17926797,
-0.16018577,
-0.05845187,
-0.4614889,
0.044961948,
-0.21426995,
-0.074613065,
0.16599238,
-0.36958438,
0.16182679,
-0.012209408,
-0.06419918,
0.21399564,
-0.0327704,
0.3283652,
-0.15705512,
-0.07742009,
-0.22861908,
0.20082258,
0.09687864,
-0.2153944,
0.04805053,
-0.08295893,
-0.15694712,
-0.04388998,
0.3157586,
-0.18781736,
-0.0076585617,
0.052558932,
-0.039178453,
-0.07978909,
-0.052891947,
0.2347128,
-0.013729128,
-0.028990136,
0.09904812,
0.029354082,
-0.6038165,
0.032045588,
0.16053534,
0.13498648,
-0.25769803,
-0.3768885,
-0.08742405,
0.17013562,
-0.05250609,
-0.42845234,
0.003996961,
-0.238643,
-0.087331414,
0.11824323,
0.13051791,
0.3213914,
0.019910777,
0.08288989,
-0.070018865,
-0.040266372,
-0.21878281,
0.1958423,
0.0712587,
-0.005315567,
-0.037234604,
-0.21265586,
-0.017095052,
-0.19260758,
-0.16781703,
-0.032633748,
-0.4990373,
-0.18022417,
-0.0839046,
-0.050650075,
-0.16066214,
-0.6186888,
0.15566121,
-0.031807832,
0.36451635,
-0.27528018,
-0.110783935,
-0.023810904,
0.02929675,
-0.065894514,
-0.25706935,
-0.5177013,
-0.30326864,
-0.16138971,
0.05133367,
-0.12056474,
0.03312193,
0.20649123,
-0.22894356,
-0.2459395,
-0.38259122,
-0.05240936,
-0.105637714,
-0.43329465,
0.013794237,
0.17099361,
0.03536081,
0.16721047,
0.20333666,
-0.041409403,
0.03174602,
-0.055184744,
0.025663601,
-0.0606652,
-0.087330855,
-0.107152306,
-0.19038278,
-0.0134102395,
0.046527002,
-0.01227696,
-0.0034323034,
-0.20666826,
-4.825528e-05,
-0.23461603,
0.19553496,
0.047393393,
-0.09946121,
-0.36835822,
0.16545182,
-0.01596981,
0.27331343,
0.5244202,
-0.32199553,
0.02957356,
0.18157358,
-0.28039503,
0.24066554,
0.2533633,
0.1413417,
-0.073349975,
-0.16867438,
-0.32263142,
-0.050030403,
0.08262848,
0.044372376,
-0.07496224,
0.19833483,
0.018022943,
0.3693875,
0.042197444,
0.16792277,
0.1796003,
-0.29381636,
-0.08307638,
-0.11188535,
0.14707595,
-0.18954195,
-0.041941665,
-0.20488706,
-0.2596676,
-0.02503907,
0.2571991,
0.11360291,
-0.18771821,
0.37552112,
-0.01498323,
-0.12723282,
-0.12553033,
0.015416503,
-0.03853437,
0.009896551,
0.19655424,
-0.109953456,
-0.05305271,
-0.04449726,
-0.09867666,
0.40245852,
0.16303016,
-0.25274736,
-0.20707865,
-0.10202405,
-0.048986472,
-0.092945695,
-0.0356862,
-0.008997843,
-0.16544586,
0.038300708,
0.18896793,
-0.0075737014,
-0.35433495,
-0.11555077,
-0.08824049,
0.13182937,
-0.14776811,
0.07238291,
0.3554283,
-0.070238754,
0.064283594,
0.1122264,
-0.31847638,
0.069697216,
0.20521052,
0.31328025,
-0.018342113,
-0.10697143,
-0.038290963,
-0.32556027,
-0.11216957,
-0.15413631,
-0.14718714,
-0.2864739,
-0.13209307,
-0.30754423,
0.021062277,
0.030459234,
-0.23476136,
-0.6314329,
-0.08835888,
-0.3422746,
0.05380957,
-0.15044986,
-0.3356791,
0.07892182,
-0.15841597,
0.040064193,
0.33701178,
0.41180268,
-0.07062157,
0.28787428,
-0.012980927,
-0.09716247,
-0.7074381,
-0.025625411,
-0.41761655,
-0.036928877,
-0.051554136,
0.1356412,
-0.065426424,
-0.18683508,
-0.070388205,
0.38812515,
0.19564225,
-0.24771155,
-0.71580243,
-0.07107815,
-0.020106466,
-0.016410494,
0.25691774,
-0.11909396,
-0.25187895,
-0.06977155,
0.12319352,
-0.05247715,
-0.13423294,
0.024198692,
-0.28961745,
0.52825224,
0.008703494,
0.36427057,
-0.11615632,
-0.31724188,
-0.010307636,
0.3100769,
-0.17383513,
0.2842183,
-0.034369625,
-0.062426694,
-0.058839943,
-0.8805836,
0.011517762,
-0.3890686,
-0.047642417,
0.18072948,
-0.5209986,
0.28173113,
-0.065471925,
0.25439554,
-0.15077937,
0.40266898,
0.25083795,
-0.018349778,
-0.092307635,
0.076983005,
-0.17897195,
0.108073056,
-0.100200325,
0.12204507,
-0.40317747,
-0.12739387,
0.007379745,
0.040616814,
-0.3356911,
-0.31934455,
-0.13903093,
-0.4713722,
-0.37216583,
-0.056357186,
0.34251884,
0.022337101,
0.103590146,
0.30054936,
-0.023225958,
0.06974039,
-0.022661177,
-0.5927266,
0.23741712,
0.066131145,
-0.52716506,
-0.028991189,
0.025082596,
-0.06517396,
0.005864402,
-0.055247955,
-0.14608333,
-0.114856936,
-0.27735284,
-0.374119,
0.409999,
-0.020696383,
-0.643154,
0.1744702,
0.279085,
-0.045623656,
0.5069938,
-0.22569379,
-0.09197547,
-0.14490947,
-0.058675684,
0.3405567,
0.23099396,
-0.11728139,
-0.008432924,
-0.20595743,
-0.375045,
-0.20384666,
-0.0006946479,
-0.2619476,
-0.5569277,
0.031257108,
-0.019440874,
0.47779164,
-0.15335202,
0.007503391,
-0.089237005,
-0.5672441,
-0.030908395,
-0.3455968,
-0.009561926,
-0.26772994,
-0.43843985,
-0.10475798,
-0.16353132,
0.22843342,
0.43428406,
0.1945828,
-0.50360286,
-0.023972683,
-0.2883331,
-0.15676472,
-0.5307652,
-0.007421288,
0.10355906,
-0.0063006287,
0.4121582,
0.30878487,
-0.15329672,
0.07519194,
-0.01839109,
0.051893722,
0.20514925,
0.056095574,
-0.30168223,
-0.024169318,
0.0912836,
-0.023196694,
0.22373548,
-0.022232363,
-0.4772109,
0.029979795,
-0.41319767,
-0.25248447,
-0.012599757,
-0.035588786,
-0.3729655,
0.33034822,
-0.12485097,
0.24374838,
0.18466872,
-0.18939613,
-0.05436849,
0.32763374,
-0.21069998,
0.40515202,
-0.17339247,
0.036717076,
-0.06721111,
-0.023536434,
-0.39974424,
-0.18043014,
-0.0022707963,
0.018419407,
0.35530525,
0.062451087,
-0.11625155,
0.18035877,
-0.23515902,
0.010035153,
-0.5430463,
-0.23828533,
-0.0032569992,
-0.16015589,
0.19856173,
0.20702605,
-0.16357756,
-0.44581336,
-0.14255948,
0.10881218,
0.31588745,
0.22013669,
0.08198046,
0.084841974,
-0.29752585,
-0.11251358,
0.44902465,
0.026668554,
0.2338242,
-0.0593846,
0.071067736,
0.022669153,
-0.09537253,
-0.35047203,
0.03452241,
-0.171501,
0.2676402,
0.041905962,
-0.18715426,
-0.16281924,
0.00043648676,
0.029130805,
-0.33569556,
-0.102829576,
-0.52119267,
0.06368547,
-0.12142484,
0.27660656,
-0.41438755,
-0.04446494,
-0.21180294,
-0.023434011,
-0.022141287,
-0.4705216,
-0.10530888,
0.22727014,
0.00047436016,
0.45388433,
-0.24102312,
0.21884847,
-0.27830932,
-0.26704803,
-0.08242694,
-0.33832172,
-0.12326811,
-0.0060789497,
-0.030590031,
0.29156053,
-0.14100328,
0.101518914,
-0.08048712,
0.41974103,
-0.1598598,
-0.08520345,
0.110212445,
0.0045765317,
-0.11128469,
-0.04716873,
0.031819887,
-0.28479388,
-0.25933084,
-0.08760297,
0.1675213,
-0.0679162,
0.12411159,
-0.16583546,
-0.5954968,
-0.1072866,
-0.09723782,
-0.33380574,
-0.089503765,
-0.086551346,
0.070586674,
0.044716563,
0.39294156,
-0.007139955,
0.061123535,
0.23662093,
-0.06149586,
-0.0019411899,
0.16265157,
0.005093168,
-0.36567533,
-0.18829463,
-0.11730243,
0.05854918,
-0.06268873,
-0.07742313,
-0.36238453,
0.03891877,
-0.47168294,
-0.06768717,
-0.39593497,
-0.13004366,
-0.3267466,
-0.11809609,
-0.19027348,
0.35241285,
0.16564256,
-0.18285869,
-0.06075499,
0.14383575,
-0.25194973,
0.5308249,
0.07952213,
0.53923064,
0.07669434,
-0.50536424,
0.14877164,
-0.62835234,
-0.036932755,
0.03910947,
0.08505708,
0.16832542,
-0.14932495,
-0.15566504,
-0.32401043,
-0.0991936,
0.1027766,
-0.015539375,
-0.025025176,
0.14153591,
0.031894542,
0.021022877,
-0.2194887,
-0.292941,
0.15895031,
0.015847001,
-0.3283589,
0.25147304,
0.040570054,
0.24507457,
1.3854369e-05,
-0.36859798,
0.13427053,
0.053104423,
0.04210009,
0.008037635,
-0.124285236,
0.011355793,
-0.013279766,
-0.3721192,
-0.02436821,
-0.48206544,
0.16248527,
-0.5188539,
-0.46656528,
-0.091749325,
0.030753717,
0.04498128,
-0.67038757,
-0.038102046,
-0.16285177,
-0.04177997,
0.09656245,
0.02164836,
0.06778547,
-0.00400497,
-0.06235923,
0.21562104,
0.14516158,
-0.5101444,
-0.2958835,
0.12743948,
0.012935094,
-0.10516877,
0.034175914,
0.29162708,
-0.008591738,
-0.13452502,
-0.041648302,
-0.34550035,
0.07781312,
-0.22635517,
-0.05545685,
0.027196819,
-0.20358537,
0.13962737,
-0.1230181,
-0.07547955,
-0.26518402,
0.33121446,
0.07782509,
0.032141294,
0.047954027,
-0.091755025,
0.23639034,
-0.14538677,
-0.17494386,
0.05550311,
-0.15583323,
-0.14660388,
-0.018011302,
-0.19211763,
-0.09193646,
-0.02983405,
0.15712553,
-0.115433164,
0.08044502,
-0.054439906,
0.0658284,
-0.044630345,
-0.068358615,
-0.07571033,
0.04589713,
-0.15781718,
0.023870455,
0.14231814,
0.08611973,
0.18542154,
-0.17134772,
-0.053617086,
0.12641521,
0.028872015,
-0.17757267,
0.057399284,
-0.18637004,
-0.08515345,
-0.21051137,
0.052104566,
-0.023640588,
-0.13433181,
0.11786985,
0.048755493,
-0.07312232,
0.13285634,
-0.14500576,
0.11014481,
-0.05246744,
-0.25005808,
-0.27685952,
-0.07392892,
-0.0024026288,
0.4302567,
0.074634805,
-0.051434863,
-0.42941573,
-0.13403527,
-0.038337987,
0.1714601,
0.05717531,
0.020038385,
-0.031954683,
0.20076989,
0.23047523,
0.026958346,
-0.070479274,
-0.08358348,
-0.015663167,
0.15325487,
0.04228055,
0.034048177,
-0.07101188,
-0.4369833,
0.3064292,
0.322463,
0.1425935,
0.19709356,
-0.2225339,
0.37917095,
-0.10769409,
0.34454018,
-0.08666811,
-0.042113967,
0.16667861,
-0.03878361,
-0.15580298,
-0.04014103,
-0.01943026,
-0.22800362,
-0.04386258,
0.26344737,
-0.0772394,
0.28433993,
-0.29626378,
0.10269239,
0.00069972663,
-0.09566313,
-0.086958185,
0.054808065,
-0.025443733,
0.0032649904,
0.27766278,
-0.14462118,
-0.24968712,
-0.025334274,
0.018303912,
-0.7755895,
-0.070644274,
0.3342479,
-0.35386902,
0.31305972,
0.00917672,
0.12895757,
0.06080638,
-0.424624,
-0.24890131,
0.25378418,
-0.037629426,
-0.37418061,
-0.08150525,
-0.13050564,
-0.0144871045,
-0.28864512,
-0.124903984,
0.24572638,
-0.0741928,
-0.04558431,
-0.33721483,
-0.15024109,
0.14905271,
0.1976339,
-0.08398923,
0.031280853,
-0.09749883,
-0.21747623,
0.034566227,
0.034245282,
-0.13237745,
0.0040199263,
-0.07146985,
-0.31577283,
-0.08072788,
0.00962774,
0.06043224,
0.12331607,
0.1716414,
-0.07560098,
-0.17203768,
0.018011294,
-0.2568234,
-0.25297657,
-0.104943834,
0.04024016,
0.00015841558,
-0.19752835,
-0.48205897,
0.07345465,
-0.041697096,
-0.14941384,
-0.26140013,
-0.069350824,
0.11844263,
0.013844327,
0.03553235,
0.015549698,
0.07001468,
0.38549712,
0.027930534,
-0.06284639,
-0.19042298,
-0.031008575,
-0.38073215,
0.017527737,
0.29738602,
-0.34210727,
-0.033692773,
-0.0013339259,
-0.21771052,
0.07980854,
0.16694392,
0.10067694,
-0.07766224,
-0.08542137,
0.035665605,
-0.48165438,
0.06224055,
-0.06576091,
-0.04159076,
0.15888049,
-0.10973596,
-0.19111548,
-0.55534196,
-0.34934202,
0.044287972,
0.44083136,
-0.082295164,
-0.03938286,
0.062267646,
0.2237805,
-0.014021438,
-0.19770476,
0.23454934,
-0.05553878,
-0.18590324,
-0.2994155,
0.18901606,
0.23434235,
0.16650209,
0.08264651,
0.26028693,
-0.008783674,
-0.23993222,
-0.056629002,
0.08866475,
-0.718114,
-0.19794719,
-0.36579642,
-0.015472577,
-0.0152040925,
-0.089577556,
-0.08251133,
0.33213165,
0.019939143,
-0.5179153,
-0.018024573,
-0.66703504,
-0.06547779,
-0.047687765,
-0.03357094,
0.43674746,
0.3445637,
-0.25468966,
-0.012425858,
-0.01199974,
-0.6766227,
-0.1043364,
-0.47305253,
-0.16791745,
0.17080012,
0.053473126,
-0.656828,
-0.35520345,
0.23388402,
-0.10014605,
0.10357158,
-0.01688399,
0.029440006,
-0.09573931,
-0.25562605,
-0.040034093,
0.040090185,
0.08982663,
0.023561696,
-0.08258681,
0.0068272036,
0.21373415,
0.13870366,
0.024810687,
-0.29911044,
0.046494935,
-0.033160456,
0.16264997,
0.049198728,
0.058602016,
-0.34867454,
0.3302491,
0.09768087,
-0.28793326,
0.37756342,
0.2196105,
0.34621674,
0.06596445,
-0.5816301,
-0.106254384,
0.07112534,
0.13086088,
0.0022392403,
0.09578239,
-0.3091151,
-0.101575956,
-0.7444889,
-0.018180298,
0.30769786,
0.1293447,
-0.17366423,
-0.17597085,
-0.07711163,
0.042239297,
0.042896662,
-0.14207251,
-0.076009266,
-0.025194602,
0.05811856,
0.35691983,
0.14664924,
-0.51520115,
-0.09024634,
0.1915956,
0.14905177,
-0.006307056,
-0.82336116,
-0.053679787,
0.24544162,
-0.051756866,
0.3899165,
0.08325134,
-0.089084305,
-0.1948064,
-0.18605526,
0.0663514,
0.20085134,
-0.5382668,
-0.22570221,
0.043236706,
0.1773356,
0.050002627,
-0.31102484,
-0.028658153,
-0.04390852,
-0.16550292,
0.10315263,
-0.56569046,
-0.3231406,
-0.003267226,
-0.25328773,
0.08642655,
0.3370165,
-0.32022005,
-0.13160305,
-0.11278916,
0.12422172,
0.27356845,
0.42888784,
0.22952211,
0.3734246,
-0.118875556,
0.08705627,
0.13363469,
-0.051910687,
-0.09546924,
-0.012917139,
0.17601813,
0.1660892,
-0.04336296,
-0.22040378,
-0.14128605,
0.21473671,
0.39170846,
-0.16689576,
-0.5120498,
0.03868687,
0.006639377,
-0.06950163,
0.08251308,
-0.042594805,
-0.42450616,
-0.030282531,
-0.001705636,
-0.045246508,
-0.19834246,
-0.026881617,
-0.09022057,
0.49335754,
0.042701185,
0.07527172,
-0.4696164,
0.11992055,
0.05819172,
0.25304836,
-0.07084307,
0.2325878,
-0.50396395,
0.002614207,
0.07509563,
-0.52594084,
-0.24548782,
-0.22198372,
-0.00541989,
0.108803146,
-0.20284717,
0.075888194,
-0.04343574,
-0.21651761,
-0.14190544,
-0.28525284,
-0.18548843,
-0.098838285,
0.012061906,
0.032303955,
-0.077874854,
-0.12613657,
0.07378801,
-0.1785192,
-0.13556194,
-0.35263962,
0.14739048,
-0.16930783,
-0.2138961,
-0.30470023,
0.19016859,
0.11550336,
0.22665544,
-0.10979174,
-0.083353855,
0.06762829,
-0.1727418,
-0.38694024,
0.013230716,
-0.06248724,
0.044495046,
0.38515982,
0.22035956,
0.05871522,
0.29277426,
-0.08845328,
0.13049696,
-0.11556698,
-0.27986044,
0.0018044461,
-0.19387595,
0.047010362,
0.07433762,
0.028147383,
-0.050675023,
-0.10378979,
-0.1980045,
-0.04465421,
-0.08735571,
0.077490255,
-0.036364075,
-0.26604077,
-0.038902387,
0.0068385126,
-0.1842419,
-0.12415644,
-0.2820018,
-0.038263142,
0.010459508,
-0.27574044,
-0.23813654,
0.0996126,
-0.01728135,
0.0044807103,
-0.023130031,
0.32042733,
-0.10184606,
-0.56090736,
-0.26179352,
0.120627105,
-0.17263329,
-0.027239867,
-0.05754615,
-0.34573144,
0.07485701,
-0.06979131,
-0.40452278,
0.093449965,
0.12876892,
-0.17466293,
0.19185981,
0.16736513,
0.09700849,
-0.24387932,
-0.24914302,
0.24736395,
-0.39727768,
-0.072543904,
-0.03303389,
0.007830143,
0.0034580391,
-0.17822252,
-0.07073029,
-0.035321437,
0.029779892,
0.27787122,
0.15593298,
0.09709248,
0.22066231,
-0.0086377915,
0.4334116,
-0.038435258,
-0.1654275,
-0.028823532,
-0.356173,
-0.08120285,
-0.123887576,
0.31243816,
-0.33746818,
-0.07046048,
0.017383242,
0.41231167,
0.14398538,
0.7115322,
0.3965182,
-0.2915621,
-0.037646007,
0.22577767,
-0.62389696,
0.0145997675,
0.032817088,
0.47493276,
-0.013592192,
-0.081292555,
0.07907792,
0.16240542,
-0.045462374,
-0.037394986,
-0.15206471,
0.15955444,
-0.0581345,
-0.044134658,
0.06709404,
-0.03322088,
-0.10564981,
-0.103189506,
-0.03880475,
-0.104606874,
-0.19573987,
0.15614618,
-0.15235053,
-0.41863683,
0.11792192,
0.010686402,
0.065556034,
0.01697985,
0.058633342,
0.020995928,
0.106274985,
0.009808544,
-0.05937651,
0.043217752,
-0.22634423,
0.022540769,
-0.17041308,
0.2500225,
-0.014920788,
-0.1531843,
-0.006520605,
0.112516284,
-0.006527969,
-0.09831996,
0.092377104,
-0.074139565,
0.012133214,
-0.06308484,
0.09460947,
0.010221477,
0.060461782,
0.027395045,
-0.32644916,
-0.055472195,
0.051952865,
-0.041124027,
-0.24769047,
0.18572919,
0.08711401,
0.028697366,
-0.17293736,
0.016070114,
-0.08184045,
0.03703277,
-0.064991586,
0.021763058,
0.18928951,
-0.24152763,
0.009205223,
-0.5717996,
-0.112514034,
-0.007973396,
-0.0042213835,
0.104167104,
-0.20830414,
0.2891485,
-0.00651945,
-0.15070905,
-0.20563662,
-0.48886526,
0.23091723,
0.24300055,
0.035347108,
0.038687184,
0.19404835,
0.17888284,
-0.1548017,
-0.028323239,
0.40986732,
-0.35908952,
-0.1551421,
-0.80808836,
-0.12913428,
-0.33274412,
0.07988523,
-0.089793615,
0.15394916,
0.0186243,
0.15371011,
-0.12238007,
-0.19647124,
-0.3079912,
-0.10722546,
-0.43853495,
0.029026864,
-0.02776937,
0.15015003,
-0.14759316,
0.30890116,
-0.21138771,
0.19346301,
-0.07521583,
-0.62366414,
-0.10270265,
0.09700424,
-0.039691795,
-0.14384629,
-0.28549173,
0.0017947275,
-0.07619633,
0.15822873,
0.16821593,
0.05074861,
0.24614814,
-0.20794824,
0.39487392,
-0.084106945,
0.032683775,
-0.105978884,
-0.012748934,
-0.026672604,
0.39347982,
-0.07701907,
-0.35220125,
-0.2478181,
0.04663271,
0.03627911,
0.13814878,
-0.37037212,
0.24006358,
-0.16329908,
-0.040315576,
-0.010845956,
-0.2848281,
0.09993091,
0.23992215,
-0.074492544,
0.22957127,
0.17616844,
0.027219543,
-0.10724283,
0.056544907,
0.17557783,
-0.10393406,
-0.12034672,
-0.56245023,
-0.11058854,
-0.15760033,
0.23851968,
-0.29331422,
0.17136714,
-0.036764946,
0.21502319,
-0.029471474,
-0.012934865,
-0.10020038,
0.041545823,
-0.3403615,
-0.02056297,
0.21828072,
-0.068231985,
-0.03273039,
0.20567928,
-0.19961464,
0.34512803,
0.02616781,
-0.16945724,
-0.07821858,
0.029150767,
-0.089389026,
-0.21253246,
-0.1718533,
0.13118239,
-0.04865928,
0.038272336,
-0.018622221,
0.06099506,
0.10644417,
-0.112675294,
0.26051477,
-0.02300412,
-0.13436383,
-0.025645562,
0.07513044,
0.10782719,
0.5308439,
-0.08984064,
0.1163909,
-0.005931044,
-0.49600133,
-0.082291104,
-0.07928185,
-0.15595843,
-0.20003575,
-0.039585214,
0.034878023,
-0.14204022,
-0.22925371,
0.09977081,
-0.41004878,
0.039684374,
-0.3346987,
-0.17782335,
-0.2035247,
-0.13093202,
0.0884532,
-0.19838488,
-0.22615924,
0.15406077,
0.08373089,
-0.19436853,
-0.21512887,
-0.051633257,
0.2854222,
-0.10143644,
-0.02411045,
-0.27455115,
0.041677095,
-0.13610958,
-0.08325507,
-0.06912664,
0.10584019,
-0.09187077,
0.10961546,
0.22232865,
0.1844338,
-0.08031345,
-0.054167394,
-0.28676727,
-0.008507693,
-0.088312656,
-0.008828741,
0.14498447,
0.0575627,
-0.011644555,
0.12877011,
-0.4153389,
-0.046309277,
-0.12929058,
-0.018118193,
-0.16307412,
0.05716413,
0.5903002,
-0.33694792,
0.06762443,
-0.07406231,
-0.26931706,
0.045193907,
-0.2945392,
0.059762295,
-0.023653239,
0.023968326,
0.057350926,
0.015011093,
-0.08724141,
0.21390396,
-0.08769162,
0.3447604,
-0.074187465,
-0.48668155,
-0.09491323,
0.17313896,
0.14691807,
-0.017392796,
-0.07300563,
-0.1747168,
0.23105638,
-0.027736189,
-0.46104622,
-0.18247265,
0.45097172,
-0.24742043,
-0.21978566,
-0.5391906,
0.107278295,
-0.020157382,
-0.14886972,
0.26004267,
0.073565215,
-0.029882884,
0.16718756,
-0.01007046,
0.05702667,
0.23778525,
-0.10740859,
-0.1897785,
-0.014372288,
-0.24661449,
0.45944706,
0.017969683,
0.22409578,
0.08694602,
0.1628671,
0.060410913,
-0.094211176,
-0.115697764,
-0.35864317,
-0.019484773,
-0.32515308,
-0.023708973,
-0.22868142,
-0.053203505,
-0.11968799,
0.089827694,
0.18085045,
-0.25853178,
0.020148363,
0.06136663,
-0.07286679,
-0.06356913,
-0.22385362,
-0.06470744,
0.10155056,
0.16141894,
0.041791413,
-0.14074452,
-0.28524214,
-0.07266885,
-0.07303196,
-0.28214836,
-0.58515203,
-0.30849633,
-0.04300608,
0.13212991,
0.15236554,
-0.7062907,
0.26086435,
-0.08700599,
-0.10741309,
-0.35415226,
0.063664444,
0.054150928,
-0.0018890662,
0.017043354,
0.048046965,
0.13720182,
-0.21277836,
-0.27549884,
0.090104036,
0.2068982,
-0.12541477,
-0.07331742,
0.07534668,
-0.044602547,
-0.1261384,
-0.0714383,
-0.35637257,
-0.21918909,
-0.04189904,
0.11348146,
-0.07190268,
-0.17399088,
0.00043302635,
0.14236575,
0.24368717,
-0.07553628,
0.46761993,
-0.084194325,
-0.08026093,
-0.077336214,
-0.22611429,
-0.013287786,
-0.09051621,
0.030278636,
0.21500312,
-0.01608791,
0.36733449,
0.048894107,
-0.58875895,
0.10983218,
-0.32595083,
0.07918557,
-0.011420887,
0.11840906,
-0.20264772,
-0.35237285,
-0.28745106,
-0.11189534,
-0.028613536,
-0.15288459,
0.20017388,
0.5425272,
-0.056399856,
0.01443007,
0.17656335,
-0.17033361,
-0.028400162,
-0.8366825,
-0.30467343,
0.3306523,
-0.127844,
-0.47170722,
0.025716161,
-0.17277692,
0.012133344,
-0.22209087,
-0.038684677,
-0.3884279,
-0.07274934,
0.07786927,
-0.13249972,
-0.063203156,
-0.36498836,
-0.2178688,
-0.13902807,
0.10656095,
-0.35272023,
-0.04302453,
-0.12780184,
-0.084470645,
-0.2938448,
0.055102624,
0.0514334,
-0.008281928,
-0.085968435,
0.20506085,
0.26030427,
0.32151982,
0.08148285,
-0.04405769,
0.042122606,
-0.059433818,
-0.3664222,
0.027413884,
-0.2250796,
-0.06431158,
0.0034201082,
0.3608663,
-0.30710587,
-0.07388234,
-0.034645297,
-0.09560065,
-0.19237944,
0.31657228,
0.37148613,
0.008281013,
-0.027535975,
-0.16123414,
-0.591632,
0.29211423,
0.10134454,
0.2768401,
-0.018341532,
-0.079831935,
0.22171286,
0.07204318,
0.042491805,
0.4475343,
0.18904768,
-0.10611193,
0.019964598,
0.049513925,
-0.26768526,
0.28634167,
-0.06573284,
0.02747642,
0.023427257,
-0.25077185,
0.021336272,
-0.18588023,
-0.49466816,
0.06707118,
-0.06034819,
0.0039965017,
-0.3374921,
-0.32295457,
0.2642283,
-0.27944937,
-0.3233129,
0.13993217,
-0.26685473,
0.003910512,
0.0032068195,
-0.04178737,
0.17660616,
0.17313863,
-0.048386604,
-0.1561493,
0.02520842,
0.008883265,
0.48466617,
0.45971435,
0.16679914,
-0.14460196,
-0.3011489,
-0.08016632,
-0.06470896,
0.033376087,
-0.28795734,
0.024782147,
-0.0010371286,
0.029081408,
-0.6370279,
-0.040287245,
-0.17196138,
-0.18046851,
-0.026517576,
-0.19591461,
-0.029269906,
0.009131611,
0.058904607,
-0.33997938,
-0.482985,
0.033378698,
-0.07474284,
0.037706908,
-0.050092947,
0.060547255,
0.21692486,
0.06182025,
-0.062881425,
-0.116432995,
-0.19073287,
-0.38520017,
0.009490865,
-0.32086578,
-0.34742367,
0.16957133,
-0.070227616,
-0.47498634,
-0.006485554,
-0.45943403,
-0.32484478,
-0.37675396,
-0.25156376,
-0.1299508,
0.012209891,
-0.38019726,
0.01059371,
0.080050915,
-0.1106074,
-0.0314498,
-0.079645395,
0.44696826,
-0.16579382,
-0.11801693,
-0.15174039,
-0.082798295,
-0.1279937,
0.2627099,
-0.06489966,
0.10438028,
-0.048096966,
-0.10531036,
-0.0034316645,
0.03812424,
0.081592016,
-0.008800638,
-0.33176968,
0.010134065,
-0.011311765,
-0.12789239,
-0.2611343,
-0.10174335,
-0.19081783,
0.06069141,
-0.36800563,
-0.035318498,
-0.06569412,
0.096789315,
-0.24120454,
-0.03678994,
0.3636081,
-0.4407767,
0.028891014,
0.073514394,
-0.2601258,
-0.06514338,
0.31365785,
0.11075021,
-0.06822746,
-0.04262477,
0.08198661,
-0.2075925,
0.06293069,
-0.25400153,
0.06007324,
-0.008407912,
-0.008854984,
0.03608715,
-0.08482551,
-0.18138604,
0.40027308,
-0.4122399,
-0.019462708,
-0.08635285,
0.09982134,
-0.19769691,
-0.16881412,
0.15178448,
0.5545687,
-0.5837516,
-0.33609673,
0.038229104,
-0.30650407,
-0.109749354,
-0.13570052,
-0.85794723,
-0.3371517,
0.0434717,
0.64759177,
0.03310372,
0.16708678,
0.030209996,
0.076651454,
-0.6954918,
-0.03634221,
0.3073765,
0.3458757,
0.27441853,
-0.34260026,
-0.1399934,
0.44750386,
0.06339427,
-0.61184984,
-0.054593347,
-0.4669891,
-0.06658279,
-0.22264592,
-0.51739216,
-0.5588932,
-0.062127635,
-0.14997566,
0.069831416,
0.3874393,
-0.17260326,
-0.34607655,
0.57117707,
0.029720485,
-0.22235702,
-0.4796942,
-0.05041535,
-0.25896007,
0.3893235,
-0.07920883,
-0.060269047,
-0.051458396,
0.19533284,
0.039096132,
0.00400698,
-0.21595296,
0.1374279,
-0.06168236,
0.20080543,
-0.25417015,
-0.46739566,
0.15527356,
-0.19439034,
-0.075022146,
-0.15783004,
0.16344851,
-0.14043526,
-0.41391718,
-0.46285492,
0.17687726,
-0.04108563,
-0.36942557,
-0.38954574,
-0.06788947,
-0.2515474,
-0.34010047,
-0.31735775,
-0.08460191,
0.054938793,
0.21112265,
-0.00054508075,
-0.17942068,
0.07538997,
-0.05139538,
-0.5696716,
-0.0030440153,
-0.14841849,
0.25127497,
0.1948484,
0.0981811,
-0.0031200969,
0.15844673,
-0.0557208,
0.066459656,
0.024612615,
-0.49860254,
0.06899516,
-0.30839977,
0.14873376,
-0.14151828,
-0.103201374,
0.15033688,
0.059749894,
0.115035295,
-0.14328839,
-0.0018818033,
0.15345438,
-0.052201897,
-0.24328646,
-0.63648844,
0.029962992,
-0.4296506,
-0.31434804,
-0.012144352,
-0.13857244,
0.15232237,
0.3068345,
-0.040825862,
0.29595727,
0.22185859,
0.05148009,
-0.06710929,
-0.136231,
-0.08872254,
0.11651723,
0.25911906,
-0.022978332,
0.004922727,
-0.16439718,
0.044856504,
-0.25158882,
-0.16945116,
0.01083667,
-0.096188314,
-0.016628895,
0.00039073417,
-0.09193537,
-0.3276837,
-0.18627018,
-0.35519361,
0.09286111,
-0.28428614,
-0.026099704,
-0.26932228,
-0.055566788,
-0.10948367,
0.075464524,
0.07158536,
-0.11496741,
-0.13432834,
0.07609482,
0.3389436,
0.3079023,
0.2358903,
-0.08426128,
0.4664929,
-0.057922795,
-0.30807704,
0.067735836,
-0.27234244,
-0.027207788,
-0.18000725,
0.26100138,
-0.22647473,
-0.048773363,
-0.3244952,
0.08786163,
-0.12917729,
0.23216158,
0.42175063,
0.0850173,
0.021665938,
-0.1018159,
-0.4297465,
0.17905346,
0.21237111,
0.12855682,
-0.038477726,
0.21606116,
0.21562271,
-0.11727624,
-0.049253013,
0.14195727,
-0.12767197,
-0.13363706,
0.012641622,
-0.27531946,
-0.33452,
-0.22970699,
-0.14468896,
-0.4711506,
0.0008653197,
-0.16259369,
0.18901126,
-0.21635784,
-0.29776236,
-0.07523129,
0.09444487,
-0.44952306,
-0.14241521,
0.16446137,
-0.1744251,
-0.05935786,
-0.051391266,
0.18149477,
0.311496,
0.040079717,
-0.026324801,
-0.038534082,
-0.18992203,
0.0012334888,
-0.07697535,
0.09879636,
-0.05121437,
-0.059836976,
0.26320878,
-0.047951024,
-0.13929193,
-0.14290148,
0.005454696,
-0.081830494,
0.11885831,
-0.006136465,
0.04809877,
0.00092273223,
0.036389478,
-0.25237933,
-0.10332322,
-0.06896485,
0.049755357,
-0.36099955,
0.053194154,
-0.093682915,
0.40735984,
0.18863419,
-0.016340688,
-0.24421458,
0.014089864,
0.17110556,
-0.07038506,
-0.024743466,
-0.040526528,
0.057377197,
-0.046935473,
0.087513715,
-0.056899484,
-0.08501951,
-0.19864792,
0.23980208,
-0.16641197,
-0.078881495,
-0.3834887,
0.2272908,
0.2523647,
-0.12952955,
0.014344889,
0.06842063,
-0.18423216,
0.12609546,
-0.30029038,
0.36429515,
0.21620148,
-0.27954447,
0.16741785,
0.07873849,
-0.008027042,
-0.004593755,
-0.13300057,
-0.28479546,
-0.38473752,
-0.020198405,
0.34770048,
-0.0972516,
-0.09905056,
0.023736069,
-0.0138771925,
-0.18813652,
-0.09504116,
0.027822938,
0.2775284,
0.36229908,
0.2892465,
-0.0032349245,
-0.06657768,
-0.09238983,
-0.23718613,
0.029752048,
-0.229552,
-0.061719287,
-0.10732354,
-0.15363404,
-0.1770291,
-0.04322711,
0.109386094,
0.35867968,
-0.013091759,
0.11335539,
0.045957696,
-0.30843583,
0.050392136,
-0.18731001,
-0.074705124,
0.23289202,
-0.1299746,
0.14969262,
-0.08744593,
-0.089226305,
0.37289795,
-0.08460812,
0.040850066,
0.13229392,
0.0055464744,
0.0977353,
0.00205951,
-0.34408498,
-0.15596011,
0.08212,
0.046481904,
-0.06192553,
0.05456432,
-0.09688178,
0.02947399,
-0.20849533,
-0.25370315,
-0.04836542,
0.02796377,
-0.41918826,
-0.048769146,
-0.05010813,
-0.5288483,
-0.25474188,
0.02028785,
0.11097559,
0.38576138,
0.046692047,
0.48326477,
-0.09040054,
-0.1535592,
0.37348366,
-0.03710997,
-0.5743826,
0.0005579181,
0.07223818,
-0.118728645,
-0.15885799,
-0.09714811,
-0.19688518,
0.16705419,
-0.08782309,
-0.08090123,
-0.074254036,
-0.087879494,
-0.013994666,
-0.42975503,
-0.079091735,
0.0671823,
0.015680369,
-0.20526585,
0.09613377,
0.025516853,
0.0638447,
-0.0034578035,
-0.16026682,
0.03944998,
-0.094223164,
-0.3135784,
-0.0517265,
0.024723958,
0.34183538,
-0.032170914,
-0.05164365,
0.13161622,
-0.0043249163,
-0.0035120733,
-0.0037053723,
-0.20565715,
-0.26512042,
0.0028968523,
-0.17355615,
-0.15547569,
-0.23287772,
0.34202585,
0.2073606,
-0.043390263,
-0.29559392,
0.31201628,
-0.06130355,
-0.17990807,
0.2466532,
-0.37321478,
-0.3538485,
-0.2692943,
-0.12847415,
-0.038660303,
-0.15388232,
-0.3405592,
-0.120255865,
-0.30509394,
-0.026327843,
0.13462216,
-0.054353457,
0.1371723,
-0.052471735,
0.060258973,
-0.28791153,
-0.07597366,
-0.10134642,
0.41920823,
0.13758333,
-0.37624794,
-0.13453226,
0.6924722,
-0.051170893,
-0.11511399,
-0.0003763813,
-0.24925977,
-0.09818337,
-0.09440864,
0.18379103,
0.03401026,
-0.029832056,
-0.040252637,
0.195016,
-0.12019552,
0.22757931,
0.15141788,
0.3514788,
0.010502124,
-0.06112013,
-0.48655567,
-0.4378056,
-0.32476172,
0.33806416,
-0.03812822,
-0.24719295,
0.24555902,
-0.04591476,
-0.010058133,
-0.23240657,
-0.43217683,
-0.016305523,
-0.12487737,
-0.3767691,
-0.2595312,
-0.15661986,
-0.038384095,
-0.1842827,
-0.086387634,
-0.053807616,
-0.37249255,
-0.00052429095,
0.15840794,
-0.26278833,
0.0336361,
-0.29500362,
0.18167305,
0.12459632,
-0.2540121,
-0.014988928,
0.03053431,
0.030173648,
-0.106117584,
-0.042559505,
0.2209112,
-0.049397063,
-0.22957541,
0.21134755,
-0.13224213,
-0.3862753,
0.060267877,
-0.14038286,
-0.014741097,
-0.4981138,
-0.25514218,
-0.16205724,
0.16221741,
0.024740633,
0.060463168,
-0.0077965446,
-0.13919942,
-0.0006874623,
-0.03496376,
-0.03977208,
0.40472448,
-0.0457068,
-0.2218678,
0.18954669,
-0.1612071,
-0.14669573,
-0.15962034,
-0.0025235186,
0.062899835,
0.0914089,
0.016515803,
-0.004312736,
0.21231505,
-0.07538926,
-0.012143108,
-0.13604075,
0.19033296,
-0.09518798,
0.019861437,
-0.02811286,
-0.1890977,
0.25928217,
-0.10337513,
-0.039621446,
-0.36366847,
-0.15778704,
0.010615233,
-0.3799976,
-0.015552874,
0.0665207,
0.15943834,
-0.20583245,
0.18686114,
0.37746358,
-0.10094563,
-0.34883457,
0.025181547,
0.09808348,
-0.24777266,
-0.25815353,
-0.17250693,
-0.39628786,
0.37325707,
-0.12357618,
0.37186652,
0.014412382,
-0.113761194,
0.14957543,
0.050524797,
-0.3957833,
0.033712145,
-0.094095066,
0.09925647,
0.05695089,
-0.12269346,
-0.2846244,
0.3017333,
0.037584677,
-0.18916601,
0.031887695,
-0.09381703,
-0.072031856,
-0.0750701,
-0.13062106,
0.10067472,
0.022154104,
0.14633827,
0.021238007,
0.19326821,
-0.17763175,
-0.005492058,
-0.11748388,
-0.0927561,
-0.23954022,
-0.20417574,
0.006587104,
0.29767781,
0.5230166,
0.03536351,
-0.028427174,
0.11594312,
0.38831532,
0.0056331367,
0.1971225,
-0.06723493,
0.24519877,
-0.10467281,
-0.4856998,
-0.16052705,
-0.17582922,
-0.23832047,
-0.33087817,
-0.028504282,
0.13604069,
0.026365906,
0.09879957,
-0.1482044,
-0.28105727,
0.15084583,
0.22977148,
-0.16274196,
0.2737775,
0.15382005,
0.0885993,
-0.004250918,
0.24605349,
-0.009023209,
0.03181038,
0.19692533,
0.046305194,
-0.4722061,
0.12174929,
-0.04938288,
-0.63384616,
-0.006025903,
0.046801824,
0.39023665,
-0.4898372,
-0.2516365,
0.013750786,
-0.11774184,
-0.025480183,
-0.019825056,
-0.052874204,
0.08378844,
-0.025497414,
-0.030358965,
0.111497365,
0.04151857,
0.04872263,
0.07834178,
-0.14658146,
0.027190672,
-0.015854318,
-0.03311576,
0.21183869,
-0.09905567,
-0.28901547,
-0.12843776,
0.14395735,
-0.2238231,
0.44378123,
0.013810988,
-0.5186238,
0.3588685,
0.11380303,
-0.086635865,
0.2045707,
-0.27455136,
-0.0548608,
-0.15051001,
-0.49302223,
-0.15326467,
-0.3163917,
0.13904482,
-0.02786245,
-0.04664681,
0.13412648,
0.0019084433,
0.2992775,
-0.03798256,
-0.48326468,
-0.1283728,
-0.088696316,
-0.13323206,
0.17063358,
-0.12739065,
-0.09296028,
0.2050644,
-0.4942824,
-0.25992075,
-0.02352103,
0.26690957,
-0.009231397,
-0.49038744,
0.3151817,
-0.054336634,
-0.64326304,
0.07288996,
-0.12994406,
0.20783286,
-0.37475544,
-0.5177944,
-0.12406802,
0.39034086,
0.009778461,
-0.16153225,
-0.00077550026,
0.20545226,
-0.034191515,
-0.277036,
-0.3447106,
0.42214268,
-0.05917156,
-0.033164125,
0.0008003878,
-0.1101222,
-0.11407759,
-0.6904088,
0.48434344,
0.053139165,
-0.18901442,
-0.17555955,
-0.033501733,
0.18937126,
0.14028068,
0.033985958,
0.054326657,
0.264099,
0.099161394,
-0.104263045,
0.03468016,
-0.100759596,
0.015191488,
-0.00941511,
-0.6761552,
-0.16336337,
0.047279645,
-0.16427585,
-0.24175993,
-0.04395895,
-0.1340574,
-0.07982515,
-0.028136559,
-0.26841718,
-0.22108038,
0.3661739,
-0.18001404,
0.30309695,
0.41189158,
-0.3244469,
0.1312964,
-0.10858849,
-0.17945918,
-0.30631012,
-0.040286195,
0.20304559,
0.04159847,
-0.42757836,
0.28207603,
-0.096435495,
-0.35669312,
-0.06468219,
-0.18572532,
0.3692254,
-0.60592145,
-0.41263157,
-0.025222875,
0.35148197,
-0.011517947,
0.09718452,
-0.087798625,
-0.053396944,
-0.07117175,
-0.092054226,
-0.2117283,
0.25083974,
-0.033425692,
-0.19518667,
0.33953878,
-0.016978467,
-0.039085936,
-0.1943549,
0.24849735,
-0.06887989,
-0.03833491,
-0.21419092,
0.22796221,
-0.13893883,
-0.12837225,
0.0041977814,
0.26374105,
-0.048043508,
-0.068273105,
-0.05161741,
-0.15964264,
0.2026616,
-0.09966298,
-0.008074341,
0.1575324,
-0.25131384,
-0.26841477,
-0.5552897,
0.07442947,
-0.059165858,
-0.28148645,
0.051815554,
-0.031324107,
0.08300237,
-0.15785018,
0.2671563,
-0.088828966,
-0.3374404,
-0.13675547,
0.09255403,
-0.23969837,
-0.22925223,
-0.1417934,
0.042188488,
-0.025740063,
0.2378631,
-0.049709193,
-0.036682837,
-0.09541389,
-0.07689394,
-0.34764734,
-0.12661974,
-0.13333786,
0.27670285,
0.101622164,
0.14961268,
0.00054969685,
-0.35401094,
0.017534396,
-0.37944752,
-0.10697144,
-0.0804958,
0.054901514,
0.049608998,
0.5011477,
-0.76247436,
-0.065745585,
-0.30772728,
-0.31161615,
0.0540834,
-0.2803676,
0.59738106,
0.31635937,
0.038447376,
-0.040527906,
-0.553979,
0.20120902,
-0.5116345,
-0.5537292,
-0.08511416,
0.03929627,
0.3175263,
0.15622723,
-0.09149651,
-0.13665628,
0.07017235,
0.12972161,
-0.15114462,
-0.6953976,
-0.5064671,
0.24619007,
-0.029022438,
-0.324039,
-0.0029572195,
-0.2143361,
-0.012470035,
0.022718424,
-0.12762867,
-0.30332708,
0.2369965,
-0.5074671,
0.39635924,
0.10708914,
-0.6423177,
0.012923514,
-0.10749699,
-0.3070159,
-0.69281894,
-0.09795584,
0.36885944,
-0.089752354,
-0.4171597,
0.29563937,
-0.061960664,
-0.6944623,
-0.075473934,
-0.02813701,
0.19910283,
-0.021594651,
-0.15437481,
-0.020393804,
0.2225634,
-0.01643097,
0.12972821,
-0.06753465,
-0.2817343,
-0.054945547,
-0.29006955,
-0.12959196,
0.4088476,
-0.06882521,
0.036845353,
0.34631056,
0.30318218,
0.07730945,
-0.19898538,
0.30631703,
0.01925897,
0.3561299,
-0.26523945,
0.1970158,
-0.13691793,
0.00274172,
0.0028010595,
-0.357241,
-0.12278576,
0.44697237,
-0.07142208,
0.32228518,
0.006047462,
0.07149445,
0.026309656,
-0.7527566,
-0.10245697,
0.32262924,
0.184073,
-0.10862146,
-0.037162226,
0.06218298,
0.19231358,
0.27455154,
0.05952243,
-0.25648558,
0.13846135,
-0.03985556,
-0.26039892,
-0.49147633,
-0.09998045,
-0.04929452,
0.0052618342,
-0.1845448,
-0.1936235,
-0.07084945,
-0.16881971,
0.0026244593,
-0.3170445,
-0.010079151,
0.07256061,
-0.32684058,
-0.11806456,
-0.08405442,
0.49305016,
0.28198743,
0.19906041,
-0.24585855,
0.2434061,
-0.026852977,
-0.6572234,
-0.067204736,
-0.04370037,
-0.033996265,
-0.27265987,
-0.15466647,
-0.22041729,
-0.07362761,
0.22504252,
0.020744257,
0.019311229,
0.14440878,
-0.04300306,
0.3144124,
-0.035485312,
-0.22712691,
-0.13916671,
0.25187,
0.027019957,
0.486863,
-0.073252045,
-0.09072602,
0.113173075,
0.34677425,
0.023383813,
0.13784717,
0.010598507,
0.10565234,
-0.10707562,
-0.517357,
-0.2999095,
-0.2004449,
0.011454893,
0.18625832,
-0.07339161,
-0.2310491,
0.22439699,
-0.085754484,
0.18035905,
0.094034344,
0.003964932,
-0.17934915,
0.11969208,
0.04010724,
-0.17505498,
-0.08728615,
-0.026404193,
-0.24437961,
-0.5651092,
-0.11704607,
0.14970593,
0.0050180424,
-0.37274617,
-0.23384291,
0.11021131,
-0.15737085,
-0.10804205,
0.32531732,
0.17148638,
0.27807206,
0.0635073,
-0.017371992,
0.36981687,
-0.05714477,
-0.082109295,
-0.03580836,
-0.122493915,
0.05639924,
-0.3177293,
-0.026787868,
-0.12663822,
0.011986789,
-0.041563835,
0.20740195,
0.20035867,
0.2219354,
-0.00054945593,
0.40333802,
-0.05904434,
-0.1927243,
-0.35978994,
0.040118504,
-0.05054168,
0.07036611,
-0.05698888,
-0.03925368,
-0.12713726,
-0.13584293,
0.019132176,
-0.47048622,
-0.10771628,
-0.07275117,
0.050097156,
0.31954324,
0.21117522,
-0.21114998,
0.13529773,
-0.39238927,
0.055132374,
0.20560189,
0.04657835,
0.2605596,
0.34721676,
0.24294823,
0.3704216,
0.10923773,
-0.12127261,
0.1633328,
-0.3546537,
0.23034644,
-0.2884823,
0.29476202,
-0.30030677,
0.02078284,
0.17281078,
-0.06587619,
-0.26202977,
0.13157164,
-0.037210055,
-0.22449532,
0.050873812,
0.1784093,
-0.12500069,
0.05398284,
-0.42369774,
0.0016462414,
0.26613155,
0.08064584,
-0.12002877,
-0.0005414295,
0.06866937,
0.024037201,
0.11524879,
0.07731062,
0.23061298,
0.028436884,
0.30081886,
-0.23302287,
0.014831593,
0.007831593,
-0.6938346,
-0.07249998,
-0.029834831,
0.022603573,
-0.023280913,
-0.09236099,
-0.36862132,
0.16338693,
0.021402793,
-0.35348913,
0.15096171,
0.014122241,
-0.05889257,
-0.54377633,
-0.03774896,
0.30040365,
-0.17617188,
-0.05846409,
-0.21592212,
-0.22953516,
0.1064303,
0.090963855,
0.0015456523,
-0.23993431,
-0.49570218,
-0.06904589,
-0.088186756,
-0.058236796,
-0.33431518,
-0.13154975,
0.24570252,
0.050391495,
-0.058084097,
-0.16926457,
0.026115175,
0.1843058,
0.008919767,
0.03740809,
-0.056921653,
-0.040949304,
-0.1611848,
0.16788603,
-0.03599278,
-0.1470975,
-0.07415747,
-0.21139887,
-0.42009515,
-0.05666827,
-0.0670996,
0.041843027,
-0.17138924,
-0.012060799,
0.21128066,
0.022493405,
0.005978817,
-0.14294422,
-0.120698884,
0.3546928,
0.18387194,
-0.114931524,
-0.1692041,
0.30600858,
-0.2836909,
0.1458818,
0.10697334,
-0.3041149,
-0.033410273,
0.08549993,
-0.11259473,
-0.022736527,
0.15525948,
0.048693534,
0.04057261,
0.046834387,
-0.02179437,
0.25769082,
-0.09952437,
0.25368717,
-0.0070057036,
0.06215114,
-0.10274205,
-0.3897058,
-0.23017368,
0.27498525,
0.05575858,
-0.0070109307,
-0.07820908,
-0.20505361,
-0.18712004,
-0.28722805,
-0.42171058,
-0.06660211,
0.10628539,
-0.263505,
-0.073254526,
-0.26538748,
0.004801772,
-0.46265784,
-0.2908703,
0.48064807,
-0.08271738,
0.044386894,
-0.25870585,
-0.049342845,
-0.02557292,
0.15192375,
-0.1117795,
0.09654646,
-0.0038778188,
-0.15911804,
0.28432277,
0.3311244,
0.23597687,
-0.08465763,
-0.056758802,
-0.101190396,
-0.30482444,
-0.09412987,
-0.38613284,
-0.052835446,
-0.2767066,
0.24897015,
-0.34494567,
-0.09659479,
-0.3909275,
0.23741287,
-0.20677027,
0.27261302,
0.2684655,
-0.47932336,
-0.07738117,
-0.057702072,
-0.505767,
0.03934979,
0.16338618,
0.26318103,
-0.001704489,
-0.21729761,
-0.065722935,
0.032679763,
0.070196174,
0.32493728,
-0.028416725,
0.06662721,
-0.050236676,
0.018748494,
-0.071737476,
-0.2813934,
-0.119173594,
-0.23578772,
-0.03295442,
-0.11767558,
0.26739186,
-0.016139317,
-0.07881047,
0.10800744,
0.09603503,
-0.1672909,
-0.1010311,
-0.038061056,
0.07080784,
-0.20129143,
-0.0004853419,
-0.60078126,
0.06384588,
-0.03103424,
0.22223915,
-0.03692533,
-0.11756364,
-0.118757136,
-0.0027596974,
-0.34276274,
-0.11947893,
0.04443062,
0.44288096,
0.17477322,
0.020788293,
-0.076347806,
0.093564525,
0.053003177,
0.09898494,
0.054124318,
-0.14800796,
-0.040527977,
-0.051677555,
-0.015704932,
-0.3751833,
0.056104418,
0.41659054,
-0.14364035,
-0.020831684,
-0.0031086928,
-0.049581643,
0.13791946,
0.049151413,
-0.1063546,
-0.23162559,
0.09392701,
-0.102294624,
0.5396668,
0.05104703,
-0.0726414,
-0.106781706,
0.0064683445,
-0.0102014635,
0.18278854,
0.1659176,
-0.12762108,
0.036659133,
-0.16391917,
-0.29804075,
-0.41043,
-0.3882993,
-0.0026779291,
-0.03304463,
-0.25058168,
-0.008565193,
0.23058239,
-0.29089248,
-0.2178891,
0.22114316,
0.08626003,
0.22839408,
0.18482564,
0.28946534,
0.026204215,
-0.13620435,
0.20116076,
-0.16788721,
-0.036586322,
0.29612398,
-0.11003092,
-0.31899709,
-0.087927245,
0.05326712,
-0.3297841,
-0.09858791,
-0.055108245,
0.32889554,
-0.025404586,
-0.073168606,
-0.03424144,
-0.1466655,
0.012288917,
-0.2805567,
0.07391024,
0.02232391,
-0.047979042,
0.14668398,
-0.07280617,
-0.44361946,
-0.038160447,
0.16382821,
-0.15345298,
-0.049741786,
0.010771364,
-0.16236608,
0.38865378,
-0.027729362,
-0.088953786,
-0.29064694,
-0.05412891,
-0.57293576,
-0.11763999,
-0.06501797,
-0.16628079,
0.037188854,
-0.41429284,
-0.0035332022,
-0.008814798,
-0.23585622,
0.24014008,
-0.055789728,
0.02995709,
-0.31588182,
-0.17800935,
0.116537385,
-0.31666663,
0.021304194,
-0.044419117,
0.03929933,
0.016938578,
-0.18707561,
-0.0040692855,
-0.026129533,
-0.23547272,
0.07183985,
0.10124998,
-0.07501983,
-0.046386886,
-0.16858421,
0.212067,
-0.101343475,
-0.0023905486,
-0.27334186,
0.020661375,
0.008669565,
0.122430265,
0.05515102,
-0.14717138,
-0.04748776,
0.10161747,
0.22716974,
0.1432936,
0.10933662,
-0.110236,
0.014984438,
0.048926096,
-0.23046826,
-0.07703838,
0.019795833,
-0.04950695,
0.28272992,
0.00094097387,
-0.05189699,
-0.042777527,
-0.026748775,
0.035244484,
0.052091893,
0.2217316,
0.40067062,
0.13722369,
0.025302222,
0.019472511,
-0.31494275,
-0.22103772,
-0.0122407675,
0.13450846,
0.0074409745,
0.09021825,
0.04487465,
-0.05099133,
-0.099636406,
0.15439206,
0.000950467,
-0.028736157,
-0.097214736,
0.21145065,
0.2947379,
-0.028851379,
-0.3310019,
0.070026055,
0.06733593,
-0.130041,
-0.017446114,
-0.13919094,
0.2603252,
0.056436997,
-0.1656195,
0.12302831,
-0.38252175,
-0.6716265,
-0.10650309,
0.40785912,
0.31399423,
-0.22519906,
0.427373,
-0.077302784,
0.09978821,
0.036312032,
0.074987605,
-0.24864194,
-0.112308905,
-0.010630771,
-0.031385455,
0.021987023,
-0.03815032,
-0.41891184,
-0.08012625,
-0.19354399,
-0.41145045,
0.012009683,
-0.71233135,
0.03239154,
-0.07387229,
0.033881012,
0.15950961,
-0.11001818,
0.4365968,
-0.02673594,
-0.023047853,
-0.5380677,
0.15777284,
-0.3592601,
0.06295349,
0.026727973,
0.023975607,
-0.60149574,
0.20950146,
0.07480002,
0.2719036,
-0.23788556,
-0.055086307,
-0.24321516,
-0.07840236,
0.34107253,
-0.08701446,
0.03548199,
0.05295346,
-0.090376325,
-0.01903203,
-0.22849357,
0.18035781,
0.10193562,
0.0014422692,
-0.011617119,
0.007582775,
0.23322958,
-0.028361598,
0.051765084,
-0.2496979,
-0.002916283,
0.19229726,
0.26952517,
-0.06326962,
-0.04715968,
0.07324886,
0.2301227,
-0.100111574,
-0.08283124,
0.08566592,
-0.10859176,
0.17503673,
0.022750838,
0.103730775,
-0.32743585,
-0.06588497,
-0.19782159,
-0.09450315,
-0.012457987,
-0.019311406,
-0.10538401,
0.103644,
-0.012631763,
-0.1343985,
-0.033518903,
0.06165436,
-0.046896424,
-0.016288446,
-0.014277379,
0.19747634,
0.07111521,
-0.25249976,
-0.06306211,
0.04574169,
-0.12757996,
-0.14799042,
-0.15589355,
-0.06699842,
0.0015632482,
-0.040998876,
-0.116492786,
0.3622907,
-0.09309393,
-0.0012398569,
0.016682314,
-0.120777525,
-0.013548752,
0.04779586,
-0.24997745,
-0.066664055,
-0.43905565,
-0.20049374,
0.25047967,
-0.07330981,
-0.14642054,
0.20815445,
-0.2414842,
-0.30071518,
0.116357625,
-0.10532228,
0.1890748,
0.20028977,
-0.09543731,
0.1394238,
-0.29142842,
-0.05400962,
0.01550628,
-0.35881713,
-0.07445963,
-0.21245994,
0.5107818,
0.159902,
-0.21088713,
0.14954452,
0.061382465,
-0.43462336,
0.047314603,
-0.2591354,
0.03875254,
-0.11750743,
0.23178363,
-0.10882524,
0.046944123,
0.0024284218,
-0.5434702,
-0.017468892,
-0.19795989,
-0.13826273,
-0.071565986,
-0.11601934,
0.038457353,
-0.017412493,
-0.0023652744,
0.013768872,
0.19244406,
0.1799943,
-0.09678194,
0.031125613,
-0.3565283,
-0.0052499133,
-0.14960562,
-0.3341229,
-0.3279513,
0.030231766,
-0.9113391,
-0.049939886,
-0.38262266,
-0.001207846,
-0.73908335,
-0.011101206,
-0.21694504,
-0.11735269,
-0.24692379,
-0.070849486,
-0.41625142,
-0.111687824,
0.22731923,
-0.03930682,
-0.2223564,
0.28989232,
-0.25222114,
-0.3493318,
0.104074836,
0.031636216,
0.19630906,
0.095165975,
-0.07740224,
0.03220934,
-0.19881879,
0.20603196,
-0.16325668,
-0.5502193,
-0.28595573,
-0.06602634,
0.5672475,
-0.20284814,
-0.11227186,
0.19168971,
-0.0327697,
-0.6260113,
-0.06673537,
-0.16552962,
-0.36824065,
0.024273794,
0.046198856,
-0.05545954,
0.33858037,
-0.1414456,
-0.48144445,
0.08003129,
-0.05747172,
-0.25125954,
-0.0058139274,
0.06221709,
0.0005982934,
-0.34075978,
-0.0036804623,
0.17053671,
0.20091517,
-0.06780155,
-0.08767015,
-0.4594448,
-0.4623568,
-0.0803506,
-0.16276665,
-0.20074983,
-0.41747317,
-0.031532295,
-0.59869975,
0.0026215902,
-0.43817756,
-0.2016222,
-0.37308258,
0.040782567,
0.56222725,
-0.50655216,
-0.25946146,
-0.0740592,
0.16969186,
-0.1547784,
-0.5003233,
-0.06728649,
0.42183048,
0.1236875,
0.35997826,
-0.32748437,
-0.45260876,
-0.08075249,
-0.51606715,
-0.3710218,
0.20945962,
-0.14186291,
0.059086192,
-0.07513361,
-0.07354896,
0.71345466,
-0.036971137,
-0.27837083,
-0.10093928,
-0.2133996,
-0.115344904,
-0.09000022,
-0.104227416,
0.38770744,
0.01517432,
0.05426655,
-0.63741815,
-0.013093275,
-0.4981204,
-0.048239637,
-0.039711438,
0.3536226,
-0.15763247,
-0.24914669,
-0.10381558,
-0.20372327,
-0.09676358,
0.14820728,
0.005425954,
-0.5952318,
-0.11169957,
-0.21833615,
-0.40997022,
0.16790235,
0.037609693,
-0.26622078,
0.028813431,
0.37855732,
0.13514632,
-0.08011737,
0.03814672,
-0.061805453,
0.34285635,
0.26896456,
0.14571266,
-0.12995605,
-0.40359238,
0.015512374,
-0.2612227,
0.11192996,
-0.0972825,
-0.10533194,
-0.30678922,
-0.025344038,
-0.114234015,
-0.015239471,
0.13947459,
0.15246068,
0.14824735,
-0.17963487,
0.12083653,
0.010362865,
0.13033743,
0.122304864,
0.13967319,
0.34910643,
-0.039270487,
-0.48881269,
-0.018761154,
-0.43666503,
0.16534777,
0.1483573,
0.148962,
0.1854524,
-0.93754464,
0.2143473,
0.005609417,
0.0960695,
-0.0060881125,
0.12182433,
0.08849229,
-0.059252225,
0.22188443,
-0.05271089,
-0.12043681,
0.17360283,
-0.4005022,
-0.014326553,
-0.17037228,
-0.16614261,
-0.045226958,
-0.43353075,
0.041691672,
0.21844251,
-0.0682591,
0.06389876,
-0.06379955,
0.20355888,
-0.10027772,
0.23074622,
-0.21451853,
-0.061403148,
-0.1939778,
-0.0058718883,
-0.057733312,
-0.014019222,
-0.8294089,
0.19802599,
0.2707343,
0.2700235,
0.08128544,
-0.03897168,
-0.26046365,
0.42997012,
0.31005052,
-0.08189514,
-0.45972914,
0.0005231928,
0.13274331,
-0.041460447,
0.29959905,
-0.20862612,
-0.09256485,
-0.51045054,
-0.002221354,
-0.044292666,
-0.32316285,
-0.24415302,
-0.20688263,
0.28161928,
0.17713231,
-0.37390846,
-0.31113064,
-0.16703638,
-0.28423497,
-0.445865,
-0.5198351,
-0.72769856,
0.16455993,
-0.19947575,
0.0761208,
-0.0930422,
-0.0026074238,
-0.0006444398,
-0.21728805,
-0.11848976,
-0.010001382,
-0.0063292845,
-0.08270374,
-0.19756693,
-0.19100355,
0.4565509,
0.007889728,
-0.06770142,
-0.012313753,
-0.04532913,
0.025958832,
-0.48352867,
-0.046713244,
-0.17657879,
0.13755938,
0.2996499,
-0.057379097,
0.00012211665,
0.30684203,
-0.1847058,
-0.47239694,
-0.21678992,
-0.35783848,
0.019428411,
-0.04124359,
0.19673295,
-0.08040862,
-0.03668927,
-0.57477844,
0.06535885,
-0.06131515,
0.04186336,
0.06874125,
-0.038422346,
0.028939553,
-0.28486532,
-0.21990268,
-0.114066094,
0.32683846,
0.42403725,
-0.12576935,
-0.25814906,
-0.5748457,
-0.010542265,
-0.07828121,
-0.1406577,
-0.61318356,
0.004601462,
0.13536012,
-0.2676336,
0.30810225,
0.33820993,
-0.04396292,
-0.25582469,
0.15247253,
-0.12442641,
-0.016450321,
0.15123917,
-0.054276027,
-0.38993543,
-0.018175498,
0.22037032,
-0.24743311,
-0.07308696,
0.17469846,
-0.089961834,
-0.07320876,
0.012099902,
-0.16056548,
-0.50438446,
0.06419686,
-0.042668905,
0.042877167,
-0.019227281,
0.020308867,
-0.10528579,
-0.14368972,
0.12738334,
-0.37313846,
0.5783256,
-0.03877975,
0.009807575,
0.1152506,
-0.12284074,
-0.0012539692,
-0.40846804,
-0.19383672,
-0.06908003,
0.08786415,
0.31931564,
0.32202712,
0.053358473,
0.32958475,
0.0125071015,
-0.46540746,
-0.093830265,
0.01641048,
-0.021510439,
0.051424053,
0.035097126,
0.08565804,
-0.123370945,
-0.09452691,
0.28247452,
0.20769174,
-0.53047544,
-0.114685774,
0.009686074,
0.11767235,
0.13653809,
-0.11110947,
-0.10743252,
0.011893262,
-0.3537767,
0.08148121,
-0.44650298,
0.47771856,
0.21666571,
0.36905673,
-0.3005602,
0.12780999,
0.33142734,
0.019206677,
0.069488324,
0.03404258,
0.08694646,
0.011234409,
0.006206615,
0.12805945,
-0.023989476,
-0.2961017,
0.27164707,
-0.033299632,
-0.20753679,
-0.18196301,
-0.030647317,
-0.08311761,
-0.5340593,
-0.071184576,
-0.024356766,
0.005115178,
-0.23737943,
-0.023108764,
0.28758833,
-0.103900425,
-0.105342805,
0.039487418,
0.19722146,
-0.17266789,
-0.20540626,
-0.041145723,
0.012443285,
-0.09574223,
0.4538395,
0.21422023,
0.22043611,
-0.45857856,
-0.0019464958,
0.33445054,
-0.14252204,
-0.16067334,
-0.035861783,
0.08920054,
-0.18625161,
-0.40597713,
-0.035605863,
0.5207512,
0.2958207,
0.5220658,
-0.41300073,
0.023475634,
-0.10686017,
-0.22150218,
-0.4910696,
0.43047947,
0.21870783,
-0.14274831,
0.14912282,
0.29161423,
-0.07708095,
-0.45071974,
0.06828355,
0.05993065,
-0.14193457,
-0.59949005,
0.23360166,
0.04101089,
0.32840288,
-0.06916759,
0.43439284,
-0.5486697,
-0.10523541,
0.2040114,
-0.03478888,
-0.00470039,
0.16085316,
-0.40692618,
-0.2718141,
-0.10965058,
-0.5289635,
-0.032350674,
-0.62250423,
0.004531966,
-0.4150776,
-0.08439091,
0.09316516,
-0.4015925,
0.1481603,
0.03683509,
0.044800803,
-0.5756993,
0.35072803,
0.1441392,
0.011503724,
0.25202194,
-0.051073834,
-0.3440756,
0.47175527,
0.43626347,
0.22208637,
0.032479916,
0.06427302,
0.08673642,
-0.32036272,
-0.0711141,
-0.015557619,
-0.095396206,
0.163496,
0.030081045,
0.00488529,
0.15046002,
0.46313006,
-0.1326754,
-0.10666117,
-0.010142598,
0.060198963,
-0.08789971,
-0.19309627,
0.012304853,
0.15518242,
0.20806372,
-0.5252842,
0.22481066,
0.10585737,
-0.23805913,
-0.043012686,
0.32181373,
0.10633701,
-0.54564005,
0.10377994,
-0.005109148,
-0.26954812,
-0.026980938,
-0.06673718,
0.13393275,
0.09941278,
-0.2510401,
-0.08009973,
0.34689555,
-0.08056292,
-0.40809652,
0.03523036,
-0.09824809,
-0.08794914,
0.026207756,
-0.99117893,
0.021485554,
-0.5541327,
-0.0022431738,
-0.25180706,
-0.12956603,
0.009324266,
0.033383287,
-0.41711593,
-0.2229904,
0.36743316,
0.06910793,
0.12937403,
-0.1269902,
0.011370936,
-0.178768,
0.40242258,
0.0044690743,
0.1593637,
0.0105414605,
-0.039061006,
0.014506762,
-0.17092101,
-0.16193974,
0.062882714,
-0.5751648,
0.13183928,
0.16745673,
-0.07801831,
-0.29476228,
0.31300503,
0.11028209,
-0.1891282,
-0.09169812,
-0.06984998,
-0.24195857,
0.039628297,
-0.35368562,
-0.04234955,
-0.39746177,
-0.29992357,
0.2863941,
0.03989114,
0.27842796,
-0.12479851,
0.3272935,
-0.25977343,
-0.0786914,
0.014131038,
-0.020918349,
0.0069316076,
-0.0575447,
0.25410655,
0.34312525,
-0.012692765,
0.08457234,
-0.04149497,
0.0051965113,
0.05459433,
-0.36125138,
0.2633751,
-0.073361956,
-0.027777454,
-0.01615053,
-0.5473571,
0.05024887,
-0.11336507,
0.069214925,
0.075874425,
-0.1367893,
0.11391713,
0.009739867,
-0.03327082,
-0.08630469,
-0.13529432,
-0.050074566,
-0.5747868,
-0.3148834,
-0.058601752,
-0.013531507,
-0.32128665,
-0.17748228,
-0.32910103,
-0.39497203,
-0.06284549,
-0.13597378,
-0.15391593,
0.029773464,
-0.0786863,
0.045336027,
-0.17698854,
0.15216614,
0.04090939,
-0.01523024,
0.41378072,
0.27207705,
-0.3584498,
-0.2715818,
-0.10058565,
0.015056496,
0.040828608,
-0.67878777,
0.30560955,
0.03153595,
-0.266352,
0.06768492,
-0.33396435,
-0.26509422,
-0.07515226,
0.1481459,
0.17140356,
-0.21517937,
0.0032257643,
0.028628934,
-0.17623046,
0.035040554,
-0.11153044,
-0.30278626,
-0.02827615,
0.20133993,
-0.028896287,
-0.07486596,
-0.13370895,
-0.23072745,
-0.16427578,
-0.045201674,
0.0029097195,
-0.04058993,
-0.30778396,
-0.07387937,
-0.009736752,
-0.07413605,
-0.050613135,
-0.25853342,
0.34813657,
-3.5310855e-05,
0.11844365,
-0.36936757,
-0.071905576,
-0.2919636,
0.23788907,
-0.18135005,
-0.0896086,
-0.30876368,
0.3464819,
0.17537731,
0.3549374,
0.016495652,
-0.045898277,
0.47575137,
-0.3900195,
0.13119607,
-0.09824905,
0.09500966,
-0.2880033,
-0.34985927,
0.019594476,
0.48581225,
0.4570933,
0.4961988,
-0.30027437,
-0.27385977,
-0.08981278,
-0.10422135,
-0.38950142,
0.27832124,
0.45014855,
-0.0065298616,
-0.16665207,
0.14410236,
0.24722965,
0.16351385,
0.4267289,
0.06596911,
0.17781164,
-0.0783374,
-0.3709818,
-0.07498114,
0.08687264,
0.04784849,
-0.08927449,
-0.45076433,
0.057854183,
-0.3179182,
-0.025434013,
0.13253343,
0.12359982,
0.06721189,
-0.27478954,
-0.07099817,
-0.21398243,
-0.05153027,
0.17213768,
-0.152422,
-0.58422816,
0.048042033,
0.14440113,
-0.3443745,
-0.32486182,
-0.055228304,
-0.077409565,
0.11125021,
0.2878144,
-0.12323356,
-0.15927589,
0.05447908,
0.024132945,
0.17934023,
0.4053365,
-0.15964931,
0.004945249,
0.033065774,
0.0030870677,
0.04020892,
-0.042672724,
-0.3052289,
-0.076046325,
-0.14859875,
-0.1798451,
-0.083658464,
-0.0067861713,
0.081674054,
-0.023471382,
-0.06518995,
-0.17178497,
-0.3056016,
0.03095196,
0.0034410416,
-0.001535104,
-0.07553764,
-0.31088012,
0.18546496,
-0.3230773,
0.0010762074,
0.13372324,
0.14923047,
-0.029626345,
0.23858008,
0.027596688,
-0.10284538,
-0.046624877,
-0.054407604,
-0.17659622,
0.043154456,
-0.0031127997,
-0.21546578,
-0.010268829,
-0.034295686,
-0.049259346,
0.11998289,
-0.057126928,
-0.2754988,
-0.13553151,
-0.10052715,
0.02384831,
-0.061038155,
-0.192868,
0.05240644,
-0.06202921,
-0.078742854,
-0.15670484,
0.049707722,
0.34962466,
-0.022071412,
-0.37150446,
-0.05079355,
0.23758966,
-0.022997342,
0.054741323,
-0.23320736,
-0.04193409,
-0.120833054,
-0.09057132,
-0.087348774,
0.16536325,
-0.014659731,
0.026460301,
0.16123232,
-0.22371714,
0.016867047,
-0.02099869,
-0.17877132,
0.016600708,
0.12262254,
-0.0750371,
0.1984978,
0.33361274,
0.12396735,
-0.4016072,
0.0071841558,
-0.04232061,
-0.14543827,
0.09655801,
0.24429707,
-0.051620465,
0.056572042,
-0.122750685,
0.20041637,
-0.3784235,
-0.24802332,
0.23984896,
0.36265823,
0.031211602,
-0.102574095,
0.24083358,
0.03520599,
-0.26179415,
-0.05505976,
0.03114076,
-0.17261204,
0.018494142,
-0.2970807,
-0.06240877,
0.20490973,
0.10213825,
-0.10636974,
-0.25548744,
-0.14367475,
-0.37279442,
0.023097463,
-0.29746604,
-0.068197265,
-0.16640927,
-0.031613044,
0.4209607,
0.0052815997,
0.033849392,
-0.013715904,
-0.24483132,
-0.37415934,
0.4111921,
-0.22542784,
-0.077745415,
-0.015116737,
-0.059463248,
-0.19007383,
0.33869365,
-0.014165075,
-0.026795743,
-0.011026254,
-0.022537706,
-0.26793754,
-0.039623972,
0.32911,
-0.0637171,
0.15928404,
-0.15900944,
0.4991328,
0.004592178,
-0.09555243,
0.20215735,
-0.014542271,
-0.06595878,
-0.14142865,
-0.07258643,
-0.19281055,
-0.096810214,
0.12494609,
0.2528092,
-0.101679094,
-0.20294712,
0.09075089,
0.25310794,
-0.4268067,
-0.17231841,
0.084165215,
-0.23715633,
-0.32806066,
-0.007227543,
-0.05687266,
-0.12981354,
-0.07755013,
-0.074274965,
-0.03712554,
0.053718626,
0.14563897,
-0.081917495,
0.16171326,
-0.15925336,
-0.047420755,
0.32914174,
-0.01042012,
-0.072397366,
-0.02864983,
-0.057513706,
-0.024174564,
-0.6178896,
0.025759965,
0.28105155,
0.12190336,
0.31547436,
-0.033789504,
-0.31741935,
-0.2946155,
-0.26317868,
-0.18232544,
-0.32653803,
-0.49273992,
-0.032251425,
0.1471298,
0.03389245,
-0.056417394,
0.2940023,
-0.12906936,
-0.05935257,
0.17850675,
-0.32006824,
0.007582526,
0.037660003,
-0.1132576,
-0.18396655,
-0.025298132,
-0.13212009,
-0.16388573,
0.11383333,
0.34493843,
-0.15275079,
0.10075432,
-0.09052172,
-0.55619425,
-0.3716776,
0.32452863,
-0.08957656,
0.1804625,
0.16661614,
0.13200551,
-0.01813897,
-0.065751396,
0.39675966,
-0.010802288,
-0.15625647,
-0.14995803,
0.1266943,
-0.0728265,
-0.107379235,
0.047733232,
0.1829377,
-0.59388715,
-0.066033505,
-0.3546645,
0.00237625,
0.04656314,
-0.0024377895,
0.12276561,
-0.19967891,
-0.02045095,
-0.3748975,
-0.040864304,
0.13376927,
-0.06216524,
-0.19227257,
-0.10368503,
0.27621955,
-0.007715517,
-0.15880775,
0.019664345,
-0.14622732,
-0.03258091,
0.31289995,
-0.11508451,
-0.29515597,
-0.066400915,
-0.022811407,
0.21887922,
0.20683558,
-0.12423562,
0.031629045,
0.14436738,
0.031402107,
0.15085153,
-0.29950455,
-0.029521588,
0.006984039,
-0.36546284,
0.108989194,
-0.20764303,
0.011635785,
-0.112206236,
0.4170106,
0.2005104,
-0.08238395,
-0.3408496,
-0.07781358,
-0.0891506,
0.20719333,
0.2040493,
0.1763212,
0.034379724,
-0.078684986,
0.28080937,
0.04311124,
-0.04532502,
0.19563664,
0.595802,
-0.15693879,
-0.14248706,
0.18245037,
-0.123990506,
-0.19814754,
-0.0613764,
-0.12082149,
-0.07223009,
-0.052863706,
-0.3661343,
-0.10761902,
0.28638357,
0.23888941,
0.09353394,
-0.4305921,
-0.08858792,
0.023758894,
0.06500651,
-0.17294382,
-0.072105184,
-0.3143307,
0.057139,
-0.010295554,
0.039574932,
0.043047,
-0.052763347,
-0.061432954,
-0.030338144,
-0.04058705,
-0.42917666,
-0.43276587,
0.12098603,
-0.004647718,
-0.011884214,
0.31994647,
-0.15624382,
0.11305816,
-0.08170426,
0.017201256,
0.35487244,
-0.4492865,
-0.19502066,
0.018700235,
-0.061803102,
-0.25421762,
-0.19481687,
-0.12328329,
0.27426746,
-0.01276783,
-0.18617594,
-0.32053888,
-0.5120893,
0.05849127,
-0.008975123,
-0.009849837,
0.14785235,
-0.0031974057,
-0.039572194,
-0.33591765,
0.31418136,
0.41817856,
0.23747568,
-0.19398403,
0.25627524,
-0.33327788,
-0.44988903,
-0.94763416,
-0.05110136,
-0.32584488,
-0.042224083,
0.2731311,
-0.59926623,
-0.02424404,
0.08824885,
-0.0008613027,
-0.0027585253,
0.2590454,
0.20199284,
-0.378077,
0.07752672,
-0.3388537,
-0.07272245,
0.40769467,
-0.08468271,
-0.21830174,
-0.038886096,
-0.16205023,
-0.14312112,
-0.504149,
-0.12880698,
0.11980596,
0.15622881,
-0.13051625,
-0.007843395,
-0.079669796,
-0.402881,
0.035653356,
0.3062788,
0.08366931,
-0.30287334,
-0.028090753,
-0.15639766,
0.023358123,
-0.50044566,
-0.5717122,
0.075837,
-0.04087507,
-0.73528636,
-0.44413915,
0.25756866,
-0.093808115,
-0.6972163,
0.07280586,
-0.010739154,
-0.19189982,
-0.08269956,
-0.048291676,
-0.29533014,
-0.31751415,
0.1482306,
-0.15407902,
-0.15509015,
0.25352135,
-0.03630319,
-0.1796308,
-0.095384784,
0.46019167,
-0.01863263,
-0.50883627,
-0.36285302,
-0.21824184,
0.039779656,
-0.49541947,
-0.024153568,
0.035351913,
-0.3387783,
-0.118699595,
0.28031752,
-0.0828941,
-0.20958868,
-0.24184799,
0.35992625,
-0.35493645,
-0.036524303,
-0.28880167,
-0.04713689,
0.3529243,
-0.07486704,
-0.30696568,
-0.003030831,
0.4130864,
-0.009641822,
-0.112939365,
-0.035726555,
-0.18014261,
-0.025021767,
0.063444786,
0.11318557,
-0.7170138,
-0.15755977,
-0.015201236,
0.030381978,
0.10336424,
-0.38155642,
-0.05587455,
-0.026905933,
-0.03874083,
0.19859454,
-0.4793763,
0.26602057,
-0.018427568,
-0.060762342,
-0.44647774,
-0.27400503,
-0.16244489,
-0.3701738,
0.13539769,
0.08630438,
-0.22700012,
-0.4074819,
0.014868339,
-0.29958263,
-0.30574942,
0.26060128,
-0.12713009,
0.21502504,
0.008732608,
0.2846868,
0.39646667,
0.22714141,
0.25787005,
0.16818446,
-0.30319837,
-0.2996541,
-0.11960533,
-0.06203154,
-0.07147752,
-0.050545786,
-0.07739443,
-0.67589957,
-0.14192465,
-0.0046122787,
0.031520404,
0.06953961,
0.14951271,
0.51952,
-0.43682706,
0.071061134,
-0.38751444,
0.0033849145,
0.30456862,
0.029321764,
-0.179827,
0.01164759,
0.37478617,
-0.29714382,
-0.6688108,
-0.100245915,
-0.06695188,
0.16328181,
0.17486201,
-0.08224162,
-0.21593139,
-0.29801217,
-0.0102199195,
0.3063888,
-0.024915446,
-0.24659893,
0.011110323,
-0.06475909,
-0.032243736,
0.05928,
-0.8877497,
-0.22004908,
-0.082102574,
-0.32648185,
0.15204032,
0.4718079,
-0.030937156,
0.017921899,
0.2475123,
-0.0037706904,
-0.28929046,
0.08385395,
-0.023702675,
0.2673893,
0.20721295,
-0.06290834,
-0.100236274,
-0.6383101,
-0.39574456,
0.15564218,
-0.058226228,
0.38273376,
-0.17413439,
0.08427099,
-0.061084367,
-0.13137624,
0.15189433,
0.036631513,
-0.53626776,
-0.014943363,
0.35403183,
0.36323088,
0.04801092,
0.13664587,
-0.076626666,
-0.003944477,
-0.24900562,
-0.015437709,
0.16020212,
-0.023624053,
0.274305,
-0.05828445,
-0.19569525,
-0.02491285,
-0.14133112,
0.061467174,
-0.47594488,
0.14457648,
0.017288448,
-0.039440777,
-0.057026833,
-0.05260119,
-0.58241856,
-0.18520555,
0.13480572,
-0.33627564,
-0.05039622,
0.13855936,
0.10874394,
0.19735721,
0.023066575,
-0.053982988,
-0.08114677,
-0.110902496,
-0.17927867,
0.40397158,
-0.092165545,
-0.058735073,
0.17999052,
0.046528377,
-0.15447627,
0.14129771,
0.6234517,
0.43970576,
-0.13683744,
0.23605876,
0.010283611,
-0.21186657,
-0.5384893,
0.082774505,
0.18000585,
0.07946229,
-0.05879867,
0.5623872,
-0.07322247,
-0.19219416,
0.39605185,
0.42080623,
0.03419559,
-0.20160176,
0.19211909,
0.05784761,
-0.3340617,
-0.0147748515,
0.43247607,
-0.2588427,
-0.07184287,
-0.008772209,
0.0033449763,
0.050142374,
-0.27465695,
0.13267626,
-0.323187,
-0.07356978,
-0.3886283,
-0.08495028,
0.050701242,
0.02681721,
-0.20557526,
-0.12243299,
0.3560484,
0.04225,
0.015518204,
0.043207027,
0.101311065,
-0.439422,
-0.050656438,
0.13690099,
-0.1575785,
-0.05586204,
0.033032827,
-0.092030086,
0.4237443,
-0.16107154,
-0.05341354,
-0.03829301,
0.032613076,
-0.11970449,
0.07222729,
0.103987545,
0.014546906,
-0.56602484,
-0.2286651,
0.19663085,
-0.11827565,
-0.036833014,
0.30144876,
-0.09975551,
-0.42855582,
-0.36667156,
-0.038686555,
0.14749663,
0.08684451,
-0.83009315,
-0.14385645,
-0.1911306,
-0.58865124,
0.25996312,
-0.057636295,
0.07892241,
-0.3641785,
0.32711262,
-0.09134281,
-0.12741932,
-0.14810342,
0.023646155,
-0.39166188,
-0.0881175,
0.2583151,
-0.33519933,
-0.01872072,
0.25431195,
0.04982112,
-0.29223377,
-0.11751336,
-0.28952855,
-0.0427257,
-0.074968725,
-0.15748958,
-0.068426624,
-0.1335014,
-0.11478941,
-0.008300543,
-0.094274886,
0.047544163,
-0.096170604,
0.19995877,
-0.12918408,
0.019373821,
-0.23803869,
-0.31087312,
-0.066568695,
-0.22386636,
-0.52124006,
-0.06388238,
-0.41495425,
-0.106118985,
0.09395698,
-0.063662216,
-0.035996225,
0.027506363,
-0.110382326,
-0.3920614,
0.22179472,
-0.07259618,
-0.18021873,
-0.19580165,
0.11820358,
-0.14901522,
0.3677032,
0.46785495,
0.21255681,
-0.19182727,
0.2974275,
-0.027815025,
-0.19210835,
-0.01478865,
-0.13629544,
0.37457633,
-0.001805837,
-0.29035345,
0.02372256,
0.09118091,
-0.6285401,
0.079556145,
0.38912612,
-0.03281771,
0.03110225,
0.29443297,
0.012133581,
-0.4630695,
-0.051489133,
0.3178966,
0.06324484,
-0.048471346,
0.20753504,
-0.05576028,
0.3161566,
-0.15200272,
-0.20238715,
0.052970856,
0.049162615,
-0.2020227,
0.003230735,
-0.44557783,
-0.034680907,
-0.4043245,
0.046337567,
-0.16654691,
-0.023098549,
0.27828747,
-0.016516807,
0.12498625,
-0.21234745,
0.16525435,
0.2067207,
-0.20720245,
-0.16605565,
-0.020736545,
-0.3361908,
0.37067372,
0.04664281,
-0.13211487,
-0.062046748,
-0.012753228,
0.051766936,
0.054369092,
-0.3287019,
0.024643766,
0.368942,
0.3039897,
-0.21255879,
-0.026753144,
0.21034941,
-0.032209918,
-0.2921399,
-0.2429171,
-0.20912877,
-0.04769189,
0.09790222,
0.18258272,
0.089959495,
0.18635756,
-0.4003777,
-0.3410907,
0.031454686,
-0.26044083,
