#ifndef CONV2D_H
#define CONV2D_H

// Pesos para la capa conv2d
float conv2d_weights[] = {
-0.45930746,
-0.23003605,
0.3155831,
0.03717973,
-0.20258768,
0.22723162,
0.17809641,
-0.03404412,
0.17215712,
-0.0832999,
0.080032595,
0.24281213,
-0.06150884,
-0.028952887,
0.11698069,
-0.043670345,
-0.29495785,
-0.07053564,
0.25569916,
0.15408023,
-0.013614827,
-0.56066555,
-0.17138201,
-0.3243726,
0.31492978,
-0.05658526,
-0.35579962,
0.054399688,
0.19585527,
0.5289219,
-0.14717624,
-0.33798987,
0.25888443,
0.14981085,
0.5007455,
0.33006224,
-0.35739765,
0.31291035,
0.12934332,
-0.1716063,
-0.32631063,
-0.07806152,
-0.35779217,
0.45929974,
-0.16267286,
0.06875087,
-0.5028923,
0.14453997,
0.48969755,
0.12416567,
-0.0766636,
-0.35783696,
0.45015064,
0.01840699,
-0.21761535,
0.36949432,
-0.2699458,
-0.45283452,
-0.2611154,
0.15339062,
0.0031410074,
-0.12896147,
-0.28744137,
0.053743392,
-0.050787386,
-0.11682165,
0.1817309,
0.2794319,
-0.44765234,
-0.20541152,
0.4131147,
-0.0070615993,
-0.2872005,
-0.39431253,
0.034764525,
-0.18708494,
0.20500667,
-0.21329008,
-0.14669412,
-0.15297453,
-0.01344475,
-0.2785927,
-0.27307633,
-0.010798283,
0.22547087,
0.032245625,
-0.20106144,
-0.0055177924,
0.21699332,
0.22157025,
-0.46384248,
0.0049435575,
-0.32850182,
-0.118938066,
-0.15270922,
0.028686102,
0.28341302,
-0.19623879,
0.05894316,
0.2861343,
-0.050443508,
0.11878301,
-0.4244482,
0.24186334,
0.25383332,
0.034608964,
-0.23990084,
-0.30231452,
0.22225013,
-0.12760806,
-0.13472421,
0.40497327,
-0.101528384,
-0.060815446,
0.0034753093,
-0.22587606,
-0.5051409,
-0.38734913,
-0.24949636,
-0.26371837,
0.26717153,
0.12883633,
-0.006545043,
0.13376267,
0.33838153,
-0.4182372,
-0.2698441,
0.23107593,
0.11032615,
0.18077575,
-0.06784917,
-0.21852033,
-0.111770526,
0.053161986,
-0.562454,
-0.4711973,
-0.19972847,
0.25452483,
0.6726898,
0.10580341,
-0.37815082,
0.041069575,
0.0895403,
-0.15289995,
-0.4968292,
0.25740096,
-0.3052361,
-0.45884353,
0.13119279,
0.28529468,
-0.19352615,
0.4262417,
-0.3986312,
0.118450195,
0.23219375,
0.17237219,
-0.08877233,
-0.07479642,
-0.37636012,
-0.25426638,
-0.093999475,
-0.08757825,
-0.06823156,
-0.17509453,
0.055111773,
-0.4117503,
-0.37502736,
0.253883,
-0.42027536,
-0.4607751,
-0.12623158,
-0.33178076,
-0.04546837,
-0.38069355,
-0.23392597,
-0.13362458,
0.028558593,
0.042178843,
0.18925619,
0.23653516,
0.34306824,
0.27647042,
-0.1291949,
-0.204196,
0.16580223,
-0.024539487,
0.38264725,
0.080721006,
-0.29559395,
-0.088262185,
0.22370028,
-0.28499517,
0.3296872,
-0.09221454,
-0.31229758,
-0.44022465,
0.298302,
-0.020284325,
0.21749456,
0.3887558,
0.14509517,
0.26150772,
0.051996022,
-0.33036193,
0.19294669,
-0.03530271,
-0.17414899,
-0.5489908,
0.11419777,
-0.48220345,
-0.37842068,
-0.17234561,
-0.44439164,
-0.2806098,
-0.34114605,
-0.22011134,
-0.08724608,
-0.20254537,
-0.07938851,
-0.10254632,
0.46619236,
-0.21156164,
-0.3028024,
-0.009829437,
-0.35383603,
0.11537366,
-0.44092464,
-0.17692985,
0.40509403,
0.026638284,
0.08625467,
-0.43573546,
0.0055743246,
0.55557245,
-0.23873807,
-0.24548328,
-0.057662368,
0.11651888,
-0.12237123,
0.27262348,
0.09035488,
0.106467925,
0.37195718,
0.1950006,
-0.3267943,
0.35001013,
-0.09629225,
0.35752192,
-0.37106887,
0.20389922,
-0.13747708,
0.057687834,
-0.28482354,
-0.09536498,
0.0049533,
0.057651713,
-0.2115718,
-0.14165577,
-0.32264984,
-0.041433793,
0.27129504,
-0.32091027,
-0.022894708,
0.095270105,
-0.36083427,
-0.09347758,
-0.086480156,
-0.3448081,
-0.2604421,
0.4873289,
0.034841035,
0.076207064,
-0.046926748,
0.118950754,
-0.064493,
0.41444254,
0.1301686,
0.26604325,
-0.29772094,
-0.2181228,
-0.11886529,
-0.37391317,
-0.17001545,
0.020978957,
-0.08558363,
0.09936809,
0.31832975,
0.19728431
};

// Sesgos para la capa conv2d
float conv2d_biases[] = {
-0.0062928693,
-0.08177344,
0.025181646,
0.0114645185,
0.0037783785,
0.047377758,
-0.06736254,
0.019073833,
0.16539076,
0.018460741,
0.025331045,
0.07717052,
0.020494465,
-0.0010042434,
-0.06308269,
-0.015051809,
0.007320754,
-0.06963915,
-0.030791942,
0.016667677,
-0.0077801086,
0.013393363,
0.20244324,
0.009912938,
0.036561906,
-0.01569736,
0.005172198,
-0.2887881,
0.010959455,
0.06801499,
0.16765538,
-0.035885707
};

#endif // CONV2D_H
