#ifndef CONV2D_2_H
#define CONV2D_2_H

// Pesos para la capa conv2d_2
float conv2d_2_weights[] = {
-0.038274284,
0.028441507,
0.018459653,
0.0077115498,
0.056311566,
-0.028220262,
0.041098986,
-0.019001607,
0.005846176,
-0.04892713,
0.007436142,
0.005303337,
-0.0018480506,
0.051464383,
-0.011482853,
0.03372332,
0.004273207,
-0.053779878,
-0.0411442,
0.04244858,
-0.03310257,
0.024507776,
0.04760916,
-0.024039429,
0.04213973,
0.0042679,
0.05052719,
-0.047460053,
-0.009782823,
0.03778415,
-0.034727085,
-0.029436547,
-0.018331695,
0.0030636343,
0.04172149,
0.010954916,
-0.058575787,
-0.032931384,
-0.023364903,
0.04946925,
-0.017380629,
0.004409981,
0.04940718,
0.05471892,
0.019510401,
0.056397207,
0.02311079,
-0.046659254,
-0.027780563,
-0.0040689134,
-0.06021736,
-0.0330605,
0.04493642,
0.028312495,
0.031377222,
-0.025077466,
0.058709905,
-0.033919986,
0.020632925,
-0.013172378,
-0.052553862,
-0.037841406,
0.04724622,
-0.052461382,
-0.04509101,
-0.044378035,
0.037697792,
-0.005153237,
-0.06205436,
0.011308077,
-0.05400724,
0.00031473738,
-0.052359886,
0.006819073,
0.04332938,
-0.056887586,
-0.0057372916,
-0.042811807,
-0.029555228,
-0.018909855,
0.031842623,
0.014240465,
0.0018590982,
0.04127144,
0.05763252,
0.01105328,
-0.045915987,
0.04234306,
-0.007046818,
-0.041399922,
0.017298445,
-0.011309103,
-0.032088604,
-0.05546193,
0.05005464,
-0.04820061,
0.06264826,
-0.03374408,
-0.053893924,
0.056827784,
-0.043686546,
0.010514814,
0.015278556,
0.004344279,
0.009721451,
-0.04884051,
-0.016030483,
-0.017437428,
0.016378503,
-0.028152581,
-0.049828645,
-0.0030371821,
0.061248455,
0.003782219,
-0.027875978,
-0.017958056,
0.015642157,
0.0091951825,
0.022003286,
0.031105233,
0.049771786,
0.011135027,
-0.038425285,
0.05056732,
-0.030224398,
0.05376262,
-0.05920882,
0.026608845,
-0.37744114,
-0.0395525,
-0.34475005,
-0.12032515,
0.27930707,
-0.12016642,
0.3971004,
-0.11879629,
0.014786967,
-0.03668217,
-0.42124772,
-0.53940415,
-0.022886597,
-0.18855645,
0.5073326,
-0.103719585,
-0.2816716,
0.07729633,
-0.35007268,
-0.5173881,
-0.16526373,
0.023480788,
-0.03178781,
-0.4320108,
-0.1396274,
-0.3669703,
0.048012305,
0.062252082,
0.23857225,
-0.031363104,
0.0143931955,
-0.23051623,
-0.027182914,
-0.14722833,
-0.36446926,
-0.081581496,
0.013978713,
-0.3249071,
-0.049304985,
-0.046982653,
0.013667283,
-0.18898578,
0.21070646,
-0.037397057,
-0.07812983,
-0.12289226,
-0.18936247,
-0.44189987,
0.1848693,
0.39360404,
0.024630528,
0.016271478,
-0.114843704,
-0.111680046,
0.22407171,
0.057637844,
-0.022451783,
0.13607556,
0.011440018,
-0.47130436,
-0.4571166,
-0.044341393,
0.146488,
-0.16865847,
-0.19187082,
-0.016977206,
-0.56427515,
0.05660642,
0.00029577955,
0.020940261,
-0.2809985,
-0.4701567,
-0.10990476,
0.09948367,
-0.1695018,
0.1586808,
-0.021306219,
-0.27048826,
0.15383072,
0.0019618745,
-0.15289286,
0.15135647,
0.06958556,
0.22153005,
0.012506496,
-0.0797824,
-0.38811964,
-0.06427414,
-0.039100084,
-0.049207352,
0.016088597,
-0.013521831,
-0.08575526,
0.35530767,
0.021949723,
-0.13756526,
0.112772286,
-0.336454,
-0.011312187,
0.07563124,
0.08311957,
-0.012925214,
-0.1250327,
-0.09176304,
-0.29472855,
-0.050056495,
0.036330033,
0.25487366,
0.026354425,
-0.039100457,
0.29144838,
-0.32280868,
-0.05868495,
-0.0055872994,
-0.1834433,
-0.074298844,
0.2609635,
-0.08488761,
-0.30550224,
0.0026599297,
0.03272891,
-0.009263831,
0.011854298,
-0.7890113,
0.0381348,
-0.15813924,
-0.20070098,
-0.2067036,
-0.14735357,
0.17191093,
0.118053146,
0.3584992,
-0.24965174,
0.33999485,
-0.1825032,
-0.12733372,
-0.055355705,
-0.28370067,
-0.14621124,
-0.51735675,
-0.062103942,
0.088767536,
0.033653937,
-0.06022067,
-0.3260921,
-0.0061290096,
0.25743493,
-0.29547116,
0.24377654,
-0.053463347,
-0.039786372,
-0.35627013,
-0.12825242,
0.057472635,
-0.21490021,
-0.16388248,
0.30343226,
0.0166183,
-0.008438882,
-0.25321907,
0.27671346,
0.09814608,
0.24717358,
0.30186242,
0.19974759,
-0.20282723,
-0.0016024029,
-0.09107334,
-0.07027385,
0.24660075,
-0.39181918,
-0.053492155,
-0.05281293,
-0.08727844,
0.1141252,
-0.21825546,
0.1440994,
-0.069379725,
-0.091071464,
-0.010236905,
-0.11578355,
-0.20062712,
0.053899255,
-0.68547326,
-0.17044678,
0.19915286,
0.11806431,
-0.07947753,
-0.23404366,
-0.033148143,
0.2767957,
-0.57647383,
0.37292397,
-0.060149048,
0.02256279,
-0.031722676,
0.09035276,
-0.10062141,
-0.02322522,
-0.027528243,
-0.00069527543,
-0.27498975,
-0.23461536,
-0.8979742,
-0.020502316,
-0.149862,
0.15656304,
0.021536373,
-0.26567274,
-0.4855229,
0.017363645,
0.19202426,
0.050625592,
0.10703273,
0.05187883,
-0.06316509,
-0.3262007,
0.0026455747,
-0.18834831,
0.035660814,
-0.100351214,
-0.008499324,
-0.10073882,
0.027882576,
0.11190192,
-0.12073269,
-0.04086102,
0.016887892,
0.0958576,
-0.00019365318,
-0.4312909,
-0.05527627,
-0.32618487,
-0.04590296,
-0.18816455,
-0.18869543,
-0.19644469,
-0.020476304,
-0.12822925,
0.28445524,
0.013629261,
-0.18724918,
-0.042504054,
-0.12432957,
0.5064337,
-0.40836945,
-0.34763706,
0.24731478,
-0.06396131,
-0.004461005,
0.0060100993,
0.06750763,
0.1564263,
0.06945151,
-0.043102156,
0.0076857843,
-0.12788981,
0.12405552,
-0.06581354,
0.14896415,
0.14368354,
-0.19336131,
0.47599736,
-0.014340915,
-0.045991845,
-0.051876236,
-0.10157716,
-0.06611821,
-0.024861762,
0.19169448,
-0.115235485,
-0.22615005,
0.24549529,
-0.10452836,
0.1336116,
-0.124892645,
0.095532246,
-0.052863546,
-0.0032903685,
-0.2106982,
-0.04533647,
0.05263782,
-0.3818421,
-0.05219174,
-0.11221706,
-0.07521659,
-0.11094357,
-0.21085678,
0.07091541,
-0.16589239,
0.22806206,
0.03489724,
0.029431984,
-0.48907855,
0.0042963903,
-0.06940426,
-0.04755469,
0.05448726,
-0.2620867,
-0.016611796,
-0.11840161,
-0.011330094,
-0.16926412,
-0.38489303,
-0.21118563,
0.10497205,
-0.036697976,
-0.029762765,
-0.03394093,
-0.18101706,
-0.04738316,
0.18786144,
-0.1270515,
-0.03742405,
-0.14226614,
0.18645269,
-0.09605624,
-0.076118656,
0.029145861,
-0.32588518,
-0.06269899,
-0.031975944,
-0.2842213,
-0.14562589,
-0.091600664,
-0.031138917,
-0.05498163,
-0.16035774,
0.15761763,
-0.2886835,
-0.52078336,
-0.3808727,
0.00037539605,
-0.011764317,
0.12913272,
-0.012665197,
-0.30116665,
-0.27464616,
0.013364023,
-0.07697631,
-0.0278076,
0.044222638,
0.19212666,
-0.04970026,
-0.12109479,
-0.0084337955,
-0.23658681,
-0.11137054,
-0.0123945745,
-0.4320488,
-0.0074909856,
-0.113627225,
0.2589292,
0.26278466,
-0.046942193,
-0.09777191,
-0.2718332,
-0.02498974,
-0.32563058,
-0.09615871,
0.07049524,
-0.11291282,
0.031065058,
-0.056060825,
-0.08895837,
0.029264819,
-0.8864844,
0.10219122,
0.03600797,
0.40175545,
0.21781349,
0.012603082,
0.16789581,
-0.3843363,
0.10036896,
0.19302396,
0.018101377,
-0.009435021,
-0.39584953,
-0.14861709,
0.17408831,
0.18373829,
-0.28877267,
-0.022267403,
0.049368702,
-0.025047319,
-0.03997984,
0.002051657,
-0.03340761,
-0.018824637,
-0.05877962,
0.013401375,
0.0050583463,
-0.052788846,
0.06530699,
0.011305496,
0.04139277,
0.025939383,
-0.021472404,
0.012023948,
0.029145852,
-0.040149864,
-0.0009976053,
0.032131094,
0.01274379,
0.030542416,
0.025602605,
0.025887733,
-0.056822825,
0.016192853,
-0.012956427,
0.012998146,
0.07581776,
0.0375229,
0.05731484,
-0.030843735,
0.00046548893,
0.02573431,
0.04635445,
0.03499987,
0.039552364,
0.015947957,
0.008670008,
-0.02100327,
-0.025812028,
-0.026813403,
-0.045646053,
0.036237974,
-0.013594177,
0.02734666,
-0.097125426,
0.01973415,
0.0053532296,
0.012796141,
-0.052109223,
0.05346668,
0.024474949,
-0.033563085,
-0.004292603,
0.03325359,
0.06746255,
-0.01589581,
0.016427033,
-0.035526153,
0.030755412,
-0.036975138,
0.04032775,
0.030374678,
0.009353388,
0.036800105,
-0.019593446,
0.013746339,
0.062015764,
-0.041634627,
-0.05068573,
-0.042890023,
0.012150469,
-0.013826175,
-0.0022228276,
-0.044763237,
-0.062444434,
0.00043143486,
0.045885555,
0.04186084,
-0.052993476,
0.021177607,
-0.04538492,
0.061169267,
0.03975976,
-0.011040976,
0.02393172,
-0.03833962,
0.070747875,
0.005074994,
-0.012889097,
-0.055951666,
-0.04396937,
0.069452904,
0.060835253,
0.004228031,
0.015721226,
0.022580143,
-0.03915742,
-0.06797593,
0.05682174,
-0.008937527,
0.048737317,
0.013211955,
-0.079096645,
0.01019255,
0.030994587,
0.004118408,
-0.014054013,
-0.049728606,
-0.008424698,
-0.10983615,
-0.044694994,
0.07029995,
0.01649306,
-0.036903344,
0.027669057,
0.007157656,
-0.024502443,
0.005667401,
0.016688956,
0.013449345,
-0.058619685,
-0.07564203,
-0.017432027,
0.039208274,
0.081594005,
0.03408802,
0.030476542,
0.26852393,
-0.105195895,
-0.23767379,
0.38355625,
0.14264193,
0.33443898,
0.0989385,
-0.07075892,
0.007691321,
-0.12629904,
-0.24185482,
0.015843695,
-0.12505348,
0.17208165,
0.015296284,
-0.122912794,
0.03496037,
-0.34137103,
-0.18406773,
0.07455931,
-0.032785073,
0.011977172,
-0.51901305,
-0.13425036,
-0.17293593,
0.38092,
0.029894272,
0.12193832,
0.0068841777,
-0.05885008,
-0.26403025,
-0.15053499,
-0.7813442,
-0.3333081,
-0.1367707,
-0.26494077,
0.1155261,
-0.00066648435,
0.020708561,
-0.03674884,
-0.5597348,
-0.17401671,
-0.0063275034,
-0.01282378,
-0.040613577,
0.06321883,
-0.5420301,
-0.03229279,
-0.036561314,
0.029282024,
-0.084103435,
-0.053308718,
-0.14168887,
-0.07600805,
0.1168076,
-0.15168804,
0.15010597,
-0.31679547,
0.061371416,
0.12619334,
-0.08169356,
-0.0705075,
-0.1679312,
-0.11957991,
-0.016029116,
-0.20056781,
0.31643307,
0.16270827,
-0.11918928,
-0.01751925,
0.11352855,
0.09939195,
0.18404114,
-0.19374236,
-0.3083,
-0.13074991,
-0.052418333,
0.21810651,
-0.006737862,
-0.27042326,
0.09263409,
0.049770396,
-0.09527702,
-0.011951014,
0.029975682,
-0.49879664,
-0.028261522,
-0.42017245,
0.020870464,
0.06637945,
-0.0087431,
-0.052859023,
0.30812368,
0.064076625,
-0.032048993,
-0.5217491,
-0.39392996,
-0.009311353,
-0.16247717,
-0.2577567,
-0.28979418,
-0.3837303,
-0.038153157,
-0.022534732,
0.0192953,
-0.2559961,
-0.2418089,
-0.8448979,
-0.043662947,
0.35047847,
0.1716833,
-0.03460401,
0.26551476,
-0.4151305,
-0.27047515,
-0.049731817,
-0.27059597,
-0.14675179,
0.29033828,
-0.007744652,
0.04024499,
-0.3661404,
-0.13048919,
-0.46213904,
-0.042969592,
-0.16133884,
-0.23820716,
0.27418324,
-0.43470925,
-0.28026813,
-0.19308257,
-0.24463472,
0.068182155,
0.09729731,
-0.009241953,
-0.04041226,
-0.2527931,
-0.04119264,
-0.37034258,
-0.020289494,
-0.17535178,
-0.030878972,
-0.053334147,
-0.16488105,
0.13888197,
0.23780346,
-0.09012864,
0.0062481463,
-0.054287646,
0.026306046,
0.17428419,
0.059443872,
0.12151863,
0.51663685,
-0.18139032,
-0.02808224,
-0.065268174,
-0.022718877,
-0.06209172,
0.06392628,
-0.6806457,
-0.023215326,
0.22880393,
-0.01304791,
0.26986375,
-0.029224925,
-0.035681453,
-0.07556596,
-0.5057189,
0.08228823,
-0.01372131,
-0.11841627,
0.046128698,
-0.11099194,
-0.21367599,
-0.14002411,
-0.088129655,
-0.006870695,
-0.054299507,
-0.056416992,
0.093952805,
-0.38725078,
0.077259466,
-0.21226794,
-0.40095273,
-0.109903276,
0.08133552,
0.1421755,
-0.054674216,
0.15792502,
0.20965417,
0.4637785,
-0.06868797,
-0.09884815,
-0.16300638,
-0.19830656,
-0.05404962,
-0.064986095,
0.3934157,
0.20158346,
0.3065579,
-0.46872061,
-0.04844199,
0.009846214,
0.06190834,
-0.7485301,
-0.046669412,
-0.019147761,
-0.040809404,
-0.02473229,
-0.14121552,
0.052747224,
0.14593591,
0.12908927,
-0.0017500508,
-0.298972,
-0.022279488,
0.11758916,
0.03832361,
-0.10630411,
0.04175011,
-0.25398907,
-0.03920639,
-0.3411488,
0.2928227,
-0.0027603945,
0.30196083,
0.37312427,
0.087445796,
-0.2787361,
-0.095433995,
0.56013846,
-0.06807923,
0.0828263,
-0.24036843,
-0.13858266,
-0.011139873,
0.13289927,
-0.019142099,
0.0154505735,
0.36078382,
-0.008573794,
-0.45121443,
-0.124897875,
0.06256139,
-0.01899961,
-0.5304443,
-0.040982448,
-0.040136836,
-0.22829737,
-0.08888755,
0.21972984,
0.20830783,
-0.6885861,
0.016527938,
-0.13946916,
-0.17662719,
-0.17973346,
-0.17695956,
0.10974289,
-0.23428182,
0.1943504,
-0.2445164,
0.036199875,
-0.060741384,
-0.27874014,
-0.0071075344,
-0.043287836,
-0.10722784,
-0.103135675,
0.060309824,
-0.3762794,
-0.04543865,
-0.73404694,
-0.16770127,
-0.37133858,
-0.021717127,
-0.014307998,
0.079544626,
-0.07135398,
-0.19147132,
0.15017045,
-0.20712736,
0.1195277,
0.010137481,
-0.052796483,
0.10420547,
-0.20924978,
-0.1885658,
-0.018919032,
-0.0059320126,
-0.20261061,
-0.030414071,
-0.032182842,
-0.06277784,
0.009194494,
0.008491388,
0.09021388,
-0.00029112905,
-0.022050258,
-0.043834914,
-0.28156787,
0.020051429,
0.065478794,
-0.56236804,
-0.03523503,
0.019132847,
-0.06824881,
0.12043095,
0.22998622,
0.28682727,
0.067741424,
-0.19846895,
0.10009617,
0.44102675,
-0.12745921,
-0.00020247366,
0.059354573,
-0.1377877,
-0.38944316,
0.015462733,
-0.016127307,
-0.41161862,
0.011826299,
-0.11205987,
0.3858288,
-0.14561878,
-0.017847003,
-0.28339085,
-0.26213765,
0.03218932,
-0.0609342,
-0.20726405,
-0.013923894,
-0.050160255,
-0.16388951,
-0.21957488,
-0.055741664,
0.029913153,
-0.124674484,
-0.13339193,
-0.5023839,
0.018741015,
-0.019008853,
0.0058198622,
-0.09452601,
1.7084994e-05,
-0.04000676,
-0.07001266,
0.12904982,
-0.1299571,
-0.092444986,
0.21903732,
-0.055248,
-0.30608842,
0.15389137,
0.12100194,
-0.38990435,
-0.05167049,
0.101572864,
0.049925998,
-0.012770223,
0.28559783,
-0.15743554,
0.012112957,
0.22833748,
-0.22708873,
0.123060085,
-0.09370637,
-0.084346995,
-0.2840849,
-0.06908424,
-0.29075262,
0.09304678,
-0.05963487,
-0.060660142,
-0.1254809,
-0.1227849,
-0.455907,
0.058768064,
-0.46510738,
-0.00052353437,
-0.40953705,
-0.03566002,
-0.0055567985,
-0.022433177,
-0.016921189,
0.07760661,
0.0249803,
-0.10996571,
0.0072703846,
0.037176915,
-0.013556449,
0.06346193,
-0.03880087,
0.029777596,
-0.05224511,
-0.11363728,
-0.04353497,
-0.004737634,
-0.061709147,
0.019217556,
-0.06201878,
0.024250189,
-0.033173233,
-0.018544916,
0.004252775,
-0.043519653,
-0.0262466,
-0.07800943,
0.029068124,
0.014315234,
0.02938652,
0.028479286,
0.07214374,
0.024783576,
-0.022609562,
-0.013734098,
0.040567383,
0.027491387,
0.03882405,
0.054167457,
0.009043909,
0.047221974,
-0.056047358,
0.0817031,
-0.02307173,
0.023883862,
-0.064785264,
0.11271702,
0.032524373,
0.0359348,
0.0135151325,
-0.020849384,
-0.044604503,
-0.052611135,
0.024668772,
0.021707086,
-0.10385185,
-0.0061493833,
-0.03368365,
0.056546956,
-0.034113,
0.048854098,
0.024878103,
0.020994708,
0.13985379,
0.18737419,
0.023945242,
0.047031473,
-0.051656637,
0.037094396,
-0.060794726,
-0.041458197,
0.015480763,
-0.035952788,
-0.003291334,
0.018882444,
0.00050918874,
0.039376993,
-0.049919542,
-0.07533547,
-0.05445547,
-0.002402677,
-0.014083117,
-0.010025526,
0.07917383,
0.027064871,
0.030423814,
-0.014537387,
0.055281747,
0.011368342,
-0.027445486,
0.035445526,
0.007684339,
-0.038883757,
0.080423094,
0.05202173,
0.016594507,
0.09503518,
0.049460173,
-0.038869105,
-0.010965156,
0.0029419668,
0.06015311,
-0.028070254,
0.013631683,
0.030585717,
-0.045008946,
0.02718303,
-0.05832849,
-0.03392253,
0.047500573,
-0.060658813,
-0.006919045,
0.0009292343,
0.02263825,
-0.044301085,
-0.023409437,
-0.0035550294,
-0.0045228284,
0.046801146,
-0.046048082,
0.025283553,
0.016365228,
-0.0050933906,
0.04774094,
-0.008199951,
0.0568148,
0.056998614,
0.025229987,
0.061783593,
-0.10839176,
-0.099628024,
-0.1381743,
-0.17091615,
0.28835052,
-0.2812584,
-0.010802314,
-0.01802424,
0.021473834,
-0.0128911175,
0.21681033,
-0.10019066,
0.03135451,
-0.26762608,
-0.053119596,
-0.41470078,
0.018126568,
0.12689224,
-0.3245281,
0.060287654,
-0.04401848,
-0.032569915,
-0.39292687,
-0.16051346,
-0.2977197,
-0.06686646,
-0.0022534637,
0.12771706,
-0.030253366,
-0.05575478,
-0.5425304,
-0.5060508,
-0.06064704,
-0.21275613,
-0.08184693,
-0.17340589,
-0.18450788,
0.014439645,
-0.05643604,
0.027813,
-0.11062187,
-0.13954973,
-0.037475757,
0.043524742,
-0.0036839112,
-0.42403743,
-0.22650744,
-0.037995152,
-0.15202527,
0.017158981,
0.041891906,
0.052536685,
-0.30175543,
0.20752841,
0.007295062,
-0.23153545,
0.2110517,
0.15759093,
0.12961029,
-0.07802082,
-0.088431165,
-0.26146588,
0.004054126,
0.03912827,
-0.030408705,
0.14043048,
-0.05919249,
-0.15051158,
0.01762133,
-0.17119235,
0.02409812,
-0.4639668,
-0.08346176,
0.12291056,
-0.24601829,
0.024622805,
-0.19959383,
-0.01980809,
-0.05691387,
-0.10448075,
-0.108519934,
-0.0077685746,
-0.06740141,
-0.047494143,
-0.10350731,
-0.18845615,
0.012916841,
-0.8291976,
-0.05058272,
0.068793066,
-0.027144257,
-0.04091252,
0.08048427,
-0.12186355,
-0.08587429,
-0.45870894,
-0.14133298,
-0.05698735,
-0.17310952,
-0.27632296,
-0.099194005,
-0.28667638,
0.031971022,
-0.18821593,
-0.056068312,
-0.27366287,
-0.5562903,
0.22239797,
0.026996778,
-0.31979224,
-0.40130404,
-0.061881673,
0.15584569,
-0.02848503,
0.023306198,
0.104195975,
-0.14735597,
-0.121143304,
0.023026522,
0.01264387,
0.04425949,
-0.065851286,
-0.43929136,
0.15390456,
-0.075882964,
-0.38173544,
-0.12906958,
0.0077498793,
-0.48424107,
-0.3925955,
0.1603559,
0.1825052,
-0.10233567,
0.108849704,
-0.14621466,
-0.04700194,
-0.09689826,
0.19293547,
-0.46105707,
-0.025315532,
-0.4377067,
-0.30034095,
-0.153717,
-0.023294134,
0.09943794,
0.06359314,
-0.38956994,
-0.08736595,
-0.061375007,
-0.035868563,
-0.25350153,
-0.112983726,
-0.53869164,
0.0014921505,
0.13161248,
-0.056705855,
-0.047160927,
-0.07562018,
-0.4446808,
-0.16313942,
-0.15056989,
-0.04220375,
-0.0855418,
-0.18190847,
-0.6293983,
0.017770404,
-0.035150163,
-0.053665895,
0.28413814,
-0.17551497,
-0.010016474,
-0.088200845,
-0.018186899,
-0.14926064,
-0.33249944,
-0.053460855,
-0.35758394,
-0.062852494,
-0.04862464,
-0.013446067,
0.19017804,
0.30655125,
0.2189444,
-0.48881245,
0.0108904345,
-0.056574848,
-0.4595531,
-0.15422335,
-0.034214597,
0.059108157,
0.08378315,
-0.25438672,
0.022736162,
0.056717183,
0.19616039,
-0.13321301,
-0.04118048,
0.21615379,
0.10739139,
0.06560527,
0.12527359,
0.16504455,
-0.08738034,
-0.06623283,
-0.17484725,
-0.06494688,
-0.025902923,
0.051148344,
-0.15719259,
-0.04272037,
-0.092358045,
-0.06492279,
0.015841952,
-0.59846765,
-0.046603154,
-0.35113934,
0.023426399,
-0.01581726,
-0.040343717,
-0.07018182,
-0.041809283,
-0.2461285,
-0.1358868,
-0.6241645,
-0.15051968,
0.0095471535,
-0.9396656,
0.0005012195,
-0.5500762,
0.02183752,
0.036543336,
-0.68739283,
-0.08847553,
-0.088513784,
-0.8960028,
-0.026825964,
-0.034999464,
-0.12291594,
-0.2727331,
-0.22711469,
-0.09776781,
-0.015796456,
0.3850927,
0.0076418645,
-0.38884297,
0.094480544,
0.17229135,
-0.087210774,
-0.053047378,
-0.005630681,
-0.3242529,
-0.07822328,
0.17371196,
-0.41784328,
-0.12414033,
0.34940827,
0.11334819,
0.05435579,
0.4280099,
0.09969646,
-0.43413392,
-0.57275075,
-0.31809473,
-0.06039553,
-0.29864764,
0.472772,
-0.17399824,
-0.06868283,
0.47690797,
-0.27294925,
0.013206645,
-0.15215433,
0.1665824,
-0.022534648,
-0.52437186,
0.045879014,
-0.03198971,
-0.079297386,
-0.41000023,
-0.17057602,
-0.52032983,
-0.1415023,
-0.07759781,
-0.20442547,
-0.058157414,
0.0054677515,
-0.3190985,
-0.1642495,
-0.17536944,
-0.0461554,
0.16045049,
-0.087223455,
-0.020056512,
0.023828506,
-0.01962643,
-0.038975228,
0.30522448,
-0.30095378,
-0.0020573712,
0.017847871,
0.031994753,
-0.19971785,
-0.53861195,
0.10403912,
-0.33266658,
-0.06622247,
-0.06421785,
-0.042021953,
-0.06143543,
0.14657634,
0.14281592,
-0.056455567,
-0.3613418,
0.031348802,
-0.38048887,
0.096510455,
-0.10261532,
0.033066496,
0.14035793,
0.057577804,
-0.05885802,
0.06526274,
0.12527098,
-0.07935474,
-0.007531348,
0.103084296,
0.09500232,
-0.056064952,
0.1634071,
0.21758363,
-0.0895663,
-0.016891109,
-0.2747912,
0.117854424,
0.012602242,
-0.515835,
-0.15577073,
-0.014556527,
-0.029479016,
-0.022944568,
-0.055115018,
-0.30546334,
-0.013237254,
-0.20600663,
-0.0427521,
0.003748497,
-0.10701441,
-0.004772301,
0.114713676,
-0.40863332,
-0.09378472,
-0.008429864,
0.27214402,
-0.018912192,
-0.117792346,
-0.22270444,
-0.46582842,
0.081872664,
-0.06767406,
-0.55894524,
-0.05389353,
0.004955926,
-0.2594364,
-0.41714162,
0.03529643,
-0.33437434,
-0.12554541,
-0.19075531,
-0.01121252,
-0.35571384,
0.3451183,
-0.41197032,
-0.21996087,
0.11438847,
0.0121179335,
0.018655632,
-0.13917,
-0.13038205,
-0.21887545,
-0.15016897,
-0.2990071,
-0.10225198,
-0.08299941,
-0.1525091,
-0.5211848,
0.06603301,
-0.5124696,
0.03882925,
0.07428905,
0.18305925,
-0.13326168,
0.014867431,
-0.30814618,
-0.17841585,
0.021322377,
0.007078018,
-0.020332705,
0.18463162,
-0.0056873383,
-0.25765434,
-0.024340242,
-0.039116543,
0.18037668,
-0.034993842,
0.017803485,
-0.061544668,
0.13881917,
-0.16488294,
0.036945727,
-0.35231125,
-0.11599995,
0.24252418,
-0.051311184,
0.00016370308,
0.05177237,
-0.09785658,
-0.41358688,
-0.41656816,
-0.22003058,
0.0013512479,
-0.30689728,
-0.005103943,
-0.026297696,
0.01464074,
0.14454758,
0.042399272,
-0.032087658,
0.009352758,
-0.07404621,
0.15250084,
0.27842364,
-0.023239214,
-0.12840319,
-0.076194756,
-0.04292067,
0.015421767,
-0.06562797,
0.065340795,
-0.12060803,
-0.16347498,
-0.13524869,
0.2745176,
0.2789055,
-0.16411193,
-0.038757678,
0.083408125,
-0.08375017,
-0.16733578,
-0.026448155,
-0.77678436,
-0.2756884,
-0.13912098,
-0.086394615,
0.094862625,
-0.18057242,
-0.06843038,
-0.14644781,
-0.33880448,
0.050166734,
-0.028515415,
-0.119270094,
0.2605072,
0.0005863057,
0.06608122,
0.17797926,
0.017837193,
0.22749114,
-0.05870549,
-0.13918486,
0.078476585,
-0.08401164,
0.11869914,
-0.036201317,
0.0028819777,
-0.038419534,
0.021518074,
-0.04814317,
0.17441475,
-0.11935268,
0.1920798,
0.3764227,
0.03250401,
0.036815435,
-0.12467792,
0.058215495,
-0.1080645,
-0.08167106,
0.24390781,
0.0057826554,
-0.00509248,
0.31715485,
-0.1531352,
0.021373464,
0.05560156,
-0.17557432,
0.1630333,
-0.048454165,
-0.17697322,
-0.28545594,
-0.053000573,
-0.14711006,
0.11566063,
0.043843016,
-0.058388926,
0.011201016,
0.10009607,
-0.25588048,
-0.32331824,
-0.25806847,
-0.16956311,
-0.1801298,
0.035693098,
0.18020672,
-0.22491474,
0.011910883,
-0.043595813,
0.3587181,
0.42823443,
-0.1742953,
0.01770769,
0.08210344,
-0.032962378,
-0.33904192,
-0.059568442,
0.0015811581,
-0.2751221,
-0.19498469,
0.0023398844,
-0.13209522,
0.10031393,
0.39424437,
-0.18505083,
-0.027602646,
-0.048734,
-0.060986605,
-0.050559655,
0.10309583,
-0.115633294,
-0.23837224,
0.39984867,
-0.121018,
-0.073636875,
0.12596324,
0.40234882,
0.03814597,
0.21002693,
0.1327389,
-0.14177912,
-0.0455657,
-0.031131092,
-0.07841386,
0.008373123,
0.078191385,
-0.20316812,
-0.08613587,
-0.02002362,
0.039931204,
-0.063118756,
0.17215994,
0.20611612,
0.11388655,
-0.0153990835,
-0.10069297,
0.01535705,
0.00086854683,
0.2709921,
-0.10719063,
0.16817577,
-0.12761122,
-0.3676428,
0.19637148,
0.103328064,
-0.039477296,
-0.31554878,
-0.4301074,
-0.08036163,
0.011642397,
0.13476634,
-0.13558622,
-0.08405909,
-0.12021418,
0.6695902,
-0.58106923,
0.11453681,
-0.37571308,
-0.19861852,
0.07443828,
-0.0007634951,
-0.43205592,
0.14933057,
-0.045606352,
0.006236647,
-0.16264056,
-0.03913747,
-0.4954002,
-0.053510174,
-0.09677935,
-0.27334914,
-0.06604692,
-0.4002721,
-0.06563905,
-0.2793733,
-0.085397385,
-0.09316488,
-0.043880433,
0.08966872,
-0.18027145,
-0.09568395,
0.29365677,
0.0090201795,
-0.12186223,
0.21290211,
0.030825436,
-0.035963945,
-0.10328263,
-0.49229681,
-0.08529301,
-0.11997158,
0.27294898,
0.085676946,
-0.07175888,
0.2245177,
0.2962828,
0.0069797747,
0.41953096,
-0.11218429,
-0.11989774,
0.16641568,
-0.08725488,
0.022798583,
0.5708992,
-0.041584972,
-0.05858321,
0.12985349,
0.16317436,
-0.119542226,
0.31416494,
0.46650457,
-0.13793296,
0.028849943,
-0.041838244,
-0.061991394,
-0.011467838,
0.035786573,
0.03363142,
0.03392979,
0.057325322,
-0.029504126,
0.03565937,
-0.014304343,
-0.056807082,
0.046148464,
0.07530124,
0.001519414,
-0.0150276,
-0.027940808,
-0.06918617,
-0.042198036,
-0.0037977283,
0.016460093,
-0.04491175,
-0.041043304,
0.009323541,
0.02553407,
-0.058670886,
-0.024693627,
-0.026397644,
0.03880656,
0.0068554706,
-0.033535402,
0.033322763,
-0.026627036,
0.006700966,
0.033416376,
-0.04555884,
-0.04428377,
0.014254531,
-0.048598774,
-0.034258947,
0.059430525,
0.018948507,
-0.009104523,
0.010492544,
0.013455425,
-0.015850663,
-0.0022845084,
-0.04703784,
0.008042257,
-0.051221468,
-0.012337291,
0.0037374538,
-0.011963772,
0.002177541,
0.017574579,
-0.042005256,
-0.028653823,
0.034206755,
-0.023232304,
-0.036796525,
-0.008612793,
0.030027453,
0.008151199,
-0.013015059,
-0.012214358,
-0.046939258,
-0.030417979,
0.05143484,
0.02576736,
0.006886573,
-0.008641189,
-0.05364204,
-0.07267285,
0.03880205,
-0.011968229,
0.0012049249,
-0.02998423,
-0.01664254,
0.0027212673,
0.047463592,
-0.03494852,
0.005866544,
-0.006903596,
0.011488491,
-0.034342118,
0.033805862,
0.04362103,
-0.04616104,
-0.0367616,
-0.014165164,
0.028270394,
-0.0499305,
0.0024854294,
0.019891018,
0.0039680037,
-0.02278462,
0.010909521,
-0.054879386,
0.044587273,
0.035568215,
-0.022499893,
-0.021357495,
0.036753874,
0.05338027,
0.010638221,
0.0029881,
-0.027055498,
-0.049931593,
-0.02501279,
0.023278099,
0.031467628,
-0.0040985793,
-0.034759216,
0.035995394,
-0.059128404,
0.024550483,
0.047526065,
0.048265524,
-0.042638034,
0.010816611,
0.03904599,
0.00017828817,
-0.010547138,
0.0083916765,
0.032945696,
0.02374136,
-0.038528718,
-0.027448338,
-0.15309462,
-0.15853825,
-0.35969275,
-0.04906393,
0.15229079,
0.22010833,
0.026132703,
-0.13655332,
-0.018464325,
0.05137328,
-0.20039696,
-0.018201495,
0.03271681,
-0.11233187,
-0.14521301,
-0.10919029,
-0.041322235,
-0.16983446,
-0.05664973,
0.19878341,
-0.23299085,
-0.011551224,
-0.08097463,
-0.011377821,
-0.110098,
-0.42363727,
0.3104184,
-0.20512885,
-0.07910958,
-0.0061420407,
-0.047025684,
-0.045498837,
-0.07284641,
-0.37491742,
0.3847788,
0.2462808,
0.10633843,
-0.12100119,
-0.05427058,
-7.814109e-05,
-0.020211615,
0.15032314,
0.08674937,
-0.11456179,
-0.04645947,
-0.13835678,
0.11085224,
0.01033472,
0.09261745,
-0.03454976,
-0.017403169,
0.022901837,
-0.03883162,
-0.25146315,
-0.11959163,
0.16898687,
0.24943301,
0.12008051,
-0.14148125,
0.30252025,
0.12468598,
-0.019115807,
-0.05647032,
-0.30787367,
0.07531417,
-0.07210526,
0.12918204,
-0.39768168,
-0.06048634,
0.03705159,
0.2686144,
0.088661686,
-0.052528113,
-0.13195688,
-0.21057305,
-0.09118967,
-0.0054407935,
-0.021667296,
0.05377518,
-0.06849656,
0.11633993,
-0.2105294,
-0.04290994,
-0.45692286,
-0.060134925,
-0.104055665,
-0.047576413,
-0.031044409,
-0.19620922,
-0.050685756,
-0.053481232,
-0.038148694,
-0.060106654,
-0.10948796,
-0.106787674,
-0.10072415,
0.014829381,
-0.110826515,
-0.07128522,
-0.00084404444,
0.1447163,
-0.081104256,
-0.22200169,
-0.052228503,
0.061509937,
-0.06702669,
0.016712321,
0.119977124,
-0.17389207,
-0.061591815,
0.17996012,
-0.12230552,
0.03447145,
-0.018124657,
-0.07361581,
-0.31132302,
-0.2309054,
-0.006391539,
0.041589156,
0.12760198,
-0.09675604,
-0.020952279,
-0.030172478,
0.25421098,
-0.24850625,
-0.16849652,
0.07655654,
0.057779863,
-0.06496788,
-0.17737381,
-0.46145108,
-0.32434344,
0.28799653,
0.13219818,
0.023027578,
0.12537766,
-0.03985575,
-0.10296369,
-0.16051197,
-0.25025997,
-0.0394786,
0.1412333,
-0.33569008,
-0.070188254,
-0.04527402,
-0.069216624,
-0.055378176,
0.07701919,
-0.33858672,
-0.07506688,
-0.054658942,
0.13397862,
-0.14090885,
-0.1478191,
0.37308976,
0.035158526,
-0.14597487,
-0.076032296,
0.03461617,
0.2982425,
-0.3395989,
-0.4548662,
0.22623932,
0.2990291,
0.0051211608,
0.27305302,
-0.021040138,
-0.017503671,
-0.09139524,
-0.10032342,
0.17296621,
-0.021098284,
-0.088248506,
-0.041342925,
-0.23072098,
-0.05846372,
0.042559907,
-0.1807287,
-0.054542422,
-0.011276077,
0.011351148,
-0.23403352,
-0.37765747,
0.16022527,
0.15414482,
-0.18263847,
-0.16658172,
0.096889384,
-0.11659361,
0.009738632,
0.00054231787,
-0.073191956,
-0.024111642,
-0.010211153,
-0.20103344,
-0.15445931,
-0.06504822,
-0.027173437,
0.20800984,
0.31649384,
0.0075807185,
-0.27248496,
-0.30139047,
-0.055129774,
0.01470539,
0.08534995,
-0.415218,
-0.025685523,
0.05655941,
-0.36251315,
-0.08478836,
-0.30576897,
-0.04251886,
0.05553562,
0.046113603,
-0.037323218,
-0.14344123,
-0.02516121,
-0.046073735,
-0.011644422,
0.008877703,
-0.14550143,
-0.0683824,
0.030597253,
-0.015241507,
0.11156547,
-0.07314001,
-0.51039326,
0.15440062,
0.18721351,
-0.2186881,
-0.07534307,
0.3215146,
0.021902286,
-0.18336095,
0.22466035,
0.012977946,
0.03894023,
-0.14380653,
-0.14103943,
0.028447738,
0.27820313,
-0.049772784,
-0.35524392,
-0.36312136,
-0.016614998,
0.01617129,
0.29136568,
-0.0007783245,
-0.058513142,
-0.07381741,
-0.015047045,
0.07202275,
0.030533195,
-0.28457576,
-0.0499377,
0.22881155,
0.060934946,
-0.5571603,
0.6285152,
-0.6111029,
-0.4594289,
-0.44679254,
-0.045403387,
0.012737567,
0.14974779,
0.3010025,
-0.03696336,
-0.038437013,
0.08300391,
-0.34092882,
0.09037099,
0.02363277,
-0.35015205,
-0.0477753,
-0.25629938,
0.08640803,
-0.011409541,
-0.057850905,
0.20547538,
-0.16326837,
-0.21036732,
-0.1052432,
-0.11868664,
-0.2991776,
-0.01612391,
-0.009682922,
0.00089266413,
0.29733014,
0.27870655,
0.12238551,
-0.088613495,
-0.55242574,
0.14566964,
-0.10227858,
-0.043574855,
0.006178986,
-0.08281551,
-0.32716364,
-0.06745085,
-0.06355721,
-0.06572254,
-0.22021322,
-0.4399694,
0.10640591,
-0.11574017,
0.022809103,
-0.043809928,
-0.063510105,
-0.073908076,
0.64093304,
-0.311633,
-0.21455754,
-0.07874805,
0.08001469,
0.06872364,
0.048829976,
-0.024046404,
0.18286285,
-0.15141545,
-0.02267009,
0.015591811,
0.41835737,
-0.38740978,
-0.09529643,
-0.0068156235,
0.124236576,
-0.4945041,
0.18654594,
-0.23558904,
0.19800834,
0.068849064,
-0.038397547,
-0.29958543,
0.0043854387,
-0.048654366,
-0.1612596,
-0.40492582,
-0.023826811,
0.045887996,
0.0057299808,
-0.081482075,
-0.27732646,
-0.080974475,
0.35069704,
-0.06781986,
0.11022291,
-0.03067109,
-0.08446912,
0.038290743,
-0.2949592,
-0.046257086,
-0.3776815,
0.039862625,
-0.058880202,
-0.25878486,
-0.21303575,
0.1061838,
0.11794365,
-0.024386,
-0.2536073,
0.00017091201,
-0.051158156,
0.08506641,
-0.29983363,
-0.031575844,
-0.08316194,
-0.39307508,
-0.02896927,
0.06739869,
-0.0976972,
0.19466805,
0.39599082,
-0.22562565,
0.5143151,
0.30449423,
0.012604901,
-0.038034815,
0.09618631,
-0.3736,
-0.070068255,
-0.4784992,
0.028146617,
-0.040317453,
0.03684978,
0.2696096,
-0.0033098958,
0.1788295,
0.0728905,
0.15830286,
-0.32412583,
0.0370789,
-0.05876721,
-0.09922115,
0.030259974,
-0.2409926,
-0.041445926,
0.060458012,
0.028688274,
-0.020539256,
-0.20957989,
-0.04123414,
0.025649946,
0.01172917,
0.026690226,
-0.0027534717,
-0.061971843,
-0.16826814,
-0.06441187,
0.16048384,
-0.10599936,
-0.117348544,
-0.06144892,
-0.051721215,
-0.03417231,
-0.32052925,
-0.15340088,
0.14377302,
0.021485712,
0.20576245,
-0.22334766,
-0.30455327,
-0.03850541,
0.001441991,
-0.015773071,
-0.4235485,
-0.21438517,
0.043207835,
-0.011301176,
-0.03750396,
0.19683157,
-0.25936276,
0.19605541,
-0.058001943,
-0.048140995,
0.048729576,
-0.033707853,
0.108467236,
0.05484344,
-0.025700735,
0.0022856153,
-0.37678325,
-0.2159665,
-0.007612643,
-0.22486049,
-0.07358872,
-0.03604017,
-0.1711144,
-0.06894739,
0.027542057,
0.37056562,
-0.030145995,
0.014740078,
-0.061912507,
-0.067117475,
-0.25947705,
0.011908559,
0.32971492,
0.05947399,
0.05558436,
-0.052038163,
-0.17809847,
-0.28171092,
-0.02302072,
-0.13713534,
-0.19387981,
0.058139697,
0.0117600905,
-0.027608335,
0.17366494,
-0.25159195,
0.065379106,
-0.3792393,
0.032171402,
-0.11508164,
0.06359546,
-0.106629126,
-0.1793966,
-0.32931784,
-0.095281474,
-0.0543488,
0.1508068,
-0.039967276,
-0.24924263,
0.24878283,
-0.03309055,
-0.5321836,
0.03916373,
-0.22359762,
-0.06934999,
-0.19064534,
-0.24274617,
0.022234943,
0.025865179,
0.03166985,
0.087955534,
0.122726396,
-0.5183429,
-0.071286224,
0.12636007,
-0.26702616,
-0.23275013,
0.35125983,
-0.43523335,
-0.04377051,
-0.04883155,
-0.007852057,
-0.14262699,
-0.05675667,
-0.066896245,
-0.12401377,
-0.24032618,
0.2733953,
-0.33559126,
0.22588766,
0.015711386,
0.5007853,
-0.114300184,
-0.5503045,
-0.36398637,
0.03987931,
-0.40688378,
0.06607442,
-0.08818675,
-0.10475179,
-0.08933085,
-0.10547022,
0.004986266,
-0.12229343,
-0.2607817,
0.19343962,
-0.21403286,
-0.06545956,
0.0027664406,
-0.04773126,
-0.656152,
-0.11503711,
-0.17851324,
-0.1800884,
-0.18232056,
-0.29931983,
-0.060688376,
0.0065795216,
-0.13102193,
-0.10769066,
0.314311,
0.14545158,
0.06281409,
-0.27176186,
-0.15770848,
-0.076516226,
0.02376651,
-0.049148474,
-0.08168516,
-0.2541922,
0.013515637,
0.00045392534,
-0.016062802,
0.004699421,
-0.350471,
-0.10635372,
-0.19005282,
-0.040285286,
0.008305521,
-0.025148636,
0.17326877,
-0.058428727,
0.036551658,
-0.19699046,
-0.20587096,
-0.009606556,
-0.2622992,
0.042844515,
0.025118504,
-0.17285535,
0.39892268,
0.273191,
0.004090824,
-0.006809744,
0.051941242,
-0.028381491,
-0.054276478,
-0.18406078,
-0.104426496,
0.1281071,
-0.0064542554,
0.12866004,
-0.13818713,
0.026331939,
-0.26969194,
-0.08070136,
-0.009648235,
-0.104326636,
-0.6886938,
-0.0048894812,
0.07191263,
-0.08650742,
-0.022341503,
0.20536743,
-0.066250786,
-0.5639893,
-0.020472113,
-0.07057282,
0.003197495,
-0.040141955,
0.17598331,
-0.22692142,
-0.06936193,
-0.037359066,
-0.2081252,
0.0060867686,
-0.013779568,
0.4754591,
-0.23491794,
-0.4657193,
-0.0824141,
-0.1245229,
-0.043664142,
-0.22365646,
-0.12159141,
-0.15651436,
-0.034284715,
0.016252251,
0.047345567,
-0.042883363,
-0.20371039,
-0.17148384,
-0.0868808,
-0.039872535,
0.15748212,
0.0542314,
-0.025939371,
0.008666872,
-0.0895194,
0.2709414,
-0.17250925,
0.07078295,
-0.58471406,
-0.56923735,
-0.15325855,
-0.17578207,
0.0068707336,
-0.036298227,
-0.28380677,
-0.72574,
-0.71426153,
0.1520328,
-0.36355492,
0.024022738,
-0.28781575,
0.027299426,
-0.28515908,
-0.07212789,
-0.17732184,
-0.07629257,
-0.13630164,
0.044190247,
-0.118165925,
0.16013795,
0.13529374,
-0.23485611,
-0.036609154,
-0.06415723,
0.03224104,
-0.12759693,
0.016617866,
-0.016756458,
-0.11280444,
-0.13141201,
-0.072211035,
0.07958139,
0.011897292,
0.036533955,
0.06766161,
-0.1389719,
-0.33742607,
-0.27779892,
-0.20198527,
-0.08857049,
-0.0035065208,
-0.06197831,
0.09596091,
0.030552896,
0.0037682003,
-0.036342323,
-0.01680932,
0.008583021,
-0.34597975,
0.21436721,
0.16830555,
-0.060204588,
-0.053868588,
-0.022616623,
-0.22837932,
-0.17853811,
-0.27269104,
-0.2876397,
-0.26594466,
0.04507248,
0.21229987,
-0.14635491,
-0.07724328,
-0.19388293,
-0.0776891,
0.0031599735,
-0.05506993,
0.014601495,
-0.39048743,
-0.058008756,
-0.077961855,
-0.06261523,
-0.37763754,
0.20367208,
-0.12411097,
0.29881385,
-0.21131465,
0.033523064,
-0.103557035,
0.15671957,
-0.059048966,
-0.24804235,
-0.35000193,
0.0011962007,
0.13384423,
-0.09169482,
-0.08248286,
0.12449843,
-0.07740698,
0.18119065,
-0.06789371,
-0.09757666,
-0.07913911,
-0.109943695,
-0.38186237,
-0.41057494,
0.07662966,
0.31292775,
0.51528025,
-0.037267942,
-0.18208304,
-0.34824854,
0.42975542,
0.081509955,
0.011859911,
0.020726137,
0.009180038,
0.34749144,
-0.24033292,
-0.08384344,
-0.049159836,
-0.25550917,
-0.20989855,
0.022774488,
0.06230085,
-0.15985948,
0.007852495,
0.4850679,
0.17191738,
0.22238141,
-0.012806093,
-0.015908912,
0.031557877,
-0.0526238,
0.23730126,
0.12467674,
-0.34485292,
0.26605856,
-0.022311293,
-0.10251848,
-0.5583784,
0.11318223,
0.021956073,
0.11464674,
-0.40449265,
0.21539484,
-0.1020879,
-0.020092737,
0.3180305,
0.021003578,
-0.04236909,
0.020625584,
0.08389903,
-0.3725443,
-0.14386833,
0.11452705,
-0.19574483,
-0.01149936,
-0.13581151,
0.1331617,
-0.05091316,
-0.091725715,
-0.28707498,
0.041804086,
-0.23687814,
0.014854218,
0.11618285,
-0.4733579,
-0.026433622,
-0.074033365,
0.06103752,
-0.37271887,
0.028384408,
-0.041725226,
0.06609237,
-0.061058875,
-0.48001304,
-0.041816656,
-0.046505008,
-0.031800468,
0.34187418,
-0.062430494,
-0.061807208,
0.042989522,
-0.03571141,
-0.084141746,
-0.2542459,
-0.218485,
0.07306828,
-0.017604997,
0.008223197,
-0.04629998,
-0.14245205,
0.15792356,
-0.26051697,
0.15964554,
0.0028140638,
0.016398508,
-0.515177,
0.019797958,
-0.0655845,
0.25575146,
-0.17547776,
-0.19344851,
-0.07307172,
0.09719061,
0.021277372,
-0.009292091,
-0.052569676,
0.1317834,
0.21786754,
-0.012065295,
-0.16092342,
0.0034737645,
-0.46259457,
-0.05803742,
0.06363534,
-0.15798901,
-0.01744058,
-0.038360387,
-0.12776989,
0.00071262586,
0.051010303,
-0.06308308,
0.036636263,
0.13611679,
-0.01946535,
-0.13794571,
-0.028057916,
0.045684785,
-0.076265916,
0.021273592,
-0.5318292,
-0.21453692,
-0.076425,
-0.124344334,
-0.14146358,
-0.039958227,
-0.71774286,
-0.358626,
-0.15885472,
-0.19252278,
-0.010353847,
-0.17862886,
-0.01653139,
-0.1209656,
-0.53683263,
-0.46152586,
-0.07064816,
-0.26210907,
-0.16824187,
0.029627657,
0.20774181,
0.04420032,
0.38248506,
-0.15890656,
-0.6943009,
0.21416235,
0.13471094,
-0.06799908,
-0.024572115,
-0.039980378,
-0.059448984,
0.029341178,
0.30705434,
-0.05887989,
0.031720966,
0.31076247,
0.4096395,
-0.5929127,
-0.08968866,
0.22534736,
0.29050645,
0.1803714,
-0.050249174,
-0.06275628,
0.1544324,
-0.45483062,
0.15735777,
0.027749376,
-0.08960353,
-0.08934752,
-0.15801832,
-0.31458095,
-0.14490135,
0.0847941,
0.3553098,
0.03936808,
-0.025512403,
0.01681284,
-0.17252806,
-0.16756569,
-0.2013488,
-0.6560426,
0.119465694,
-0.025124524,
-0.0026037062,
-0.07580291,
-0.5514634,
-0.02243863,
0.18237264,
-0.15547507,
-0.065181434,
-0.10947645,
-0.12137933,
-0.07852754,
-0.03944345,
-0.039852332,
-0.34508255,
-0.32486343,
0.0059535527,
-0.08004736,
-0.09473331,
-0.08459588,
0.09584469,
0.25306997,
0.20722233,
-0.03023447,
0.015970761,
-0.06013653,
0.20186111,
0.19744664,
-0.016450556,
0.26150632,
0.0017311955,
-0.050439864,
-0.06204586,
-0.5466838,
-0.007150257,
-0.5484237,
-0.5935834,
-0.1479968,
0.0023099482,
-0.04330632,
-0.14596708,
0.011710665,
-0.06433111,
0.01794551,
0.12029622,
0.12017577,
-0.03832213,
0.39315152,
0.2229641,
0.004038543,
-0.43661192,
-0.072937965,
-0.023523938,
-0.27930906,
0.07961897,
-0.03172717,
-0.51541466,
-0.037839994,
0.03975167,
-0.20727181,
-0.00850952,
0.25111848,
0.02096397,
-0.15610367,
-0.07377405,
-0.041480336,
-0.1473257,
0.21686403,
-0.0040801424,
-0.3664918,
0.5236778,
0.015411259,
-0.12302057,
-0.00054455857,
-0.067527674,
-0.16970526,
-0.06602757,
0.0016154689,
-0.08106691,
0.038324106,
-0.13955696,
-0.27073097,
-0.044083312,
0.41129842,
0.36116734,
-0.11987855,
-0.08324912,
-0.3090171,
-0.11955791,
-0.1622067,
-0.55822515,
0.00751933,
-0.012557143,
-0.020632058,
-0.022022614,
-0.016886476,
0.35729858,
-0.5471101,
-0.0804514,
0.32541174,
-0.030165665,
0.3350787,
0.15519464,
-0.09778432,
0.1836372,
0.18930736,
0.11623809,
-0.03500368,
0.160604,
0.02828583,
-0.39270818,
-0.1960298,
-0.13891919,
-0.05854008,
0.10967181,
-0.38249084,
-0.20130682,
-0.38210312,
-0.28381196,
0.38470894,
0.14811772,
0.13880771,
-0.015371874,
-0.008502713,
-0.5186208,
-0.08530316,
-0.07694915,
0.31275868,
0.077536516,
0.3853229,
-0.06759988,
-0.06441839,
-0.27404666,
0.12429528,
-0.033648193,
-0.1122205,
0.062929116,
0.03164463,
-0.030852387,
-0.061127868,
-0.049407624,
0.022185687,
-0.22838843,
-0.22239721,
-0.073936,
0.037221335,
-0.047685076,
-0.27248043,
-0.08803644,
-0.3967771,
-0.21612044,
-0.04693923,
-0.024515143,
-0.012220545,
-0.5403585,
-0.14063393,
-0.14928147,
0.17919861,
0.11540025,
-0.38537925,
-0.43663633,
0.1551832,
-0.050924394,
-0.41708994,
-0.438757,
0.21296044,
0.008184412,
-0.22294797,
-0.04963653,
0.06567003,
-0.099627584,
0.13921842,
0.42411724,
-0.2441539,
-0.059645638,
0.053463627,
-0.43618125,
0.017955558,
0.34520873,
-0.15042123,
-0.029224781,
-0.4946456,
-0.09895954,
0.02065229,
0.015878344,
-0.0011739468,
-0.24225022,
0.18137634,
-0.016152242,
-0.70827353,
-0.043747343,
-0.07602472,
-0.049772028,
0.0015483317,
0.31592876,
0.4458071,
0.047227122,
-0.3122005,
-0.38289648,
-0.05951033,
0.23123328,
0.11969239,
-0.14220147,
0.3074373,
-0.07924714,
0.1630269,
-0.09996044,
0.16945483,
-0.21199307,
-0.37781268,
-0.06776155,
0.29639193,
0.43365335,
-0.050976448,
0.09358097,
-0.04194805,
-0.5789083,
0.14477304,
-0.57446855,
-0.059310053,
0.18994515,
-0.07863531,
-0.07029069,
-0.2843678,
0.3695556,
0.0014984808,
0.2222758,
-0.22406065,
0.0831342,
0.16632022,
0.1938158,
-0.15069602,
0.38816357,
-0.31860393,
-0.088134676,
0.3114597,
0.0039085317,
0.006896195,
0.16601266,
0.31356114,
-0.029303337,
0.026754264,
0.074261956,
0.34625793,
-0.060883895,
0.25491175,
-0.106878124,
-0.0845994,
-0.3813685,
-0.005636695,
0.0017530053,
0.015134963,
0.2556814,
-0.05793156,
-0.14849655,
0.03497747,
-0.12851402,
-0.30832827,
-0.11224349,
-0.05121886,
0.2859,
-0.12025765,
0.026599351,
-0.20146425,
-0.030129004,
-0.15894878,
-0.06647191,
-0.0635068,
0.005548441,
-0.028007574,
0.086589605,
-0.06386839,
-0.030895125,
-0.043558817,
-0.1474026,
-0.40348753,
-0.13641906,
0.0595618,
0.024708916,
-0.018887108,
-0.054612096,
-0.0077681104,
-0.5205476,
0.18022698,
-0.26675394,
-0.23800576,
-0.03593188,
0.14990248,
-0.078453854,
-0.11631548,
-0.040612523,
0.24273066,
-0.020306543,
-0.30272344,
-0.0067259273,
-0.041618012,
-0.09814423,
-0.008840317,
-0.01937022,
-0.108284526,
-0.21138549,
-0.356418,
0.26034555,
-0.37640417,
0.02245195,
-0.007971758,
0.19949919,
-0.096816815,
-0.07094552,
-0.01792193,
-0.22097822,
0.024102712,
-0.060250547,
-0.044722214,
-0.31497133,
-0.2820251,
-0.078134395,
0.22187425,
-0.02673839,
-0.11727855,
-0.08212573,
-0.14030437,
-0.29438016,
-0.34352168,
-0.19938433,
-0.042741332,
0.098081395,
0.021286894,
-0.21391055,
-0.07551681,
0.44078204,
0.05863989,
0.042744868,
-0.1708874,
-0.0319926,
0.051985417,
-0.22914542,
0.32511672,
-7.5659285e-05,
-0.68756765,
-0.2530687,
-0.27756742,
0.3240034,
-0.057185315,
0.20475009,
0.21629624,
-0.091204084,
-0.00877508,
0.28708953,
-0.06968023,
-0.0411116,
-0.06578192,
-0.21418986,
0.06685939,
0.1862558,
-0.28282028,
0.11669997,
0.29319724,
-0.20137309,
-0.16542043,
0.21726531,
0.40511084,
-0.10211127,
0.32736406,
-0.0076470138,
-0.06427084,
-0.32810202,
-0.112592645,
-0.64150727,
0.031054754,
-0.11183455,
-0.5886747,
-0.1919001,
-0.11321362,
-0.12380984,
0.3254753,
-0.38111874,
-0.060876034,
-0.055880364,
0.0014033912,
-0.6333807,
-0.13130014,
-0.6797987,
-0.11918509,
-0.08294127,
-0.05997397,
-0.017838567,
-0.031413306,
-0.26348227,
-0.12767847,
0.042181827,
0.22950828,
0.06665309,
0.034954365,
-0.17558433,
0.031717528,
-0.06064303,
0.03342465,
0.040910624,
-0.16404098,
-0.043817174,
0.026226668,
-0.060880367,
-0.341347,
-0.22065139,
-0.37136796,
-0.20916423,
-0.073896,
-0.047102667,
-0.0633078,
0.1879146,
-0.06287611,
-0.0009649857,
0.1617135,
-0.10361909,
-0.3884955,
-0.13467902,
-0.04061136,
-0.07649932,
0.031088036,
-0.29972115,
-0.17954005,
-0.0070712687,
0.17208734,
-0.34065956,
-0.11491045,
-0.09285832,
0.5188081,
0.29027754,
0.35633504,
-0.102486774,
0.31408036,
-0.34592763,
-0.01932045,
0.022385731,
-0.027739583,
-0.032037944,
0.14748855,
-0.07231122,
-0.008795741,
-0.29369178,
-0.11946706,
-0.07031106,
-0.012986974,
-0.0058157356,
-0.48925632,
-0.0044046626,
-0.11759548,
0.005661196,
-0.0471753,
-0.15401983,
-0.09704008,
-0.02151774,
-0.45140755,
-0.18690017,
0.014618907,
-0.45794168,
0.10767452,
-0.23139235,
0.009299556,
-0.112670384,
-0.35942286,
-0.011156118,
-0.06327649,
-0.33501837,
-0.3457608,
-0.042524174,
-0.35283744,
0.20476274,
0.03158433,
0.1431104,
-0.14590885,
0.19260539,
-0.28218338,
-0.621126,
-0.010388958,
0.3364072,
0.025697207,
-0.058803692,
-0.33864695,
-0.013680559,
-0.14106785,
0.13288829,
-0.29671785,
0.0056351665,
0.07689422,
0.04811064,
-0.2739051,
-0.19868362,
-0.055912033,
-0.1331029,
0.048720557,
-0.3578355,
0.024762869,
0.20831399,
-0.18377802,
0.009634185,
-0.0004015696,
-0.40140718,
-0.6435135,
0.08348778,
-0.16986567,
-0.26988682,
-0.120021135,
0.25659344,
0.10816157,
-0.0010937226,
-0.062353775,
-0.10417891,
-0.12071761,
0.1239031,
-0.16579786,
-0.074342094,
-0.17533398,
-0.08892901,
-0.02763354,
-0.29465348,
-0.23290582,
0.17822212,
0.17343439,
0.03091963,
-0.23313682,
-0.23793751,
-0.0041778875,
-0.07794882,
-0.05589023,
-0.34802568,
0.086008616,
-0.047234725,
-0.025433717,
0.011445392,
0.23137121,
-0.10953406,
0.33448005,
0.15281071,
-0.048303057,
-0.0103709735,
-0.025856577,
0.072650835,
0.036773752,
0.1588874,
0.4072351,
0.16972844,
-0.117834084,
-0.029436305,
-0.022990813,
0.010670132,
-0.08286964,
-0.10881334,
-0.086797655,
-0.072058566,
0.16377573,
0.059743285,
-0.10332465,
-0.015388459,
0.19956575,
-0.24696548,
0.17884655,
0.2923553,
0.033012446,
-0.07584799,
0.008489062,
-0.8489867,
-0.018213259,
-0.032691114,
0.10707057,
-0.42456594,
9.164318e-05,
0.016650068,
0.020591775,
0.14912733,
-0.5936898,
0.0318545,
0.31896713,
-0.07715208,
0.17310546,
-0.020484911,
0.003282834,
0.1342574,
-0.32056317,
-0.009534903,
-0.23323159,
-0.3313602,
-0.025556408,
-0.3797348,
-0.006025562,
0.07874645,
-0.10977274,
-0.040065706,
0.1375234,
0.006596481,
0.14292172,
0.12044791,
-0.14142402,
-0.068776965,
-0.5794262,
-0.07993227,
0.28759843,
-0.42638457,
-0.24278603,
-0.32606962,
-0.020625195,
0.1943853,
0.06462978,
-0.395249,
-0.067664094,
-0.07457955,
-0.026570313,
0.27689984,
0.031469192,
-0.094049625,
0.13663933,
-0.014509045,
-0.41563818,
-0.26943535,
-0.13090254,
-0.37862435,
0.16197053,
-0.15501675,
-0.31910858,
-0.069003955,
0.0072215945,
-0.29989985,
-0.011706641,
0.0586792,
0.016477287,
-0.32838863,
-0.13291693,
-0.12514539,
-0.27327767,
-0.5012537,
-0.19030923,
0.14178126,
0.046130653,
0.029785026,
0.0071312888,
0.12742284,
0.034068584,
-0.065570086,
0.110304035,
0.05287564,
-0.062493954,
0.013993627,
-0.0821922,
-0.42021137,
-0.48677987,
-0.33526844,
-0.15939598,
-0.27360395,
0.22178966,
-0.25814694,
0.033054717,
-0.025969556,
-0.07161349,
-0.31770402,
0.3008633,
0.0074819536,
0.02005585,
0.004589636,
0.25300306,
-0.054449923,
0.05040047,
-0.24129762,
-0.071027525,
0.013560948,
0.0012816284,
-0.02721657,
-0.04481785,
-0.022019655,
-0.44842297,
0.017004738,
0.54693717,
-0.09961293,
-0.24356996,
0.0089832395,
0.18796651,
-0.40104473,
-0.16385916,
-0.062845714,
-0.69180423,
-0.092798516,
-0.03717488,
0.037234597,
-0.46214485,
-0.015965112,
0.18251131,
-0.07056676,
-0.5918,
-0.3836083,
0.044087846,
-0.17960289,
0.09504689,
-0.018660536,
-0.26409462,
0.042260654,
-0.030042393,
-0.030566793,
-0.014618601,
-0.19196081,
0.0038706257,
-0.03597682,
-0.11326787,
0.0069391346,
-0.042794548,
-0.10620476,
0.02182531,
-0.24550676,
-0.186496,
-0.06998695,
0.09758144,
0.264439,
-0.09116707,
0.1580225,
-0.04256594,
-0.203051,
-0.14125536,
-0.028765216,
0.048374616,
-0.072416864,
-0.25251716,
-0.5727997,
-0.23484802,
0.050601967,
-0.033913486,
0.07732661,
-0.19776762,
-0.052180644,
-0.088985704,
-0.07042188,
-0.121353306,
-0.035800535,
-0.21285264,
0.07739685,
-0.06087997,
0.02245992,
-0.09632033,
-0.2100385,
-0.17706418,
-0.011411487,
-0.24291165,
0.07913815,
0.14148466,
-0.13839807,
-0.19304787,
0.10538776,
-0.13393898,
0.005551322,
-0.061602864,
0.04590975,
-0.015640656,
0.036064606,
-0.17308335,
0.027414195,
-0.023079835,
-0.058758214,
-0.09144708,
-0.06452184,
-0.33887246,
-0.28773907,
0.24920286,
0.037898343,
-0.44150513,
0.035177305,
-0.071478084,
-0.14110172,
-0.044296004,
-0.15587233,
-0.13647175,
-0.10942548,
-0.010099964,
-0.012147855,
-0.03237221,
-0.19245763,
0.2314897,
0.10982724,
0.05252833,
-0.08537376,
-0.05344345,
-0.16950777,
0.033374056,
-0.07252461,
-0.07322271,
-0.04613403,
-0.086553544,
-0.037930124,
0.021141736,
-0.05226986,
-0.38131836,
-0.10904761,
-0.3145137,
-0.38134095,
-0.012679993,
0.048093725,
-0.06542401,
-0.30804464,
0.051680088,
-0.22693476,
0.21173924,
-0.15174052,
-0.1837822,
-0.28588778,
-0.25119707,
-0.0645208,
-0.04093213,
-0.008706789,
0.11296647,
-0.022925658,
0.35810798,
-0.0759702,
-0.012647009,
-0.024537668,
0.46895736,
0.04509598,
0.2434817,
-0.1891518,
-0.2512771,
-0.18767294,
0.0070403703,
0.045537643,
-0.2080094,
0.035900347,
-0.047792856,
-0.36008,
0.043233026,
-0.3461311,
0.00052258273,
0.019823993,
0.17849313,
-0.069127195,
-0.22411302,
-0.017539697,
-0.07837392,
-0.0137490975,
-0.09978133,
-0.030058624,
0.043399096,
-0.13604157,
-0.6106535,
-0.10647283,
-0.039956775,
-0.058003318,
0.14142433,
-0.43371665,
-0.05122798,
-0.035140432,
-0.8933173,
-0.033402603,
-0.24860564,
-0.4056568,
-0.46666372,
-0.025605904,
0.105616726,
0.3607169,
0.03245196,
0.013278824,
-0.03193341,
0.041434735,
-0.098182045,
-0.11050509,
0.07561579,
0.46660703,
0.039055206,
-0.06735541,
0.2029231,
0.15307075,
0.032906327,
0.3073062,
-0.022426963,
0.0023229837,
0.019538363,
-0.053577106,
0.03388602,
-0.009836769,
-0.021147955,
0.0038001502,
0.032982614,
0.0094225295,
0.011416604,
-0.036409188,
0.005310154,
0.00011719002,
0.03085447,
0.0010430315,
-0.0096602375,
-0.037705485,
0.053474106,
0.040431544,
0.002167251,
-0.0217723,
0.046547942,
-0.0038727636,
0.016840735,
-0.038508967,
0.028748594,
0.041264504,
0.014572173,
-0.05285197,
0.03430454,
-0.04437878,
-0.049859505,
-0.035631113,
-0.05380756,
0.0013479693,
-0.015251355,
0.023900807,
-0.034891125,
0.026523737,
0.060101386,
0.031180773,
-0.026550807,
-0.007880812,
-0.04452721,
-0.015778491,
0.017835915,
0.0056405202,
0.025024772,
-0.053976085,
-0.05385232,
-0.01701914,
0.018510614,
-0.025576329,
0.038385183,
-0.031562377,
-0.012086663,
0.057372887,
-0.044864036,
-0.033539847,
0.024297955,
-0.036074053,
-0.0031117378,
-0.0013676187,
0.01949764,
-0.04794645,
-0.044618458,
0.023479337,
0.05362106,
0.020612778,
0.02903576,
0.010020996,
-0.05708048,
0.041703843,
0.017874934,
0.023427194,
-0.044960707,
-0.031443734,
0.012125848,
0.04955555,
-0.017685574,
0.04766222,
0.024104841,
-0.01990073,
-0.041285794,
-0.033203054,
-0.024197144,
0.053603437,
0.03149311,
-0.020082932,
-0.0050246236,
0.04517516,
0.0012983211,
0.050828163,
-0.026645761,
-0.031342987,
0.0016305434,
-0.008863623,
5.7344932e-05,
-0.05561755,
0.026504409,
0.054627057,
0.047981653,
-0.047334608,
0.0076637454,
0.037029766,
0.0041931663,
-0.04419633,
-0.008895667,
0.00332616,
0.024997879,
-0.058424305,
-0.059606284,
-0.042252827,
0.0055829105,
0.0050991,
-0.007214912,
-0.019370457,
0.046113607,
-0.03640018,
-0.05177502,
0.013784164,
0.05737843,
-0.058471244,
0.023747258,
0.027271546,
0.0387282,
0.00092075777,
0.059491016,
0.034905124,
0.059185576,
-0.038290516,
0.006239635,
-0.08267686,
-0.053583868,
-0.21732098,
0.08565829,
-0.3225863,
-0.06678071,
0.12249376,
-0.018263584,
-0.12707001,
-0.07554038,
-0.21126051,
-0.24127513,
-0.009854815,
-0.25827274,
-0.18306747,
-0.19392659,
-0.4280766,
0.113757424,
-0.019018203,
-0.041846346,
0.3052351,
-0.058611892,
-0.013122592,
0.07059933,
-0.09458697,
-0.28109,
-0.0841865,
-0.07288998,
-0.3851545,
-0.48499867,
-0.26226038,
0.16198938,
-0.30810913,
-0.24340984,
-0.102119744,
-0.09357097,
-0.04236012,
-0.002333453,
-0.1757185,
-0.039765924,
0.012707092,
-0.10934308,
-0.042148255,
0.10313574,
-0.37223545,
0.21337034,
-0.19850679,
0.0024016155,
0.005707706,
-0.049057756,
-0.2152444,
0.048148118,
-0.026426062,
-0.3199634,
0.2686698,
0.22273004,
-0.053159747,
-0.233476,
-0.04668051,
0.18424593,
-0.123154,
-0.12212804,
-0.03172938,
0.137897,
-0.100460574,
-0.07452942,
-0.013144929,
0.06854636,
-0.30793,
-0.12232468,
0.08931981,
0.22640623,
-0.19080836,
-0.027728798,
-0.48699594,
0.23889905,
0.016449437,
-0.4190473,
-0.46259016,
-0.100614615,
0.1526368,
0.013144698,
0.09032792,
-0.29054415,
-0.017587556,
-0.052105814,
-0.026494708,
0.04677735,
-0.021597331,
-0.04805314,
-0.08576774,
-0.5590098,
-0.024315367,
-0.6037756,
-0.004932158,
-0.016619723,
0.11129957,
-0.13385428,
-0.4043061,
-0.30353546,
-0.03793344,
0.32752326,
-0.03642386,
-0.19492711,
-0.22305049,
-0.428611,
0.011871656,
-0.0551669,
-0.41804716,
-0.05344969,
-0.07627448,
-0.20909278,
-0.07727938,
0.15140836,
0.11025714,
0.17038982,
-0.21594936,
-0.008000814,
-0.016032757,
0.17132974,
-0.5152218,
-0.14665996,
-0.3743725,
-0.22116397,
-0.36059943,
-0.042208917,
0.0027311002,
-0.03442955,
0.05282245,
0.032908514,
-0.05533288,
0.03652801,
-0.03376966,
0.03393459,
-0.04995542,
0.05824901,
-0.029902317,
-0.0396507,
0.040044826,
-0.008525625,
-0.0015197787,
-0.0396983,
-0.033946145,
-0.006681975,
0.0014807015,
0.060028624,
-0.059334192,
0.02464441,
-0.054697953,
-0.037330236,
0.004288575,
0.008437914,
-0.027544508,
0.005836359,
0.043239925,
0.020000849,
0.019363811,
-0.012183782,
-0.028942918,
-0.05876447,
-0.03838791,
-0.031517092,
-0.03616219,
0.009909761,
-0.06373615,
-0.026054053,
-0.033767514,
0.0346647,
0.015426148,
0.008329822,
-0.0244371,
0.0076339617,
0.03487195,
-0.05079785,
-0.02806846,
0.055546936,
0.007639157,
0.028400715,
-0.011184281,
-0.039415028,
-0.026526637,
0.04884027,
-0.0637455,
-0.033790205,
0.035017513,
0.02461356,
0.011534552,
-0.0060811196,
0.03252526,
-0.018395664,
-0.056560483,
-0.01945904,
-0.028692394,
-0.06352843,
0.047487177,
-0.009998772,
0.031859774,
0.0065903505,
0.026791243,
-0.018081848,
-0.05649232,
-0.007918041,
-0.0073573864,
0.06452934,
-0.047016688,
0.018303717,
0.025725415,
-0.03428388,
0.024460843,
0.003497139,
0.05322535,
0.043466385,
-0.044504263,
0.06105054,
-0.035788115,
-0.020714078,
-0.010373834,
-0.03337394,
-0.011439235,
0.030503284,
-0.058099966,
-0.030294236,
0.047290005,
0.05373641,
0.044272035,
-0.057040367,
0.03925318,
0.04054437,
0.02548931,
0.020683708,
0.019454814,
-0.041571587,
0.053250823,
9.786673e-05,
-0.055252854,
-0.014078883,
-0.020594738,
-0.01430743,
-0.021136122,
0.0030771317,
-0.03387808,
0.033800505,
0.037604973,
-0.0077999136,
0.05395503,
-0.030118782,
0.01197313,
0.022296255,
-0.04231757,
-0.026010027,
-0.037161678,
-0.022371694,
-0.06321525,
0.2448477,
-0.1756859,
-0.12158998,
-0.11058178,
-0.04678917,
-0.18345365,
-0.1691835,
-0.052491017,
-0.033053108,
-0.03002436,
0.14284223,
0.054841712,
-0.08019829,
-0.043621216,
0.20206404,
-0.0525452,
-0.11500725,
-0.16296808,
0.2143888,
-0.05795044,
-0.051187187,
0.014467536,
-0.08081397,
-0.30361643,
-0.20849346,
-0.3334369,
-0.6777163,
-0.014545999,
-0.0053014047,
-0.08189912,
0.03527509,
-0.3134562,
-0.5311908,
-0.18998973,
-0.09825767,
-0.06301885,
-0.067358755,
-0.38066065,
-0.0048396946,
-0.0518942,
-0.04303142,
-0.025339453,
-0.33414745,
-0.016085688,
-0.026268242,
-0.054932024,
-0.4532103,
-0.2988054,
-0.10324651,
-0.3981343,
-0.030339044,
0.02346575,
0.029154992,
-0.5154099,
0.11728193,
0.04426678,
-0.34113303,
-0.3095481,
-0.09310052,
-0.6046403,
0.19473542,
0.024661906,
0.110379815,
0.2694307,
0.23787978,
-0.0007871028,
0.20142436,
-0.21863085,
-0.1506544,
0.025549807,
-0.05604177,
0.21910368,
-0.17735448,
-0.2680919,
-0.063074574,
-0.17470741,
-0.01899077,
0.17466919,
0.10901632,
0.015157313,
-0.078033395,
-0.401228,
-0.005749614,
-0.2984276,
-0.028101949,
-0.17976831,
-0.06832739,
-0.030435609,
-0.3248784,
-0.02820692,
0.13742658,
-0.041662697,
-0.024323285,
-0.03072375,
-0.10350858,
-0.07051137,
-0.31686938,
-0.0025132308,
-0.043789104,
-0.15244171,
-0.2602422,
-0.36426115,
-0.10794676,
-0.041940164,
-0.21060048,
-0.09885756,
-0.10573536,
-1.0701134,
0.11205795,
-0.020306382,
-0.35601312,
-0.21500409,
-0.22598797,
0.2979278,
-0.03620779,
0.10458335,
-0.048753146,
-0.20555685,
-0.07450924,
-0.09707433,
-0.025171716,
-0.016333237,
-0.1742389,
-0.24768916,
-0.020812409,
0.20326793,
-0.39338493,
0.048956245,
-0.20351103,
-0.07752119,
0.24761643,
-0.25133488,
0.20744622,
-0.10342776,
-0.3326756,
-0.04173021,
-0.0153308585,
-0.52914375,
-0.37678578,
0.103982635,
0.022385048,
-0.10004439,
-0.23940802,
-0.13362068,
-0.54607075,
-0.14231881,
-0.0684867,
-0.013625728,
-0.10032757,
0.004603802,
0.036881473,
0.042769663,
0.023915,
0.13450593,
0.35999474,
-0.023905009,
-0.14698747,
-0.028777186,
0.03809476,
-0.1533468,
0.09912914,
-0.27261505,
0.25498632,
-0.04887636,
0.2478948,
-0.081552476,
0.024684047,
-0.037085753,
0.018294323,
0.55414885,
-0.12870061,
-0.0629192,
-0.006153096,
-0.094206266,
-0.09338041,
-0.43050084,
-0.68362373,
-0.5958219,
-0.013379491,
-0.024347361,
-0.049189985,
0.03509822,
-0.38663417,
-0.089150496,
-0.35634056,
0.5633494,
0.2692449,
-0.022178207,
0.19101764,
-0.060004357,
0.12965451,
-0.31976837,
-0.22936562,
0.00913524,
-0.019104991,
0.00023528007,
-0.2527876,
-0.004075,
0.07007257,
-0.2882399,
-0.23439734,
-0.14092939,
-0.13115072,
-0.26626,
0.027047867,
0.006929792,
0.23399267,
0.047096815,
-0.008567658,
-0.17804207,
-0.11715396,
-0.03738924,
-0.081398085,
0.011497138,
0.2221715,
-0.05183055,
-0.58044,
-0.053599305,
0.07933409,
0.040696878,
0.016564727,
0.099334955,
-0.40752235,
0.16127633,
-0.21250676,
0.08132475,
-0.034299225,
0.33333004,
0.14522515,
-0.74568564,
-0.097160555,
-0.0078063007,
-0.13644911,
-0.0767534,
-0.20513055,
-0.1894939,
-0.14087377,
-0.059741646,
-0.27626583,
-0.061808914,
-0.117569245,
-0.095308356,
-0.15759668,
-0.07650016,
0.023462132,
-0.23019423,
-0.45673794,
-0.10857257,
-0.0024043985,
-0.0026920342,
0.20756467,
-0.06383575,
-0.3782589,
0.20292176,
-0.23609644,
-0.24942936,
0.004938097,
-0.07019152,
0.04581639,
-0.056560624,
0.01874966,
0.02171564,
-0.010153606,
0.01687877,
0.030059319,
-0.046195224,
0.046736304,
0.056450147,
-0.016175466,
0.014807607,
0.022238035,
0.045758676,
-0.028013809,
0.041889414,
-0.07453056,
0.03606422,
0.0150468005,
0.030008495,
0.017414212,
0.046228874,
-0.011569849,
-0.022455143,
-0.04381892,
-0.033061136,
0.02141039,
0.022290606,
-0.033860337,
-0.039585404,
0.06288007,
-0.0139619885,
-0.059334077,
-0.022833945,
-0.058415,
0.008873624,
-0.030761885,
-0.060586676,
-0.06711776,
-0.020720629,
-0.051461965,
-0.00089599704,
-0.043964777,
-0.0022566337,
0.031420343,
-0.031190524,
-0.037406888,
-0.06698216,
-0.05875327,
0.047884703,
-0.019748501,
0.027127977,
-0.04729798,
-0.034607425,
-0.04654852,
-0.04042482,
0.09387453,
0.0038136444,
-0.031149216,
0.010587068,
0.03133904,
-0.063067615,
-0.0049038944,
-0.019785935,
0.02677214,
-0.039122798,
-0.06383448,
0.04566677,
-0.03927096,
0.013254072,
0.021857971,
0.0415511,
-0.040299937,
-0.03557945,
0.034362834,
0.01655047,
0.026525147,
-0.030913824,
-0.055444337,
0.034324706,
0.003996829,
-0.03282292,
-0.04991241,
-0.008055391,
-0.06330534,
-0.053542983,
-0.06624006,
-0.02522032,
-0.032455895,
-0.0142442025,
-0.023567403,
0.020375421,
0.0017002674,
0.04848151,
0.06464004,
-0.030018752,
-0.0514094,
-0.008537849,
0.029964346,
-0.02057005,
-0.042118903,
-0.015358838,
-0.056363482,
0.05133613,
-0.07585593,
-0.023232775,
0.09960088,
-0.04372425,
0.039054606,
-0.06325722,
-0.016272834,
-0.06500764,
-0.04238131,
-0.004196452,
0.021282546,
-0.025098052,
0.0039963387,
-0.040728223,
0.014304752,
0.009790502,
-0.0049892333,
0.011689281,
0.021333285,
0.006479275,
-0.0699343,
0.021170584,
-0.13569832,
-0.30392918,
-0.18348594,
-0.06614553,
-0.36481988,
-0.25097674,
-0.19088456,
-0.27782968,
-0.06666671,
0.068993844,
-0.18089454,
0.12940873,
-0.0862332,
0.10943718,
0.33969364,
-0.02123195,
-0.15142803,
-0.23682468,
-0.11789052,
-0.27240726,
-0.22656836,
-0.017804362,
-0.04270171,
-0.37060377,
-0.20817079,
-0.2750902,
-0.27144784,
-0.19165348,
-0.049509082,
-0.087108165,
-0.05154476,
-0.19739231,
-0.5735358,
0.022563836,
-0.25939322,
0.06600472,
0.20478547,
-0.34707698,
-0.0839825,
0.035879843,
0.05183917,
0.2741906,
-0.18705276,
-0.065868296,
-0.0019208981,
-0.13358153,
-0.37669837,
0.09322607,
0.14649883,
-0.36766466,
-0.06468834,
0.03926919,
0.033148505,
-0.34609854,
0.03152941,
-0.0009209007,
-0.15146147,
0.25125018,
0.24796458,
-0.23919734,
0.2887035,
-0.007801208,
0.20579955,
-0.74271816,
-0.34456944,
0.00054013875,
-0.37777233,
-0.19554983,
-0.122554556,
0.018208778,
-0.54207146,
-0.18795383,
-0.59468675,
-0.16154337,
-0.48627806,
0.026923364,
-0.0686303,
-0.009766053,
0.268923,
-0.08964563,
-0.11740758,
-0.14132881,
-0.013057793,
0.09914925,
-0.053041726,
-0.31596798,
-0.41670248,
-0.0011479543,
-0.2639046,
-0.08905401,
0.0514327,
-0.053811315,
0.031304237,
-0.5542156,
-0.28734294,
-0.060642615,
0.030704755,
0.1119853,
-0.017593158,
-0.08288873,
-0.27130952,
-0.11408254,
-0.30440393,
-0.01209501,
0.1694714,
-0.088343576,
-0.5978088,
-0.18535274,
0.62738,
-0.038883258,
-0.026151445,
-0.6965858,
0.0954525,
-0.1003723,
-0.30730885,
0.009981641,
0.20560025,
-0.22775652,
-0.21523403,
-0.17994764,
-0.033401947,
-0.03666026,
0.053515546,
0.050712522,
-0.01393107,
-0.0099809775,
0.003998004,
0.07565902,
-0.04918538,
-0.046128947,
-0.030978769,
0.07244339,
-0.0043365946,
-0.024197418,
0.055112325,
0.010969007,
-0.019837448,
-0.0070008566,
0.11263057,
-0.012390671,
0.05081113,
0.053810973,
-0.008641116,
-0.010170841,
0.016688267,
-0.021761008,
0.023836838,
-0.0025575198,
-0.07944975,
-0.0063124653,
0.047949597,
0.00600202,
0.061386622,
0.04575674,
-0.024172453,
0.0077950903,
0.009877868,
-0.03906161,
0.062159933,
-0.053674188,
-0.016813982,
0.033913247,
-0.018785486,
-0.035018332,
-0.04025219,
-0.059931476,
0.018460795,
0.0056976154,
-0.040491417,
-0.030506756,
-0.029709246,
-0.055001434,
-0.04689898,
-0.038601622,
-0.04912326,
0.016285507,
0.012638717,
0.027130686,
-0.04850137,
-0.020133916,
-0.05103478,
0.07577955,
-0.029257989,
0.038421754,
0.022932518,
0.004555053,
0.04610122,
0.030152835,
-0.028734162,
0.012323942,
-0.030339599,
-0.05816044,
0.08384835,
-0.021994121,
-0.014420397,
-0.04847642,
-0.009330637,
-0.013085281,
0.03591766,
0.037433043,
0.044388156,
0.06426363,
-0.032093976,
-0.044579763,
-0.014720835,
-0.0060535907,
0.102270365,
0.0131203,
-0.009679067,
-0.038623527,
-0.03057358,
0.07759786,
-0.049836855,
0.01895626,
-0.022075295,
-0.035481367,
-0.065187804,
0.01685306,
-0.026853973,
0.010209466,
-0.04897572,
0.056620333,
-0.07269198,
0.012006218,
-0.04905895,
0.028904576,
-0.031213138,
-0.04250618,
-0.059091028,
-0.06512897,
-0.013016776,
0.0008348345,
-0.0176432,
0.0031121813,
-0.0417269,
-0.008435718,
0.04096052,
0.048288096,
-0.004336473,
0.018988466,
-0.002657682,
-0.03056173,
-0.033315703,
0.02016576,
-0.028390305,
0.050302695,
0.017648552,
-0.036138482,
-0.0052512437,
-0.049737662,
-0.009574011,
0.048978727,
-0.0174334,
-0.01752952,
-0.03536873,
0.033218868,
0.20766449,
0.22199544,
-0.13428198,
-0.40303168,
0.010409802,
-0.3006823,
-0.1409755,
-0.086281456,
-0.03593119,
-0.06916813,
0.13502236,
-0.26335037,
0.011557928,
-0.47753677,
-0.0745935,
-0.034384463,
-0.037586108,
-0.031847086,
-0.14058727,
-0.06409538,
0.007235831,
-0.020081805,
-0.09672731,
0.12890813,
-0.030415574,
-0.14804566,
-0.34118056,
0.055418342,
-0.24309172,
-0.053178508,
-0.012795198,
-0.11868701,
-0.1526406,
0.088191256,
-0.055162665,
-0.19302717,
-0.012615727,
-0.18342602,
-0.034529734,
-0.031785835,
-0.029570868,
-0.13069521,
0.40379366,
-0.008347164,
0.020401135,
-0.01872485,
-0.001558842,
-0.08947143,
0.118026555,
-0.23762754,
-0.06680297,
-0.02009927,
-0.049283158,
0.2436823,
-0.22969443,
0.0113576045,
0.29884797,
-0.20486069,
-0.009352308,
-0.0201832,
0.019152332,
-0.10028484,
0.21133456,
0.18581434,
-0.15529057,
-0.06571968,
0.26997453,
-0.15017472,
-0.040166393,
-0.07334393,
-0.20074105,
0.31610402,
0.1593381,
-0.31924596,
0.029751437,
-0.056284934,
-0.0009309478,
0.25092682,
-0.06727095,
0.051774543,
-0.18135445,
0.039174538,
0.009407485,
-0.17082392,
-0.08582743,
-0.013787965,
-0.28988224,
-0.013189509,
0.49881372,
-0.00406823,
-0.12860234,
0.063718885,
0.017079713,
0.030102227,
-0.5889651,
0.04295885,
-0.11368723,
0.031121576,
0.017506234,
-0.16612217,
0.078753,
-0.14866799,
0.111935526,
0.033729725,
0.029333726,
-0.00013823505,
0.093230404,
-0.026910746,
-0.056651384,
0.00708277,
-0.28102595,
0.23599827,
-0.14763442,
-0.087274455,
0.15339606,
0.115063496,
-0.30820894,
-0.098102845,
-0.25676116,
-0.27353853,
-0.063791245,
-0.059268262,
0.094504386,
0.014403959,
-0.03445421,
0.14082304,
-0.022715112,
0.083787255,
0.2964924,
0.45788938,
-0.25295055,
-0.30393082,
0.19394232,
0.09758133,
0.12112671,
0.02350587,
-0.043992914,
-0.23834899,
-0.0140030775,
-0.30965507,
-0.027716057,
0.39849198,
-0.21184066,
-0.10926455,
-0.18254273,
-0.21754621,
-0.28904933,
-0.27572247,
0.06345575,
-0.046202123,
-0.06784326,
-0.02029924,
-0.07226823,
-0.0069078407,
-0.20240526,
0.012349651,
-0.0931059,
-0.04658806,
-0.055423476,
-0.14412133,
-0.44065368,
-0.24593736,
-0.15261576,
0.021673238,
-0.16860688,
-0.016001558,
0.013478043,
-0.09511806,
-0.07003934,
-0.057722703,
-0.16466013,
-0.027573036,
-0.09085043,
-0.10773784,
-0.110669136,
-0.47151533,
-0.07224662,
-0.0025600153,
-0.038325563,
-0.003850736,
-0.03925769,
-0.28605077,
-0.36840895,
0.13994274,
0.0333237,
0.42905992,
-0.08575919,
-0.0069611575,
-0.42912546,
-0.05750772,
0.27310342,
0.062471725,
-0.20664397,
-0.0022450353,
-0.08457053,
-0.085247256,
-0.09461375,
-0.10890744,
0.14470372,
0.3187493,
0.11413778,
-0.21976615,
-0.20008095,
-0.59182537,
-0.041863754,
0.06573796,
0.16815734,
-0.018100709,
-0.021366786,
0.14592206,
0.025197254,
-0.22078353,
-0.052184775,
-0.021498298,
-0.609519,
0.041003514,
-0.0010737864,
0.01906713,
0.02188921,
-0.068631575,
-0.05719691,
0.027476663,
0.05794095,
0.03929736,
-0.55001783,
-0.5230223,
-0.018863857,
-0.14265901,
-0.18627065,
0.010047455,
-0.1666933,
-0.05940191,
0.32872504,
-0.036319084,
0.19644624,
-0.1768396,
-0.36830005,
-0.094319604,
0.14725764,
0.027477587,
-0.17169294,
0.08690222,
0.03674715,
-0.13814723,
-0.45155215,
-0.4077949,
-0.021067709,
0.15545414,
-0.037280973,
-0.095031105,
-0.2441193,
-0.36154145,
-0.14463827,
-0.07628102,
-0.4002793,
0.034789484,
-0.12439333,
-0.05162491,
-0.4173427,
-0.053693775,
-0.13934937,
-0.49382252,
-0.2077849,
-0.3027161,
0.040198293,
-0.54059607,
0.14495392,
0.009695743,
-0.021941848,
0.045465376,
-0.19769965,
-0.016629625,
0.15268081,
-0.23111074,
0.31812984,
-0.06100675,
-0.34161305,
-0.012394692,
-0.08794915,
-0.40401283,
-0.08846886,
0.0824791,
-0.23358254,
0.14960459,
-0.106062934,
-0.00058529584,
-0.040266883,
-0.2026116,
-0.234963,
0.36136118,
-0.043965776,
-0.6935857,
-0.018139232,
-0.028819945,
-0.10677918,
0.035153065,
-0.07950421,
0.043580387,
0.079286925,
0.01131785,
-0.037605237,
-0.041952193,
0.12559725,
-0.46732834,
0.0014539718,
-0.2393453,
-0.06010077,
0.03574872,
-0.039108682,
-0.20061179,
-0.030194504,
-0.14363281,
-0.48869315,
-0.46824604,
0.064273514,
0.24097633,
0.2197526,
-0.024783641,
0.0043715537,
0.13501845,
-0.059852287,
-0.08597124,
-0.1271811,
-0.40938812,
0.03213715,
-0.044254906,
-0.24157025,
-0.23208207,
0.6984564,
-0.46895,
-0.30577296,
-0.107354656,
-0.032330457,
-0.012424068,
-0.121439636,
-0.043454178,
-0.121529914,
-0.013234368,
-0.0129240565,
0.18625438,
-0.023791254,
-0.12909646,
0.16376396,
-0.029762682,
0.15956041,
0.0039863694,
0.05103828,
0.028627971,
-0.07914415,
-0.567785,
-0.072820306,
-0.053199857,
-0.09617632,
-0.15714218,
0.05982226,
-0.26438883,
-0.08240824,
0.105534956,
-0.091202974,
-0.03713108,
-0.19397114,
-0.020606626,
-0.10288423,
-0.6000883,
0.26720226,
-0.04442222,
-0.060429107,
0.14568178,
-0.007000711,
0.18638277,
0.084645666,
-0.47134084,
-0.057930265,
0.045154233,
0.2555664,
-0.21573092,
-0.039031748,
-0.03110054,
-0.2739239,
-7.7710865e-05,
0.18173935,
-0.15338281,
-0.34438676,
0.14562877,
-0.14918822,
-0.55283076,
-0.16132472,
-0.3111219,
-0.4218212,
0.18398139,
-0.017047383,
0.20342521,
-0.059816074,
0.19267903,
-0.3627845,
-0.19699195,
0.0019698774,
-0.23873879,
-0.16667722,
-0.09220727,
-0.33174768,
-0.018365538,
0.085861385,
0.14230922,
-0.12677489,
-0.052529454,
-0.046711694,
-0.073832594,
-0.025514903,
-0.03534662,
-0.13968995,
0.10884261,
0.2416115,
-0.0312373,
-0.09214519,
-0.510594,
0.48417607,
-0.33310637,
0.08307609,
-0.016792478,
-0.0766989,
-0.3988229,
-0.059034288,
0.017926224,
0.0011615024,
-0.22556967,
-0.11776677,
-0.08370926,
0.015314855,
0.04289712,
0.19398816,
-0.061608218,
-0.22680464,
-0.08453398,
-0.0197138,
0.009926207,
0.01642496,
0.3282458,
-0.061539147,
-0.03288094,
-0.07645385,
-0.23134086,
-0.20352778,
-0.0657682,
-0.30513245,
-0.004892602,
-0.24996865,
-0.877075,
-0.17271252,
-0.0030554614,
-0.13186902,
-0.108696625,
0.06548274,
-0.03272941,
0.32870778,
-0.3612281,
0.28360528,
-0.40781385,
-0.33275744,
-0.29324853,
-0.054375194,
-0.2582221,
-0.14133283,
-0.0083841365,
0.13949084,
-0.194086,
-0.019479044,
0.016240338,
-0.005206027,
-0.08744516,
-0.040117394,
-0.03374673,
-0.7050047,
-0.035609458,
-0.1363033,
0.007097597,
-0.015589941,
-0.3492027,
-0.17084101,
-0.08045492,
-0.10643526,
0.20931971,
-0.009121673,
-0.24679962,
-0.29946673,
-0.1627373,
-0.1509184,
-0.07190778,
-0.11204806,
-0.051379796,
-0.22738878,
-0.06842011,
-0.29498047,
0.014111493,
0.08103695,
0.19475982,
-0.05068701,
-0.08283928,
0.06705855,
-0.147866,
0.05885126,
0.21850096,
0.010650661,
0.19707887,
0.052227717,
0.017573848,
0.106616385,
0.18838441,
0.20462526,
0.19195804,
0.19831966,
-0.00882091,
-0.024036238,
-0.08551051,
-0.049683686,
-0.026325917,
0.036701478,
0.08490236,
0.045233544,
0.040817063,
0.029432388,
-0.063742094,
0.0053208335,
0.051192764,
-0.029017419,
0.10908111,
0.0993777,
-0.002021582,
0.040351532,
-0.06262473,
0.074053146,
0.011103326,
0.18040136,
0.010719491,
-0.0043725963,
-0.14658098,
0.0032636358,
-0.039207235,
0.038799368,
-0.04414684,
0.08762311,
-0.037753075,
0.04052037,
-0.008772235,
-0.10761595,
0.091045655,
0.023055116,
-0.0637291,
-0.008818343,
0.023877483,
-0.041066736,
0.015854998,
0.055047844,
0.0879622,
0.04143692,
-0.06665977,
0.027759703,
-0.0073443744,
0.04849801,
-0.118478514,
0.13587232,
0.08476588,
-0.03200311,
0.057843328,
-0.017668819,
0.042231392,
0.18685298,
0.059720676,
-0.00646324,
0.03551188,
0.110506326,
-0.0095956,
-0.07388479,
0.046531174,
0.05929444,
0.07307765,
0.10254893,
-0.031878665,
-0.12960608,
0.15596448,
0.002609493,
-0.022820778,
0.0992034,
-0.04169922,
0.0015286541,
-0.005975151,
-0.16703378,
-0.07960733,
0.051877424,
-0.037085194,
-0.0963726,
0.016930137,
0.0391649,
-0.18400292,
-0.04984521,
0.017361261,
-0.025355479,
-0.1220828,
-0.18162093,
0.017863186,
0.018714055,
0.0010255822,
-0.0464326,
0.044847157,
0.059176315,
0.067779385,
0.13562715,
-0.021764232,
0.027006287,
0.0025471593,
-0.008463566,
-0.17726114,
-0.04868793,
0.04763791,
0.26311982,
0.0368074,
0.14410539,
-0.0102055045,
-0.141586,
-0.1289995,
0.02383453,
-0.03487622,
-0.08728615,
0.14482987,
-0.049255736,
0.06992763,
-0.083956316,
0.069234505,
0.10878199,
-0.098875396,
-0.11257851,
0.064300455,
0.04032387,
-0.038045365,
-0.022608433,
0.12575802,
-0.10007708,
-0.14074193,
0.05073455,
-0.038854953,
0.07001611,
0.029719755,
0.32721266,
-0.36395058,
-0.037377816,
-0.29379565,
-0.18469337,
-0.016719792,
0.048353974,
0.18378836,
-0.076714374,
-0.24488635,
-0.0663038,
-0.10728867,
-0.20268114,
0.009193811,
-0.12897241,
0.02286103,
0.036233604,
-0.30677214,
0.11332976,
0.05673017,
-0.030673187,
0.33238995,
-0.10140772,
0.3261652,
0.12021037,
0.030552244,
0.07545308,
-0.03959957,
0.013508861,
-0.16895524,
-0.1089437,
0.015186157,
-0.44132578,
-0.15942149,
0.058619026,
-0.323705,
8.7643566e-05,
-0.009769915,
0.052038923,
-0.09469633,
0.099759,
-0.038350582,
-0.059645604,
-0.08378037,
-0.15295011,
0.01351357,
-0.14984384,
-0.2259144,
-0.06792308,
-0.05109867,
0.0043384014,
-0.27149412,
0.019848904,
0.043987077,
-0.07689526,
-0.32200795,
-0.27395904,
0.32087088,
-0.067480974,
0.0013908691,
0.07419374,
0.018131446,
0.0067463517,
-0.04932484,
-0.5181838,
0.20865057,
-0.072932534,
0.0037668603,
-0.34675872,
0.17785992,
-0.14221503,
-0.20322253,
0.107027985,
0.04896572,
-0.011492685,
-0.024061067,
0.088332854,
-0.06095393,
-0.02433123,
-0.38886303,
-0.025660476,
-0.14995457,
0.0026939171,
0.123134054,
0.05246402,
-0.03655346,
-0.27744785,
0.046301674,
-0.17357223,
0.037091166,
-0.08845745,
0.08180079,
-0.39267293,
0.100604825,
-0.029601859,
-0.08411437,
-0.046862204,
0.014524334,
-0.2866094,
0.2282859,
-0.09324917,
-0.096159145,
0.037932344,
0.021116009,
0.071694955,
0.0008930567,
-0.2833363,
-0.011575755,
-0.07223915,
-0.43736422,
-0.08420609,
0.21234001,
0.25204802,
-0.08819183,
-0.10838706,
-0.21533565,
0.3422071,
-0.20927526,
-0.016593765,
0.0056544375,
0.028432734,
-0.38732642,
-0.0020258026,
4.646158e-05,
0.05829001,
-0.077127114,
0.04796109,
0.017396262,
0.039601266,
-0.004522362,
-0.04430021,
-0.028434409,
-0.034053273,
-0.024958141,
0.051468585,
-0.04356711,
0.04222789,
-0.037246935,
0.03853213,
-0.00029906625,
-0.03131391,
0.042676426,
-0.025766186,
-0.050212227,
0.0071867863,
0.01405427,
-0.047369167,
0.019039135,
0.04858862,
-0.010040261,
-0.017904961,
-0.038670883,
-0.057658616,
-0.04756215,
0.027106924,
0.035553377,
-0.016078133,
0.015728869,
0.031105043,
0.03713185,
-0.006005072,
0.07245789,
0.003393194,
-0.04795524,
0.0049714516,
0.002533516,
0.047335897,
0.022880109,
0.04612058,
-0.0028670612,
-0.023903301,
-0.004589533,
0.009288969,
-0.011320644,
0.040211305,
0.023845302,
-0.05712708,
-0.028755773,
0.015854742,
0.02157255,
-0.037746366,
0.031070497,
-0.013890747,
0.02598972,
0.014587342,
-0.021866543,
-0.001458678,
0.014715377,
-0.05051469,
-0.052688684,
0.07110714,
0.04676716,
0.0011647645,
0.01270287,
-0.02278095,
-0.050962072,
0.00058048964,
-0.025944347,
0.05499814,
-0.0050118244,
-0.042799834,
-0.03664941,
0.018083517,
-0.01497378,
0.024258144,
0.061229967,
-0.053947985,
0.025700936,
-0.044282332,
-0.052156772,
-0.027676176,
0.03948981,
0.029108766,
-0.026417349,
-0.061069056,
-0.055122707,
0.021225816,
0.026239028,
-0.013714232,
0.016663326,
0.014321383,
0.026271023,
-0.01674323,
-0.044724915,
-0.0258245,
0.018356891,
-0.05057829,
0.05033914,
0.026967395,
0.0058254832,
0.025036143,
-0.034718215,
-0.0014139629,
-0.03642047,
0.040156163,
0.0119055845,
-0.027535575,
-0.025080195,
0.04040659,
0.051306207,
-0.02379823,
0.020035246,
-0.04374683,
-0.01398045,
-0.012246856,
-0.0120456675,
0.0013850299,
0.02998153,
0.046570852,
-0.06052254,
-0.04453602,
0.02294622,
0.046890832,
-0.01628433,
-0.20035525,
-0.24997109,
0.02446044,
-0.24643299,
-0.34627965,
-0.22355399,
-0.008654652,
-0.074004814,
-0.017273774,
-0.23726825,
-0.07888177,
0.47109202,
-0.044126913,
0.10707381,
-0.19488141,
-0.09559978,
0.20274867,
-0.251701,
-0.14690712,
0.25537336,
-0.37048233,
0.0060397005,
-0.002569895,
-0.12948261,
-0.047484547,
-0.030815333,
-0.6376108,
0.152102,
0.06842641,
-0.0070360363,
0.030932369,
-0.26257205,
-0.3312389,
0.16782017,
-0.21492024,
-0.28041217,
-0.14912102,
-0.33459693,
0.03630168,
0.033639103,
0.019375524,
-0.5106817,
-0.1971158,
-0.053047534,
-0.03305124,
-0.085487925,
0.2067539,
-0.47303128,
-0.07666433,
-0.3570723,
-0.0003212703,
0.0053187916,
-0.049526487,
-0.35006773,
-0.205723,
-0.4550888,
-0.1852738,
-0.025508039,
0.11275575,
-0.038939897,
-0.034643255,
-0.0344501,
-0.3881959,
-0.43340993,
-0.3432135,
0.0061217896,
-0.36157867,
-0.26219976,
-0.011835254,
-0.03682172,
-0.41587314,
0.09100148,
0.042907897,
-0.183682,
-0.2767988,
-0.31162316,
0.022858845,
-0.005517517,
-0.13866837,
-0.00987302,
-0.07121157,
0.048719075,
-0.026262857,
-0.17710793,
0.029383067,
0.024826983,
-0.021723812,
-0.017281584,
-0.3974857,
-0.03964783,
0.08764105,
-0.0026813874,
0.04481217,
0.18135062,
0.010294824,
0.0156073645,
-0.2785289,
0.22079995,
-0.013458067,
0.054482173,
0.25384104,
-0.6782857,
-0.12832321,
-0.047610126,
0.017837178,
0.024423249,
-0.08319248,
-0.06911738,
0.33041033,
0.012571766,
0.05544961,
0.17319717,
-0.16496903,
0.026123244,
-0.13153423,
-0.38944903,
-0.14681289,
-0.2646944,
-0.013603367,
-0.23537,
-0.05916777,
-0.010223196,
-0.0019740444,
-0.20587195,
0.11001104,
-0.017523259,
-0.26749006,
0.096108966,
0.024473172,
-0.016629681,
-0.004591198,
-0.011182923,
-0.05094218,
0.04277961,
0.024578413,
-0.05506164,
-0.020153502,
0.0016045104,
0.04773146,
0.031316224,
0.0019453724,
0.057201307,
-0.040444568,
-0.020050164,
-0.02908572,
-0.0587546,
0.041420907,
-0.013596541,
-0.042673584,
0.054443683,
0.032861713,
-0.055772055,
0.011990189,
-0.022454206,
0.0045481147,
-0.047195226,
0.025654688,
-0.016950192,
-0.0033682638,
0.035310246,
-0.04979329,
-0.008922332,
-0.011256049,
-0.011125171,
-0.006558975,
-0.032895997,
-0.03172155,
0.036813203,
0.034815073,
0.0156845,
0.020740306,
-0.03152137,
-0.058879342,
-0.048684638,
0.042004205,
0.039683357,
-0.039335795,
0.03871212,
-0.041490074,
0.005444165,
-0.013647966,
-0.0044418094,
-0.048305597,
0.024414431,
-0.005254226,
0.05051837,
0.041226838,
0.04774682,
0.049198784,
0.015002299,
-0.06768902,
-0.042233445,
-0.0110955555,
0.02344427,
-0.053472035,
-0.040176243,
-0.04917894,
0.0021312525,
0.00828604,
0.04090126,
0.05743498,
-0.021854682,
-0.012282007,
-0.0005894545,
-0.04618599,
0.020720663,
-0.057552304,
0.024082297,
-0.04246923,
-0.04438117,
-0.009973819,
-0.0072469604,
-0.0011155243,
-0.051025018,
-0.015329426,
-0.037897088,
0.07400668,
0.042982314,
-0.0081049055,
-0.015645623,
-0.029084926,
0.002282992,
0.059716612,
0.036868475,
-0.009249981,
0.029873021,
0.053029202,
-0.01626354,
0.034130134,
-0.021328755,
0.054808024,
-0.046043836,
-0.02734354,
-0.045134064,
-0.016659122,
-0.0037383086,
0.026439028,
0.028939197,
0.026754707,
-5.7532136e-05,
-0.010218642,
-0.033316966,
-0.045547985,
-0.06316473,
-0.010347292,
0.051095456,
-0.035343554,
0.030855529,
0.03895237,
-0.054593742,
-0.05631749,
-0.02433822,
0.0059195883,
0.009711445,
0.043288015,
-0.047022685,
-0.18265645,
-0.028733023,
-0.011858247,
0.111459285,
0.36258316,
0.36729515,
-0.33318412,
0.054739702,
0.015010049,
-0.11887948,
-0.092630126,
-0.097923905,
-0.020527,
0.027970936,
-0.629845,
-0.15920568,
-0.21184912,
0.12291673,
-0.14219101,
-0.3708187,
0.030358257,
0.036537305,
-0.015471866,
-0.26842278,
-0.17583437,
0.23564799,
0.13700344,
-0.005240532,
0.19216003,
-0.012773903,
-0.05564484,
0.11713947,
0.12369017,
0.16851003,
0.634003,
0.4458858,
0.14693768,
-0.033864073,
0.023678731,
0.013657185,
0.0416854,
-0.42267594,
-0.046109777,
-0.021575343,
-0.11027102,
-0.036947396,
0.03958487,
-0.47588447,
-0.04092585,
0.1190266,
-0.014036876,
-0.06303476,
0.024347898,
0.13962395,
-0.24251902,
-0.17609021,
0.07692737,
0.22609062,
-0.018710926,
0.031926826,
-0.13772207,
0.02202163,
-0.078388736,
-0.04431976,
0.24162562,
0.04135452,
-0.022802867,
-0.11764098,
-0.0703818,
-0.055970732,
-0.1939395,
-0.57291704,
0.16981865,
0.5706505,
-0.14932941,
-0.09767726,
-0.0643526,
-0.21029238,
-0.33246773,
-0.042646237,
-0.072094835,
-0.54595435,
-0.042477433,
0.046089992,
0.029935133,
-0.022885658,
-0.13358957,
0.03236061,
-0.5307112,
-0.013239392,
-0.2450684,
0.009823714,
0.06304014,
0.07243409,
0.03961716,
-0.02017235,
-0.03369451,
-0.22076565,
-0.056199588,
-0.065409996,
0.21913724,
0.049398787,
-0.64773643,
-0.053885195,
-0.3616504,
-0.08636799,
0.07005089,
-0.054341324,
-0.011458756,
-0.022084523,
-0.6504761,
0.31415826,
-0.16090116,
-0.10951078,
-0.18928885,
0.08182064,
-0.13580778,
-0.2435301,
0.02615991,
-0.15708542,
0.014561177,
0.053030808,
-0.09392409,
0.07579516,
-0.37835476,
-0.46979776,
0.08156582,
0.122324936,
0.0015351303,
0.03535672,
-0.05740921,
0.00040178443,
-0.049857683,
-0.0017958123,
0.008555966,
-0.028511032,
0.009905103,
0.018089175,
0.022018082,
-0.014986117,
-0.053851478,
-0.03893011,
0.009184051,
0.008118922,
-0.010120793,
0.04922627,
0.069215104,
-0.012651268,
0.011183707,
-0.05107526,
0.052622773,
-0.023912191,
0.03369789,
-0.03224279,
-0.000676906,
-0.02473368,
0.07188738,
0.026029354,
-0.0016426101,
-0.008168278,
0.015261783,
-0.012812165,
0.084527224,
0.0151410885,
-0.023548124,
-0.04884634,
0.029131893,
0.034251377,
-0.05935579,
-0.04490401,
0.010810509,
-0.07066788,
-0.040850997,
0.009055877,
-0.010687289,
0.022865275,
-0.06304609,
0.04036129,
-0.05342979,
-0.051405635,
-0.03109936,
-0.039641153,
-0.00058191625,
-0.0057314634,
-0.006210651,
0.007001647,
-0.03553748,
-0.052491356,
0.038863905,
-0.05399429,
-0.008710509,
-0.03195572,
0.0051097227,
-0.025489835,
0.046294365,
0.024611535,
0.0038347486,
0.05030163,
-0.05399568,
0.002551167,
-0.021969046,
0.062420145,
0.0155303385,
-0.06530854,
0.021385856,
-0.011673884,
0.056093708,
-0.014988085,
0.033615638,
0.008392421,
0.011387191,
-0.0051129214,
-0.012240648,
0.020849012,
0.0074277213,
-0.024052363,
-0.05727469,
0.022626996,
0.05440782,
0.017934483,
-0.005296241,
0.03870707,
0.011392966,
-0.04329058,
0.046591166,
0.03536946,
-0.048725646,
-0.024155322,
0.042698428,
-0.001413522,
0.00734232,
0.03885597,
0.02613366,
0.013750691,
0.018752158,
0.028972052,
0.044593614,
-0.05633459,
-0.04943,
0.043094646,
-0.003899429,
0.06268302,
0.04595684,
0.0024051622,
0.037458878,
0.013764774,
0.009620262,
-0.012249115,
0.029230919,
0.018360976,
0.045705166,
0.031604387,
0.025672227,
-0.020474356,
-0.045381576,
-0.06276483,
-0.032194443,
0.075749375,
-0.14694482,
0.0998892,
-0.27708066,
-0.3379032,
0.23092985,
-0.018680336,
-0.068865046,
0.21726748,
0.262933,
0.046158843,
0.029102508,
-0.0077745845,
-0.083365,
-0.18217638,
0.10911956,
-0.11824636,
0.043313667,
-0.05025906,
-0.0014940784,
-0.0041937893,
-0.03489682,
-0.23777491,
-0.07748469,
-0.18684863,
0.0070568807,
-0.079643376,
-0.35664845,
-0.055878144,
-0.034716174,
0.0875395,
-0.15411954,
0.21454342,
-0.16425082,
0.26311243,
-0.020459678,
-0.06682178,
-0.055305544,
0.01069151,
0.011888092,
0.10279046,
-0.47677717,
-0.001945278,
-0.052561693,
-0.075407736,
-0.10625268,
-0.20480305,
0.13617796,
-0.15461749,
0.009278291,
-0.04322399,
-0.051619355,
0.11682548,
0.084497586,
-0.32653472,
0.26907983,
-0.04023994,
0.20958695,
-0.2792663,
-0.061152834,
-0.004163314,
0.21028166,
-0.044770073,
-0.031438556,
-0.022449892,
0.10066176,
-0.5414876,
-0.017858997,
-0.025539776,
0.26573026,
0.13041489,
0.5321563,
-0.090272315,
-0.019038316,
0.05418871,
-0.030818574,
-0.020664338,
-0.39011216,
-0.048346512,
0.02807295,
0.058077186,
-0.089999944,
-0.33375022,
-0.03353968,
-0.14049086,
-0.21079443,
-0.053956944,
0.28416374,
-0.03947303,
0.20309447,
-0.01809594,
-0.10891036,
-0.42045957,
-0.27534458,
-0.04708959,
-0.14661932,
0.20739093,
-0.063913934,
-0.11681793,
-0.024426095,
0.018998796,
-0.27498785,
0.01798896,
-0.30644843,
-0.051674847,
-0.06272324,
-0.2814201,
0.42897406,
-0.047589585,
-0.24723454,
0.013276154,
0.046678606,
-0.04020396,
0.035609767,
0.05025911,
-0.08588338,
-0.14521872,
0.009813654,
-0.14976482,
-0.019717308,
-0.052065197,
-0.16624984,
-0.025358267,
0.11270475,
0.025316373,
-0.3823691,
0.15123406,
-0.22603828,
-0.47054383,
0.16927473,
-0.21158704,
-0.22561099,
-0.072804175,
-0.024393708,
-0.28515375,
-0.06120813,
0.0314273,
-0.12943959,
0.15546435,
0.013188252,
-0.124645345,
0.15991873,
-0.029383156,
-0.29682902,
-0.17889841,
-0.03667061,
0.23619685,
-0.26017982,
0.021387724,
-0.06517996,
-0.13438854,
-0.08484611,
-0.30993214,
-0.6835716,
-0.08757706,
-0.044352613,
-0.10198807,
-0.099370025,
-0.47734642,
-0.3670392,
-0.12680055,
-0.15562549,
-0.2967313,
0.07636346,
-0.31974196,
-0.030650256,
0.04055939,
0.04116288,
0.10092408,
-0.51366156,
-0.07225021,
-0.085503034,
-0.06118847,
-0.04551146,
-0.07797966,
0.061726775,
-0.19621952,
0.015754959,
-0.060175266,
-0.099109344,
0.0027932855,
0.13179739,
-0.090666816,
-0.23364836,
0.057051048,
0.39962986,
-0.12849155,
-0.1482716,
-0.017157733,
0.058981158,
-0.8325216,
-0.20968992,
-0.01038943,
-0.77629477,
-0.25802308,
-0.03773688,
-0.08860674,
0.2641963,
-0.0056580594,
0.004979057,
-0.024051119,
-0.18417521,
-0.019765366,
-0.01443531,
-0.06411062,
0.090574615,
-0.045070026,
-0.23544808,
-0.05671428,
-0.08801181,
-0.13761498,
-0.05078167,
-0.19763322,
-0.012765325,
-0.05143335,
-0.22524329,
-0.029892819,
-0.08649474,
-0.06906251,
-0.0003531976,
-0.3808841,
-0.15297909,
-0.116649136,
-0.014737686,
0.49163985,
0.00027700927,
0.2552621,
-0.15096834,
-0.001624415,
-0.38577062,
-0.06403754,
0.20448156,
-0.04286403,
-0.24321298,
0.086556226,
0.26394227,
0.05015919,
0.13855782,
-0.13483752,
0.21552345,
-0.22021939,
-0.23682772,
-0.08489227,
0.08588552,
-0.24834266,
-0.23622774,
0.013853055,
-0.043520484,
-0.06211987,
0.10324882,
-0.27147287,
-0.32357246,
-0.5015049,
-0.20817666,
0.10184373,
0.26715672,
-0.061783332,
-0.052309994,
0.25178042,
-0.27791286,
-0.41789955,
-0.17591886,
-0.21009223,
-0.03932902,
-0.28186968,
0.2102676,
-0.40191308,
-0.06591163,
-0.32541183,
-0.053005274,
0.09029174,
-0.29244453,
-0.1863709,
-0.12513222,
-0.0934369,
0.19290493,
-0.04011566,
-0.0061457455,
-0.09398205,
-0.03016151,
-0.4337057,
-0.3433465,
-0.023908371,
0.22227906,
-0.08706952,
-0.05152211,
-0.35300764,
0.23669384,
0.3515089,
0.040060315,
-0.596471,
-0.40659606,
-0.32919207,
-0.010556947,
-0.07056474,
-0.00071016274,
0.12022224,
-0.08727388,
-0.041236788,
-0.036768463,
-0.100762986,
-0.34267426,
-0.20140067,
0.14721288,
-0.4042605,
-0.011254153,
-0.009806775,
-0.04334678,
-0.25659695,
0.4382064,
-0.32601374,
-0.31707594,
0.37165958,
0.26243702,
-0.06221841,
-0.13226888,
0.02838563,
0.39511728,
-0.48032272,
-0.0069514317,
-0.0866106,
0.05556848,
-0.23614317,
-0.01779127,
0.011666865,
-0.023133866,
-0.3698547,
0.14239475,
-0.27518976,
-0.046369616,
0.33198476,
-0.0037703433,
-0.4990735,
0.28263253,
-0.0772855,
-0.009324595,
-0.113634914,
-0.05988624,
-0.19901036,
0.0059010372,
-0.09681408,
-0.24928449,
-0.060868114,
-0.35195348,
-0.027122563,
0.031234752,
-0.031964414,
-0.02082952,
-0.70413256,
-0.1479382,
0.07692035,
0.10993544,
0.20286751,
-0.017327089,
0.16493085,
-0.28708443,
-0.015886506,
-0.051456563,
-0.044605207,
0.0040706526,
-0.022642322,
0.11414971,
-0.070092686,
-0.3005369,
-0.019637352,
0.29515794,
-0.2990094,
0.055441447,
-0.15374884,
-0.2053499,
0.21593542,
0.644628,
-0.47671756,
0.13443518,
-0.016552359,
-0.018035468,
0.005132251,
0.19758241,
-0.18177567,
-0.16042753,
0.16860779,
0.04954919,
-0.15718602,
0.042078465,
0.028890938,
-0.05391676,
-0.030168893,
0.023880068,
0.06828382,
0.009842159,
0.035715293,
0.032268163,
-0.011555812,
-0.08068381,
-0.03163968,
-0.040571406,
-0.02911523,
0.024726724,
-0.010863751,
0.005824821,
-0.020233657,
-0.0016495718,
0.027371492,
0.0453353,
0.055628184,
0.011216211,
0.010514678,
-0.050913993,
0.061800063,
0.010184818,
-0.06048482,
-0.020356957,
-0.039165627,
-0.0073960507,
0.040059585,
-0.0194161,
0.026984327,
-0.079852715,
-0.014509482,
-0.028532937,
-0.03561023,
0.046847478,
0.0001829797,
-0.0395424,
0.0053244894,
-0.012330843,
-0.046988405,
0.015191469,
0.018708058,
-0.020220235,
-0.016657174,
-0.016841935,
0.052703883,
0.015382574,
-0.045350723,
-0.04978648,
-0.025139842,
0.02741211,
0.0009917483,
0.007463937,
0.019629404,
-0.062068924,
0.09189421,
0.05238745,
-0.024352381,
0.048046436,
0.011925887,
-0.06444545,
-0.01854607,
-0.017301386,
-0.026179343,
0.0051254737,
0.012650096,
-0.0519439,
-0.016663546,
-0.01814805,
-0.0034570438,
-0.03735483,
-0.0680707,
-0.008004444,
-0.03892862,
0.05097623,
-0.03103882,
-0.020032909,
-0.0057357587,
0.010904999,
-0.055699658,
-0.0011838953,
-0.001655036,
0.074284956,
0.0076670786,
0.0067345663,
-0.0351062,
-0.018204551,
0.020892505,
-0.05911516,
0.019634025,
0.028797524,
-0.039017256,
-0.03999232,
0.04616859,
-0.025320873,
0.03764416,
-0.00019687234,
0.029202562,
-0.05040079,
0.018337993,
0.024809862,
-0.025609132,
0.05310561,
0.004097035,
0.05299478,
-0.0247498,
-0.012599364,
-0.050235707,
-0.027525593,
0.0296963,
-0.023122542,
-0.01882259,
-0.08402376,
-0.0038088106,
0.07640276,
0.006862661,
0.04252296,
0.03847724,
-0.031224662,
-0.004153586,
-0.037470788,
-0.019317402,
0.043876775,
-0.05076969,
0.097863235,
0.08846039,
0.113616616,
0.08298727,
0.19695021,
-0.33109966,
-0.2534654,
-0.16036096,
-0.0068364246,
-0.36113235,
0.3260292,
-0.2558924,
-0.0091521535,
-0.18399554,
0.077288345,
-0.22364752,
-0.17816888,
-0.09036623,
0.08183522,
-0.24518166,
-0.33137232,
-0.020844381,
0.0013112123,
-0.19364259,
0.15960741,
-0.21137848,
0.14007252,
-0.1712564,
-0.187034,
-0.08309839,
0.014178245,
-0.3856875,
0.062003963,
-0.07240088,
0.07844082,
0.13401459,
-0.19508061,
-0.11959117,
-0.09274015,
-0.0054959417,
-0.053461473,
-0.40309668,
-0.16011071,
-0.0268513,
-0.122443475,
-0.08054444,
0.0040823435,
-0.4758437,
0.12673913,
0.20306568,
-0.072308145,
-0.05796834,
-0.027132813,
0.16343275,
-0.14226352,
0.1660224,
-0.18703048,
-0.24368624,
-0.24793391,
-0.6462723,
-0.17337912,
0.00044830472,
0.07418577,
0.116509855,
0.28873792,
-0.01549684,
0.5679955,
-0.004586267,
-0.151665,
-0.047207363,
-0.015933402,
-0.0043659452,
0.37852183,
0.13926311,
0.49184665,
0.21543474,
-0.015363946,
-0.52187175,
-0.37594318,
-0.057387155,
-0.20822863,
-0.08436584,
-0.039803013,
0.23304747,
-0.06436609,
-0.18462841,
-0.30260724,
-0.11086938,
-0.3732964,
-0.009333883,
-0.0005713969,
0.006010113,
-0.0120103005,
0.32806045,
-0.24241868,
-0.11124839,
-0.20675722,
-0.2304144,
-0.010179615,
-0.6996531,
0.27504295,
-0.41477492,
-0.41930956,
0.012980653,
0.13115503,
0.00060442893,
-0.10848405,
-0.4366135,
-0.13888258,
0.0077212714,
-0.06641677,
-0.007772732,
-0.10413469,
-0.11816868,
-0.21690382,
0.09738133,
-0.17621386,
0.14071086,
0.16589376,
-0.3250797,
0.02190655,
-0.04596189,
-0.0019184205,
-0.28948867,
0.053912345,
-0.4612663,
0.050422527,
-0.25062117,
0.32800213,
0.09143006,
-0.08703099,
-0.038975853,
-0.017485479,
0.20250341,
-0.32872146,
-0.22312158,
-0.021922974,
-0.13057607,
-0.23626874,
-0.047460195,
-0.095270336,
0.01917426,
-0.16992821,
-0.061763182,
-0.28125355,
-0.07614443,
0.4090931,
0.34618932,
-0.18854909,
-0.028463421,
-0.042093992,
-0.27744997,
-0.1479824,
-0.13978527,
-0.036541473,
0.08643547,
0.25377828,
-0.004431587,
-0.09785042,
-0.13819022,
-0.04287684,
0.35249832,
0.1589691,
0.147157,
-0.26635376,
-0.17756277,
-0.15378751,
-0.03250195,
-0.0051244893,
0.101163745,
-0.28191334,
-0.0855546,
-0.036032382,
0.0013568037,
-0.05537523,
-0.12660569,
-0.17171119,
-0.47450244,
-0.10468773,
-0.067360915,
-0.11413401,
0.18049802,
-0.33151707,
0.18477434,
-0.12857823,
-0.21735002,
-0.015969966,
0.18951628,
-0.04979085,
-0.11469289,
0.013085357,
-0.5690043,
0.06733878,
0.027818361,
0.1687395,
-0.13761078,
-0.09128931,
-0.07445502,
0.10135885,
0.16489944,
0.15289494,
-0.17944917,
0.06450599,
-0.04397256,
0.001447659,
-0.23082408,
-0.38604245,
-0.07546801,
-0.33896643,
-0.057115532,
-0.04637356,
0.14490333,
-0.11085927,
-0.19049889,
0.27586964,
-0.072291814,
-0.4655307,
0.064269036,
-0.08719388,
-0.02150347,
-0.04312721,
0.17271398,
-0.18360133,
0.023548145,
-0.030536665,
0.20636596,
0.016418973,
-0.13326538,
-0.2941196,
-0.27431133,
0.11088774,
-0.09487349,
0.3098361,
-0.09695508,
0.013266182,
-0.31793964,
-0.4586163,
-0.031179043,
-0.2706096,
0.18242866,
0.033285253,
-0.08871614,
-0.18803422,
-0.05383524,
0.12030888,
0.07106286,
0.091181464,
-0.28562585,
0.03956403,
-0.013033091,
0.0113544315,
0.16910367,
0.068672076,
0.3410889,
-0.107596345,
0.10747661,
0.15087052,
-0.11905247,
0.083950296,
0.13632451,
0.10253837,
-0.24887297,
0.18040624,
-0.22377539,
-0.0007420427,
0.074340336,
-0.13481125,
-0.071456775,
-0.022157546,
-0.17391342,
0.41123787,
-0.17830981,
-0.35899225,
-0.26439077,
-0.42845556,
-0.33448306,
-0.059865024,
0.034104373,
0.027266458,
0.24863358,
-0.22110505,
-0.18200526,
0.006614848,
0.029678237,
-0.13511951,
-0.010543918,
-0.0067817164,
0.1860914,
0.047041927,
-0.75104845,
0.04368257,
0.072387725,
-0.20593645,
-0.09654932,
0.008208082,
-0.008837043,
0.065509364,
0.053914823,
-0.06032444,
0.022725718,
-0.011138955,
0.065702565,
-0.0526421,
-0.08310711,
0.0989164,
-0.1650787,
0.021456443,
0.0017218696,
0.013713236,
-0.22865914,
0.19572552,
0.02584885,
-0.23076917,
-0.11342187,
0.072285995,
0.022417082,
-0.3659743,
-0.016337344,
0.16407128,
-0.2703867,
-0.16499878,
-0.011405347,
0.043007173,
0.2228464,
-0.027788928,
-0.051629655,
0.19635017,
0.17183718,
-0.35044694,
0.08364141,
0.1290677,
0.08250948,
0.0009553318,
-0.18677543,
-0.03600249,
-0.0650165,
-0.2851646,
-0.26241922,
-0.07312445,
-0.40341413,
-0.037988607,
0.032798745,
-0.6233027,
-0.036338225,
0.027830629,
-0.107218534,
0.022964844,
-0.022708805,
-0.024256198,
-0.073215246,
-0.5954305,
-0.023901861,
-0.33447203,
-0.3623035,
-0.014137377,
-0.2831019,
0.21270649,
0.020499032,
0.07764016,
0.040242687,
-0.3012033,
0.0342014,
-0.07166989,
0.25721043,
-0.0705618,
-0.0489994,
-0.22048485,
-0.32374653,
-0.08240012,
0.12020207,
-0.13565478,
0.01812542,
0.023717003,
-0.07805604,
-0.01911982,
-0.22126313,
-0.020493805,
-0.08026402,
0.16736072,
-0.5236925,
0.019371776,
0.16409689,
0.10652653,
-0.0791315,
0.21348616,
-0.1021177,
-0.16579622,
0.015491956,
0.13633086,
0.17613648,
0.11798413,
0.09581312,
-0.028440384,
0.16622579,
-0.23310997,
0.14052433,
-0.04928824,
0.018804846,
-0.26167554,
-0.07917066,
-0.31741744,
0.0056051556,
0.15529914,
0.21229053,
-0.31212118,
-0.064327054,
-0.06443902,
-0.21248455,
-0.14670248,
-0.0042096404,
-0.49683902,
0.060368188,
0.24490681,
-0.032668665,
-0.08286969,
-0.12065936,
-0.019113624,
-0.26167172,
0.25073606,
0.21546106,
0.06406983,
-0.104780026,
-0.058570784,
-0.082058415,
0.052980684,
-0.33161858,
-0.050667606,
-0.018678661,
-0.03614321,
-0.040027145,
-0.02371109,
0.15688409,
0.099797845,
0.16998102,
-0.030115377,
0.032370985,
-0.08717592,
0.28584152,
-0.06585048,
-0.19259518,
-0.038206927,
-0.28443116,
-0.16961753,
-0.061138295,
-0.22035393,
-0.024683015,
-0.4161799,
-0.3231657,
-0.31469125,
0.011750197,
0.039374895,
-0.241661,
0.05257815,
-0.029484076,
0.25627,
-0.784945,
0.015089894,
-0.3660406,
0.17921562,
-0.07652427,
-0.09487329,
-0.45040852,
-0.42258847,
-0.036103964,
-0.13425274,
-0.1366807,
0.017244548,
-0.34015432,
-0.018478911,
0.027920859,
-0.20002273,
0.03311895,
0.27691752,
0.018260889,
-0.13423282,
0.013890882,
-0.09559498,
-0.5546168,
0.18925959,
0.015905375,
0.11655907,
0.5195511,
0.007464311,
-0.5402373,
0.18533823,
0.1284233,
-0.3068621,
-0.0037752972,
-0.06604151,
-0.040963788,
-0.017177794,
0.09648863,
-0.005898078,
-0.008035216,
-0.098107025,
0.19615111,
0.09027996,
-0.094801694,
0.018530661,
-0.084353544,
-0.20948556,
-0.53699446,
-0.016480293,
-0.30560812,
-0.011270286,
-0.073107265,
-0.07805313,
0.21915571,
0.27764124,
0.09255217,
0.04277302,
-0.18669623,
-0.1350503,
0.14264877,
0.2208065,
-0.16060545,
-0.41465765,
-1.0521334,
-0.31979406,
-0.40273964,
-0.01006025,
0.07485477,
-0.32791,
0.20009768,
0.014987328,
0.30066314,
0.08120234,
-0.06882561,
-0.22653563,
-0.059769295,
-0.49246454,
-0.34353864,
0.14789736,
-0.054131784,
-0.026825966,
-0.117001966,
-0.057076667,
-0.4486578,
-0.13234435,
-0.19168495,
-0.13859257,
-0.025234347,
-0.065755084,
-0.621226,
-0.10648979,
0.18299298,
0.043227762,
0.16655913,
-0.20909868,
-0.40652958,
0.012727299,
-0.0019626273,
-0.069156595,
0.19448216,
-0.16731152,
-0.002585272,
-0.0062884195,
-0.056189775,
-0.3946379,
0.011440278,
0.051849376,
-0.37991968,
0.013532743,
0.0146766845,
-0.03958196,
0.37029117,
0.12298247,
-0.37124094,
-0.21290818,
0.40707582,
0.59850764,
0.33860457,
0.037474804,
0.008437131,
-0.3935191,
-0.97063833,
0.12346497,
-0.04996902,
-0.10727618,
-0.03277129,
0.0066679455,
-0.011421067,
-0.07405846,
-0.013019583,
-0.07420792,
-0.13334209,
0.119615756,
0.15897812,
-0.013681854,
-0.4557614,
0.20608027,
-0.036435585,
-0.45000437,
-0.53228754,
0.013367969,
0.17487244,
0.008292484,
-0.16038448,
-0.31046727,
-0.119450375,
-0.33625302,
-0.03962615,
0.15976791,
-0.024719324,
0.062473115,
-0.44084737,
-0.5067877,
0.0504486,
-0.6193028,
0.08553479,
-0.00031592904,
-0.041363917,
-0.09069352,
0.15900522,
-0.21631663,
-0.066113696,
0.33676067,
-0.032330327,
-0.22379175,
0.1590533,
0.11348126,
0.015720328,
0.033079784,
-0.363321,
0.13903229,
-0.40573585,
-0.2537195,
-0.110279694,
0.28186384,
-0.34344772,
-0.05028091,
0.209155,
0.007348775,
-0.034743104,
0.057938065,
-0.020080598,
-0.3657654,
-0.89779234,
-0.31395236,
-0.14972773,
-0.17052682,
0.012660793,
0.11663675,
-0.21525165,
-0.66705704,
-0.5855087,
-0.08578243,
-0.09010885,
0.003720885,
0.03580712,
0.026264276,
-0.4901978,
-0.05984782,
-0.26825377,
-0.22759111,
-0.08044227,
-0.020182425,
-0.3084704,
-0.25003093,
-0.32372108,
0.109156564,
-0.0005175282,
-0.03601769,
0.30935627,
-0.07066984,
0.25951788,
0.28989395,
0.026624676,
-0.115639925,
-0.0074501196,
0.05529247,
0.116805255,
-0.08180297,
-0.3207105,
0.20272093,
-0.3877276,
-0.3135905,
-0.29700786,
-0.0023952965,
-0.039918635,
-0.03512411,
-0.21492828,
0.06448276,
-0.08596661,
0.028064992,
-0.078290924,
0.00657227,
-0.15367934,
0.42944354,
0.41814917,
-0.08386605,
-0.016555527,
0.026345287,
-0.3904646,
0.040113952,
-0.31888133,
-0.07296312,
0.26330468,
0.044603884,
0.122684784,
-0.1300053,
0.03433115,
-0.45372275,
-0.22694226,
-0.13873549,
0.047590245,
0.010493802,
0.03962219,
-0.14663279,
-0.056150045,
-0.44611,
-0.5245923,
-0.12984335,
0.100209706,
0.08605372,
-0.20157757,
-0.02907032,
-0.23809177,
0.3057236,
-0.030607296,
-0.0763504,
-0.1822952,
-0.0011147803,
-0.14892203,
-0.06790787,
0.1793976,
-0.24651316,
0.01054356,
0.054548822,
-0.064979926,
-0.1313528,
-0.01226743,
-0.027286908,
-0.20417447,
-0.23375896,
0.03461604,
-0.12581323,
0.02084496,
0.004811361,
-0.3682137,
-0.49118242,
0.13832372,
0.24123813,
-0.023623735,
-0.21735959,
0.081295975,
0.10903801,
-0.24005409,
-0.22224309,
0.019699965,
-0.20813306,
-0.34452468,
0.08346042,
-0.1185391,
-0.094093576,
0.035119433,
0.54493314,
0.25718388,
-0.012112776,
0.28855702,
-0.03612404,
-0.006158276,
0.3432811,
-0.15347876,
0.24194619,
-0.09026641,
0.2219978,
-0.00852346,
0.053392608,
0.043923426,
0.010305808,
0.010420895,
0.04523272,
0.054250102,
-0.009328425,
0.0521777,
-0.036223896,
-0.009591004,
0.05307865,
0.00023259081,
0.014423275,
-0.041228674,
-0.023377761,
0.03460534,
-0.04877133,
0.0065906458,
-0.015406432,
-0.012721916,
0.024221944,
0.034077074,
-0.0033245843,
-0.04816363,
-0.020054525,
0.044797897,
-0.015471489,
-0.008125961,
-0.052718174,
-0.028039891,
-0.011650956,
-0.025985572,
0.051836908,
-0.060873482,
-0.010532603,
-0.0042322828,
0.020519359,
0.012180384,
0.020785926,
0.0009211972,
0.028697718,
0.017880378,
0.056798667,
-0.053668074,
0.054301437,
-0.043570045,
-0.032013196,
-0.0002911356,
0.020473365,
0.022174917,
0.021405,
0.018689688,
-0.03736007,
0.03939427,
0.02259789,
-0.0026568475,
-0.02446322,
-0.0041029905,
0.0070178867,
9.879694e-05,
0.020895386,
0.053710874,
-0.054654285,
-0.02545246,
-0.02554855,
-0.029030792,
0.0004941432,
-0.012228153,
-0.04542477,
-0.026152994,
0.025429007,
0.039883275,
0.056934144,
0.041237783,
-0.00848265,
-0.037508465,
-0.018103182,
0.0077064703,
0.025702128,
0.011171681,
-0.02581075,
-0.036042098,
0.0503628,
-0.048226938,
-0.011343893,
-0.035482775,
-0.050101697,
0.013675753,
0.032319907,
-0.0026045332,
-0.03963175,
-0.020242602,
0.010968498,
0.01309188,
0.04364532,
0.025118988,
0.019068357,
0.049327895,
0.018928088,
-0.047791865,
0.0011636852,
-0.024964591,
0.046153676,
0.010877099,
0.018647825,
-0.036444083,
-0.06311951,
-0.056670006,
0.04381298,
0.015354592,
0.053613447,
0.037348017,
0.014727369,
0.016586129,
0.003392897,
0.05319241,
-0.03325381,
-0.015126073,
-0.05438862,
0.0018403186,
0.00033803444,
0.00071180164,
0.015353936,
-0.033212908,
0.012096556,
-0.024704684,
-0.0381673,
-0.058290422,
0.015195442,
1.0248668e-05,
-0.32204115,
-0.10287912,
0.14537053,
0.23697154,
0.13024923,
-0.14579043,
-0.029157825,
0.18548304,
0.08029781,
-0.06067327,
-0.03571921,
0.054171212,
-0.46467772,
-0.13187629,
-0.26636666,
-0.19320828,
0.18999442,
0.41174763,
0.087285206,
-0.057092287,
-0.03668386,
-0.22597161,
-0.11044076,
-0.25512227,
-0.5430974,
-0.006179107,
-0.0069815526,
-0.09491179,
-0.03374456,
-0.41179967,
0.05352776,
0.39349625,
-0.032169692,
0.021258056,
-0.00013048078,
-0.01568691,
-0.07457657,
0.041996412,
-0.03441893,
0.093192145,
-0.5112023,
0.031485926,
-0.031520635,
0.026459979,
0.23131998,
-0.061707694,
0.25363073,
-0.30133942,
-0.020418447,
-0.025654107,
-0.0152338445,
0.28725493,
-0.0152694,
-0.048106022,
0.05839691,
0.113395296,
-0.019080348,
0.06275297,
-0.18597633,
-0.06447456,
-0.25803405,
-0.2830726,
0.40264305,
0.022750484,
-0.15055637,
-0.4320403,
-0.13016905,
-0.055375617,
-0.16843924,
0.17971916,
0.35086823,
0.007115118,
0.2132885,
-0.072207764,
-0.060153145,
-0.17049181,
-0.3316503,
0.046656843,
-0.05098925,
0.06399929,
-0.010153327,
0.20520537,
-0.0020643885,
0.042624965,
0.32722306,
-0.029672692,
-0.18596473,
-0.038801957,
-0.1596952,
-0.098833226,
-0.10137174,
-0.123300634,
0.15577407,
-0.057471838,
-0.18089245,
0.32484812,
-0.055612586,
-0.32323363,
-0.2369556,
-0.33642918,
-0.061008308,
-0.045282524,
0.27385846,
-0.02768184,
0.3259914,
-0.28943053,
-0.39521053,
0.038147803,
0.1642813,
0.38797376,
-0.15740292,
0.06571234,
-0.56999725,
-0.3675567,
-0.21821293,
-0.15349834,
0.06041123,
-0.06720471,
-0.013831666,
0.012337287,
-0.05922096,
0.38698366,
-0.49678022,
0.14640793,
0.1179925,
0.043454766,
-0.0031875982,
-0.13529432,
-0.39938247,
0.25250125,
-0.09571271,
-0.15098146,
-0.19947758,
-0.0427474,
-0.01576463,
-0.022862686,
0.14641641,
-0.18279111,
-0.03355531,
-0.3687295,
0.28027308,
0.0039727273,
-0.09936438,
-0.18450576,
0.076303296,
-0.4765028,
-0.1993709,
