#ifndef DENSE_1_H
#define DENSE_1_H

// Pesos para la capa dense_1
float dense_1_weights[] = {
-0.21984078,
0.113250956,
-0.096051194,
-0.15450048,
0.14322627,
-0.04861412,
0.010762951,
-0.27174243,
0.049426317,
-0.07270366,
0.16023093,
-0.17346147,
-0.22741242,
-0.38161185,
-0.08249322,
0.2098661,
0.08842859,
0.88048315,
-0.19953547,
-0.25634912,
-0.03515517,
0.07639806,
-0.14855708,
0.7376647,
-0.02395418,
-0.18321948,
-0.4271652,
0.22487889,
-0.022218624,
-0.08839021,
-0.26574764,
-0.01412975,
-0.14503883,
-0.20346431,
0.21160705,
0.0949118,
-0.3170444,
0.119213186,
0.1361717,
0.341742,
-0.4354635,
0.11541518,
-0.10887881,
-0.45348907,
0.09716806,
0.056887276,
0.2432682,
0.058141015,
-0.16312811,
0.45002526,
0.28586426,
0.26917362,
-0.21552482,
-0.034357738,
0.18300283,
0.055890016,
-0.028291348,
-0.24861461,
-0.27968168,
-0.22528523,
-0.5070324,
-0.071365595,
0.15645249,
-0.15861204,
-0.13434143,
-0.014592556,
0.08771753,
0.044963386,
0.14724644,
0.09301351,
0.06283498,
-0.14453772,
0.18027726,
0.06594374,
0.42165673,
0.0027798377,
0.1734855,
0.15264617,
-0.19225256,
0.08750128,
0.2325438,
0.15917835,
-0.597442,
0.1485871,
0.6607745,
0.13203253,
0.14537899,
0.20267302,
0.74429494,
0.19295894,
-0.080654025,
-0.44705495,
0.17246975,
-0.18263768,
-0.45739874,
0.29187185,
0.21556038,
-0.1221077,
-0.21776915,
-0.091580324
};

// Sesgos para la capa dense_1
float dense_1_biases[] = {
-0.09404581
};

#endif // DENSE_1_H
